unsigned int inputSize = 784;
unsigned int outputSize = 10;
unsigned int hiddenLayers = 1;
NeuralNetwork nn;
NeuralNetwork_ctor(&nn, inputSize, outputSize, hiddenLayers);


/* Configuring layer: "hidden" */

char * hiddenName = "hidden";
unsigned int hiddenNumNeurons = 32;
unsigned int hiddenInputSize = 784;
float hiddenWeights[32][785] = {
  { -0.017857292667031288, 0.06488877534866333, -0.038860924541950226, 0.005287144333124161, -0.015523809939622879, 0.09469063580036163, 0.036459606140851974, -0.04213355481624603, -0.0005380444345064461, -0.004813651088625193, -0.003289225045591593, 0.102423757314682, 0.03419698029756546, 0.029037687927484512, 0.04162782430648804, -0.0012709135189652443, -0.03851844370365143, 0.08347482979297638, -0.045547597110271454, 0.04377961903810501, -0.05808628350496292, -0.0009677040507085621, 0.0014918202068656683, -0.03453676402568817, -0.04808545857667923, -0.004625300411134958, 0.09632183611392975, -0.06589283794164658, -0.06693202257156372, 0.0934937596321106, 0.03818579390645027, 0.0602383092045784, -0.021046021953225136, -0.01326727494597435, -0.032668329775333405, 0.09631074965000153, 0.027324240654706955, -0.03955256938934326, 0.07093247771263123, 0.08533678948879242, 0.015268051996827126, 0.08984452486038208, -0.04676719382405281, 0.07953427731990814, -0.04820080101490021, -0.0433138832449913, -0.015027959831058979, 0.08277824521064758, 0.10234978795051575, 0.012437039986252785, 0.0076516238041222095, 0.05073215067386627, 0.09844337403774261, 0.025328921154141426, 0.03667539730668068, 0.04172505438327789, 0.007840481586754322, -0.03535504639148712, 0.006561983376741409, -0.03160950541496277, -0.0015712984604761004, 0.005481120198965073, -0.04109101742506027, -0.006803925149142742, -0.010001165792346, -0.0636046826839447, 0.08887434750795364, 0.042609892785549164, 0.018941106274724007, -0.054956257343292236, -0.033443473279476166, 0.09542052447795868, -0.03325210511684418, 0.06065351516008377, -0.05803009122610092, -0.05262591689825058, -0.062370944768190384, 0.035554397851228714, 0.0002749771811068058, 0.03260727599263191, 0.0252134520560503, -0.04967653006315231, 0.047004327178001404, 0.09060563147068024, 0.004581902641803026, 0.04784432053565979, 0.06222515553236008, -0.06734278798103333, 0.022256197407841682, -0.06265388429164886, -0.031764935702085495, -0.02080192230641842, 0.01578759402036667, 0.05993490293622017, 0.08266402781009674, -0.029391571879386902, 0.007023408077657223, 0.05792490765452385, -0.06272441148757935, 0.08504438400268555, 0.029945172369480133, 0.0059690880589187145, -0.05117715895175934, 0.06523719429969788, 0.017916975542902946, 0.025148065760731697, -0.04250378906726837, 0.05430979281663895, 0.05725640058517456, 0.01685822568833828, 0.0467495322227478, 0.09276296198368073, -0.03233308345079422, 0.0993492603302002, -0.022077497094869614, 0.010465990751981735, -0.060984063893556595, 0.0033964188769459724, -0.04818947985768318, -0.06114844232797623, -0.06400249153375626, 0.07237451523542404, 0.012995258904993534, -0.003388748038560152, 0.060125645250082016, -0.047132283449172974, 0.0767674669623375, 0.06147924065589905, 0.053955309092998505, 0.016322830691933632, 0.022004783153533936, -0.061219472438097, 0.056925218552351, -0.04896685481071472, 0.004458295647054911, 0.09320763498544693, -0.010010600090026855, 0.015471594408154488, -0.023470541462302208, 0.03116413578391075, -0.06426350027322769, 0.00018958610598929226, -0.03583039343357086, 0.07386922091245651, -0.04903489351272583, -0.04626564681529999, -0.055500540882349014, 0.09205231815576553, 0.023569317534565926, 0.07616443186998367, 0.05145450308918953, -0.011678360402584076, -0.02771206758916378, 0.002989462809637189, 0.016016831621527672, -0.008930539712309837, -0.06578851491212845, -0.0429343581199646, 0.087882399559021, 0.030811559408903122, 0.02912447229027748, 0.05307149142026901, -0.03501162678003311, 0.09088612347841263, 0.008592489175498486, 0.051817167550325394, 0.06441957503557205, -0.01726105995476246, 0.0944681167602539, 0.05866546183824539, -0.06391888856887817, 0.06324782967567444, -0.043886587023735046, -0.06490648537874222, 0.08505415916442871, -0.015607296489179134, 0.08285686373710632, 0.016931595280766487, -0.006959843449294567, 0.0761096328496933, 0.08378089964389801, -0.025593779981136322, -0.010652200318872929, 0.07539461553096771, 0.058283429592847824, 0.033367324620485306, -0.03486277535557747, 0.028955405578017235, 0.09236609935760498, -0.03433114290237427, -0.0423666387796402, -0.036900896579027176, 0.010684448294341564, 0.07225961983203888, -0.009713997133076191, 0.10234567523002625, 0.06710709631443024, 0.04812585562467575, 0.02636129781603813, -0.03616230934858322, -0.0005115398089401424, -0.05579133331775665, 0.0940689891576767, 0.039497025310993195, 0.036186955869197845, -0.03477796912193298, 0.024838944897055626, 0.0395403690636158, 0.07988045364618301, 0.08721069246530533, -0.07964591681957245, -0.06299201399087906, -0.02376732975244522, -0.004242186434566975, -0.006994652096182108, 0.014839278534054756, 0.043919309973716736, -0.06423366814851761, 0.020872527733445168, 0.06403210014104843, 0.05893494188785553, -0.04399725794792175, 0.02167040854692459, -0.04668644070625305, 0.027822930365800858, 0.016379568725824356, 0.01275891438126564, -0.03111216612160206, 0.085903599858284, 0.017402125522494316, 0.015071580186486244, 0.056947581470012665, -0.04961355775594711, 0.020460039377212524, -0.07442742586135864, -0.06398503482341766, -0.037457335740327835, -0.05366143211722374, -0.024139048531651497, 0.06718774139881134, 0.0722564086318016, -0.015808789059519768, 0.0532267689704895, 0.022778963670134544, -0.028125470504164696, 0.0011765594827011228, -0.015550564043223858, 0.041948702186346054, 0.09069322794675827, -0.020530549809336662, -0.05490126833319664, 0.018117785453796387, -0.007823001593351364, 0.0187953133136034, 0.05984707921743393, 0.09458157420158386, 0.04955514892935753, -0.046168453991413116, 0.06800387799739838, -0.04471193253993988, 0.08723396062850952, 0.08834277838468552, -0.008278889581561089, -0.06558766216039658, 0.02303324081003666, -0.0110563850030303, -0.07989757508039474, 0.017301874235272408, -0.04445413127541542, -0.07938829809427261, -0.015100546181201935, 0.08227773010730743, 0.07485925406217575, 0.0012538173468783498, -0.014457952231168747, 0.08400163799524307, -0.060271188616752625, 0.038189519196748734, -0.03889784589409828, 0.08311446011066437, 0.014553200453519821, -0.03711523115634918, 0.03690030798316002, 0.04861932247877121, 0.09384188055992126, 0.02872360870242119, -0.05413564294576645, 0.05967731401324272, -0.055559106171131134, -0.04315069690346718, -0.0652913898229599, 0.09314116835594177, 0.07183616608381271, -0.04555699601769447, 0.05566813051700592, -0.058668967336416245, 0.07835046201944351, -0.04847293719649315, -0.0004381554899737239, 0.045483119785785675, -0.06619198620319366, -0.015117073431611061, -0.018951190635561943, 0.05938940495252609, 0.06836096942424774, 0.07595227658748627, 0.09294886142015457, 0.04367484152317047, 0.037342410534620285, -0.032649293541908264, -0.020049406215548515, -0.04083790257573128, -0.04692067205905914, 0.06542953848838806, 0.014168879017233849, 0.09704970568418503, 0.08063667267560959, 0.014686273410916328, 0.08390942215919495, -0.06690970808267593, -0.07249961793422699, 0.002369047375395894, -0.015487520024180412, -0.026991797611117363, 0.039158470928668976, -0.02866528183221817, 0.08997920155525208, 0.0018654288724064827, -0.06163319572806358, -0.07669568061828613, 0.03857831284403801, 0.02321070432662964, -0.04998927190899849, 0.003752123098820448, -0.024684108793735504, 0.0943249836564064, 0.08275529742240906, -0.03832029551267624, 0.09922099113464355, -0.004153132904320955, 0.023004157468676567, -0.03681262955069542, -0.03493890166282654, 0.003552381182089448, 0.019920507445931435, 0.07023323327302933, -0.033122554421424866, 0.04888209328055382, 0.01734359748661518, 0.013243697583675385, 0.005793468095362186, 0.09002919495105743, -0.057766254991292953, -0.0517362616956234, -0.0036523714661598206, 0.0835559144616127, 0.060047611594200134, 0.06312902271747589, 0.04660375043749809, 0.06873300671577454, 0.011947950348258018, -0.03966961428523064, -0.034589674323797226, -0.048993587493896484, 0.033372242003679276, 0.06299364566802979, 0.028148386627435684, -0.04757578670978546, 0.08014769107103348, -0.023534424602985382, -0.0627150610089302, -0.040741484612226486, 0.025973843410611153, 0.07741926610469818, -0.04538674280047417, 0.02198290266096592, -0.060882192105054855, -0.05922365561127663, -0.023403827100992203, 0.04562627896666527, -0.07043936103582382, 0.07101885974407196, 0.020437659695744514, -0.01386792678385973, -0.07777447998523712, 0.0520164854824543, -0.03855690360069275, 0.04832923784852028, 0.053983356803655624, 0.033293068408966064, 0.009011618793010712, 0.014084678143262863, -0.010458545759320259, 0.01094641163945198, 0.08504930138587952, 0.07943326234817505, 0.08259230852127075, -0.012035327963531017, 0.05602866783738136, -0.0029359080363065004, 0.05296751856803894, 0.03180889040231705, 0.005612989421933889, 0.05962063744664192, 0.05471478030085564, -0.04763447865843773, 0.008137078955769539, 0.015495935454964638, -0.0032795772422105074, -0.03999621048569679, 0.0516868457198143, -0.0016184033593162894, -0.07139015942811966, -0.03821265324950218, -0.0468447171151638, -0.04894029349088669, -0.018043747171759605, 0.023568585515022278, 0.015716444700956345, 0.09849941730499268, 0.014726180583238602, 0.07669655233621597, 0.09031051397323608, -0.0008869474404491484, 0.013671908527612686, 0.019435709342360497, 0.004963743034750223, 0.01524561271071434, -0.047169461846351624, -0.04941068962216377, -0.015059057623147964, 0.08747036755084991, 0.011211029253900051, -0.026279056444764137, 0.07933617383241653, -0.0791042372584343, -0.035909995436668396, -0.017489831894636154, 0.04823629930615425, -0.0021831775084137917, 0.07476045191287994, 0.02147618867456913, 0.054451510310173035, -0.06218567490577698, 0.08867943286895752, -0.041874125599861145, -0.049952343106269836, 0.08574332296848297, 0.050014108419418335, 0.06617337465286255, 0.04898940026760101, 0.07682738453149796, -0.029440829530358315, -0.05034085363149643, 0.023784488439559937, -0.033947236835956573, 0.08157600462436676, 0.033084556460380554, -0.01975046657025814, 0.04473580792546272, 0.09184259921312332, -0.06780209392309189, -0.027106566354632378, -0.05926845222711563, 0.03732302784919739, 0.03350911661982536, -0.05111996829509735, 0.09166396409273148, -0.06630012392997742, -0.012153062038123608, 0.07649777829647064, 0.04598231241106987, 0.027461891993880272, 0.008195087313652039, 0.08926386386156082, -0.018738871440291405, 0.050314761698246, 0.008901247754693031, -0.06725648790597916, 0.011290367692708969, 0.09950907528400421, 0.031128156930208206, 0.033619798719882965, -0.04453353211283684, 0.06126764044165611, -0.06171358376741409, -0.07759471237659454, -0.0028022020123898983, 0.020706694573163986, -0.04403052479028702, -0.002606366528198123, -0.04373255744576454, -0.025081126019358635, 0.0127249201759696, 0.007943729870021343, 0.008342953398823738, -0.027795106172561646, -0.0402672216296196, 0.00930992141366005, -0.012115645222365856, 0.07633896917104721, 0.08298154175281525, -0.06566592305898666, 0.04963228851556778, -0.05396817997097969, 0.09770968556404114, 0.07823808491230011, -0.050227269530296326, -0.009645624086260796, -0.05873289704322815, 0.06421930342912674, -0.020664215087890625, 0.00946930330246687, -0.06192050129175186, 0.004367616027593613, 0.06828770786523819, 0.01291617751121521, -0.03459426388144493, -0.08580182492733002, 0.017984317615628242, -0.05998647212982178, 0.0073623936623334885, -0.06421338021755219, -0.06446076184511185, -0.02555445209145546, -0.04794595390558243, 0.03513981029391289, 0.0017619590507820249, 0.05714714154601097, -0.05942118167877197, 0.014404436573386192, 0.02684827521443367, 0.06919300556182861, 0.08308464288711548, 0.07776496559381485, -0.048592984676361084, 0.036771632730960846, -0.06363870203495026, 0.09724653512239456, -0.017837325111031532, -0.020734848454594612, -0.0777396708726883, -0.05182408541440964, -0.044529881328344345, 0.045847415924072266, 0.008815336041152477, 0.07542424649000168, -0.010564805008471012, -0.0827961266040802, 0.07424851506948471, 0.08888078480958939, 0.042015764862298965, 0.04707241430878639, -0.041631776839494705, -0.045800596475601196, 0.044500384479761124, 0.012893225997686386, 0.09464221447706223, 0.04035235941410065, -0.040085144340991974, 0.07794098556041718, -0.06749039143323898, 0.010679814964532852, 0.058786578476428986, 0.10008472204208374, -0.006075332406908274, -0.023755092173814774, 0.04974258691072464, 0.05955538526177406, 0.05487893521785736, -0.01722119189798832, -0.0033137451391667128, -0.07247356325387955, -0.007705747149884701, -0.08201683312654495, 0.04464821144938469, 0.04608580470085144, 0.007848727516829967, -0.04542656987905502, 0.026239516213536263, -0.03836257755756378, 0.04575551673769951, -0.04319080710411072, -0.032480522990226746, -0.05271826684474945, 0.06368730962276459, 0.05370987206697464, 0.0062041692435741425, 0.026079166680574417, 0.003265497274696827, 0.04570896178483963, -0.02247016690671444, 0.08286091685295105, 0.023543620482087135, -0.06233242154121399, 0.08444701135158539, -0.01811438612639904, -0.00016768126806709915, -0.05909477546811104, 0.07283814251422882, 0.024751069024205208, -0.014483449049293995, 0.04859766364097595, 0.04294021427631378, -0.014349746517837048, -0.027059627696871758, -0.02278810180723667, -0.04004858434200287, 0.004990193992853165, -0.008332297205924988, 0.008115201257169247, -0.024822602048516273, 0.06322827935218811, 0.0873059630393982, 0.034166369587183, 0.03616664931178093, -0.0014248944353312254, -0.04001205414533615, 0.07863488793373108, -0.003595808520913124, -0.0077378335408866405, 0.038227297365665436, -0.024857299402356148, -0.031605977565050125, 0.07486489415168762, 0.08593703806400299, -0.07852891087532043, 0.052059173583984375, 0.028822392225265503, -0.05019589886069298, 0.0035583723802119493, 0.00970748532563448, -0.050249457359313965, 0.07629387825727463, 0.061463359743356705, -0.028786776587367058, -0.038680873811244965, 0.009920072741806507, 0.016452884301543236, 0.09649905562400818, 0.024647757411003113, 0.052557650953531265, 0.015548976138234138, -0.034315325319767, 0.016520997509360313, -0.022054288536310196, 0.03024536743760109, -0.02471412718296051, -0.05172634869813919, -0.004477243404835463, -0.02324286289513111, 0.004823323804885149, 0.026564037427306175, 0.042505472898483276, 0.033855732530355453, 0.03374910354614258, -0.03551919013261795, -0.026585185900330544, 0.06675988435745239, -0.020327411592006683, -0.002592529868707061, 0.029338806867599487, -0.05495318025350571, -0.055292073637247086, -0.04799237102270126, -0.04625990614295006, -0.0051181018352508545, 0.02510591223835945, 0.08722583204507828, -0.0626123696565628, -0.022488584741950035, -0.0493696853518486, 0.061809055507183075, -0.054743897169828415, -0.015553860925137997, 0.05972587317228317, 0.04318471625447273, -0.03200080618262291, -0.06309858709573746, -0.0487145259976387, 0.02541116252541542, -0.04886656254529953, 0.05891793221235275, -0.03118412010371685, 0.060728199779987335, 0.03935472294688225, -0.036600034683942795, 0.0961773693561554, 0.04379633069038391, 0.008692282252013683, -0.010964429937303066, -0.032999154180288315, 0.07326599955558777, 0.1021650955080986, 0.09575757384300232, -0.04937131702899933, -0.06722261756658554, 0.053671762347221375, 0.062400586903095245, -0.05907868966460228, 0.026104945689439774, 0.019291477277874947, 0.02744494006037712, -0.015004039742052555, -0.051401473581790924, -0.049155816435813904, 0.07712667435407639, 0.06762221455574036, 0.0011528369504958391, 0.012026198208332062, 0.02530769258737564, 0.04101600870490074, -0.053036320954561234, 0.03844912350177765, -0.03891599178314209, 0.09745313227176666, 0.04403895139694214, 0.08563283085823059, 0.05086905136704445, 0.012541704811155796, -0.005730260629206896, 0.06013918295502663, -0.05987267568707466, 0.10299953818321228, 0.018401719629764557, -0.005893065594136715, 0.05703027546405792, 0.04084988310933113, 0.09767022728919983, -0.010715490207076073, 0.0510803759098053, 0.059867002069950104, 0.05031643807888031, 0.09440909326076508, 0.06657460331916809, -0.01056320033967495, 0.0014555181842297316, -0.0680781677365303, 0.07714137434959412, -0.051087845116853714, 0.03555940091609955, 0.08431844413280487, -0.04178415238857269, -0.04966621473431587, -0.028045181185007095, 0.006828433834016323, 0.06993533670902252, 0.005342299118638039, 0.10203906148672104, 0.0595734640955925, 0.027561474591493607, 0.04982808232307434, 0.035287726670503616, -0.011439254507422447, 0.07137565314769745, -0.0581536665558815, 0.051825158298015594, 0.004909169394522905, -0.04396987706422806, -0.010060885921120644, 0.04968526214361191, 0.08886118233203888, 0.050581470131874084, -0.01901000179350376, -0.05838809907436371, -0.024120226502418518, 0.03382786363363266, -0.0637393519282341, 0.0048486110754311085, -0.02071588672697544, 0.05669500306248665, -0.06321967393159866, 0.07214672118425369, 0.07360732555389404, -0.03077266551554203, 0.03750849887728691, 0.007518280763179064, 0.09201650321483612, -0.01838185451924801, 0.025975022464990616, 0.030179928988218307, -0.04917483031749725, -0.030963309109210968, -0.049053654074668884, 0.03161270543932915},
  { 0.029619529843330383, -0.04710596427321434, -0.06186565384268761, -0.05972826108336449, -0.0921049490571022, -0.0871567651629448, -0.03838544711470604, -0.029247116297483444, -0.02240338921546936, -0.06913376599550247, -0.02082378789782524, -0.05660909041762352, -0.02958524599671364, -0.05744687840342522, 0.03146694228053093, 0.011587818153202534, -0.012354911305010319, 0.02703818678855896, -0.06393484026193619, -0.036693740636110306, 0.03441799804568291, -0.008318056352436543, 0.005774530116468668, -0.06787294894456863, -0.022323384881019592, -0.07275741547346115, -0.0467333160340786, 0.0010045013623312116, -0.002380317309871316, -0.10803843289613724, 0.028360916301608086, 0.0142504358664155, -0.006373895797878504, 0.018744364380836487, -0.00634826859459281, 0.003115552943199873, 0.05241549387574196, -0.01706257089972496, 0.02964571863412857, 0.04795856401324272, -0.04823533818125725, 0.017153199762105942, -0.01804608479142189, -0.01515986118465662, -0.03129835054278374, -0.010713140480220318, -0.04663952812552452, -0.07969171553850174, -0.06228087469935417, -0.016654519364237785, 0.04941988363862038, -0.013570084236562252, 0.026157673448324203, -0.09924190491437912, 0.03256094828248024, -0.040572550147771835, 0.004941533785313368, -0.01920056715607643, -0.09013570100069046, -0.10715904086828232, -0.11006966233253479, 0.043627601116895676, -0.09303946048021317, 0.02805303782224655, -0.02895703911781311, -0.10941022634506226, -0.09383837133646011, -0.0009765769354999065, -0.02772369049489498, -0.016180789098143578, -0.14591670036315918, -0.18716228008270264, -0.1219954714179039, -0.15913325548171997, -0.08381946384906769, -0.021866729483008385, -0.09866799414157867, -0.09238190948963165, -0.0003397426335141063, -0.10472038388252258, -0.06227443739771843, -0.04643478989601135, -0.10223280638456345, -0.06609628349542618, 0.014283275231719017, 0.054534975439310074, 0.006282126996666193, 0.027477886527776718, -0.08872099220752716, -0.07386384904384613, -0.07033456861972809, -0.01925017312169075, 0.014337087981402874, 0.07389826327562332, -0.05149167776107788, 0.024738525971770287, -0.04075358435511589, -0.07317071408033371, -0.17559285461902618, -0.1999986469745636, -0.11136799305677414, -0.18652500212192535, -0.1332080364227295, -0.045829348266124725, -0.14560650289058685, -0.08719826489686966, -0.026489168405532837, -0.12695424258708954, -0.05829031765460968, -0.04458874836564064, -0.011592629365622997, -0.06661978363990784, -0.11369606107473373, -0.06154976412653923, -0.10391358286142349, -0.11039388924837112, -0.0053873625583946705, 0.03993309661746025, -0.07195718586444855, -0.06646942347288132, -0.02792041003704071, -0.08338247984647751, 0.01603398285806179, -0.043108996003866196, 0.1091001108288765, -0.012247730046510696, -0.10287925601005554, -0.10804703086614609, 0.0906439870595932, -0.16762937605381012, -0.10917708277702332, -0.051210761070251465, -0.09212952107191086, -0.2759908437728882, -0.12021738290786743, -0.06280478090047836, -0.10482046008110046, -0.03918588161468506, 0.08566492795944214, 0.06670588254928589, 0.053968396037817, -0.0034661656245589256, 0.046688709408044815, -0.05715337023139, -0.03863969072699547, 0.01951630413532257, -0.024675870314240456, -0.04751482605934143, -0.07311920076608658, -0.011992047540843487, -0.028163310140371323, 0.07045546174049377, 0.05941439047455788, 0.04215940088033676, 0.07027120143175125, -0.0163284745067358, -0.23799237608909607, -0.11245736479759216, -0.1353125125169754, -0.13580580055713654, -0.10447988659143448, -0.08992194384336472, -0.19139781594276428, -0.16662368178367615, -0.08879851549863815, -0.07093315571546555, 0.02765217423439026, -0.0772855281829834, -0.09598302096128464, -0.08561354130506516, 0.04620171710848808, 0.007350465748459101, 0.0613262765109539, 0.02484402433037758, 0.007156853564083576, -0.012340196408331394, -0.06115981936454773, 0.10534097254276276, -0.027004443109035492, 0.05806589871644974, 0.2266189306974411, 0.1182306781411171, 0.20087163150310516, 0.18496936559677124, 0.10684047639369965, 0.06907328218221664, 0.02542809396982193, 0.11854595690965652, 0.10363804548978806, 0.12591660022735596, 0.12835299968719482, -0.04438723623752594, -0.08298872411251068, 0.031636085361242294, 0.04984358698129654, 0.013665588572621346, -0.0026874742470681667, -0.008324059657752514, -0.08066308498382568, -0.017384972423315048, -0.026004843413829803, -0.12974627315998077, -0.09228572994470596, 0.08124042302370071, -0.019416235387325287, 0.04938020184636116, 0.09762368351221085, 0.17670564353466034, 0.1025184765458107, 0.2724151313304901, 0.3597455322742462, 0.20531637966632843, 0.2579745650291443, 0.26571106910705566, 0.2112373262643814, 0.21681123971939087, 0.22068658471107483, 0.12907162308692932, 0.09453659504652023, 0.11433356255292892, -0.001160505460575223, -0.03433578833937645, 0.015521343797445297, 0.002721454482525587, 0.005165854934602976, -0.06897547096014023, 0.013175596483051777, -0.013165207579731941, -0.04930733144283295, -0.046357955783605576, -0.02531524747610092, -0.02371058240532875, -0.058237332850694656, 0.10178445279598236, 0.08525413274765015, 0.1928625851869583, 0.18933062255382538, 0.23485465347766876, 0.2681998014450073, 0.29593902826309204, 0.2865956723690033, 0.3778168857097626, 0.2034476399421692, 0.32973918318748474, 0.2156050056219101, 0.24266953766345978, 0.13862738013267517, 0.1418897956609726, -0.018004119396209717, 0.13627049326896667, 0.048180192708969116, 0.0625697523355484, 0.04149862378835678, -0.05725177749991417, -0.07797261327505112, 0.021384181454777718, -0.03273160383105278, 0.042482223361730576, -0.05050724372267723, 0.1134016215801239, 0.02227075770497322, 0.0611022524535656, 0.198383167386055, 0.19233134388923645, 0.18401871621608734, 0.34375330805778503, 0.3004409670829773, 0.3030213713645935, 0.056140199303627014, 0.17024332284927368, 0.2251489907503128, 0.23674796521663666, 0.08186870813369751, 0.07186853885650635, 0.10671264678239822, 0.12342306971549988, 0.047795142978429794, 0.15188421308994293, 0.1436401605606079, 0.10317280143499374, -0.04931684583425522, -0.05459308996796608, 0.0297396220266819, -0.0036409697495400906, 0.00994179118424654, 0.06475840508937836, 0.08080636709928513, 0.08403518795967102, 0.09077895432710648, 0.0286397747695446, 0.13858617842197418, 0.16172416508197784, 0.06349265575408936, 0.024189487099647522, 0.21586468815803528, 0.1681821346282959, -0.01044651959091425, 0.11257663369178772, 0.003949856851249933, 0.15151061117649078, -0.049504898488521576, 0.036412857472896576, 0.11119683086872101, 0.1574888378381729, 0.11762966215610504, 0.15910717844963074, 0.11549308896064758, 0.01266907062381506, -0.1079346165060997, 0.00020048333681188524, 0.05691905692219734, 0.057970792055130005, 0.08325767517089844, 0.0810294821858406, 0.0534299872815609, 0.09552987664937973, 0.017953382804989815, 0.13849852979183197, -0.006845393683761358, -0.03652838617563248, 0.0566200315952301, -0.03721511363983154, 0.09029462188482285, 0.009621239267289639, -0.061289846897125244, -0.18278467655181885, 0.13444754481315613, -0.011045415885746479, -0.07565023750066757, 0.08487662672996521, 0.12761233747005463, 0.12486981600522995, 0.06434006989002228, 0.04028695449233055, 0.15924681723117828, 0.013797713443636894, -0.06874387711286545, 0.05195548012852669, -0.003698861226439476, 0.004341585095971823, 0.010799478739500046, 0.07477504760026932, 0.13244114816188812, 0.03158904239535332, -0.026253728196024895, -0.039693985134363174, -0.11455945670604706, -0.10491292923688889, -0.09447775036096573, -0.3148968815803528, -0.11607584357261658, 0.038201116025447845, -0.013114061206579208, -0.19553951919078827, 0.07582922279834747, 0.10982362926006317, -0.02141362614929676, -0.057720571756362915, -0.09165145456790924, 0.004899781662970781, -0.06049449369311333, -0.17208033800125122, -0.06435579061508179, -0.024319102987647057, -0.1139400526881218, -0.08024007827043533, -0.08378076553344727, 0.04011664539575577, -0.021521981805562973, 0.11064901947975159, -0.04422546178102493, -0.049045924097299576, -0.13982342183589935, -0.16478803753852844, -0.08465602248907089, -0.08273216336965561, -0.081192746758461, -0.07038755714893341, -0.09751826524734497, 0.02581849880516529, -0.05695413798093796, -0.15074147284030914, -0.08286603540182114, -0.09919186681509018, -0.028383241966366768, -0.014262889511883259, -0.006956563331186771, -0.1276586502790451, -0.1516648530960083, -0.09214746206998825, -0.09846295416355133, 0.0048982491716742516, -0.08300882577896118, 0.033923808485269547, -0.08241774886846542, 0.050834473222494125, 0.06931056827306747, 0.0995125100016594, -0.08909910917282104, -0.08582828938961029, -0.07201889157295227, -0.12758369743824005, -0.05963815748691559, -0.0446520559489727, -0.028224773705005646, -0.076997771859169, 0.020747391507029533, -0.07674407213926315, 0.04546433687210083, -0.06834398210048676, -0.08807390183210373, -0.07852060347795486, 0.010329768061637878, 0.06745381653308868, -0.06382574886083603, -0.11580255627632141, -0.17051692306995392, -0.0556340217590332, -0.11923904716968536, 0.021195195615291595, -0.09086044132709503, -0.03785143792629242, -0.022116675972938538, -0.009644832462072372, -0.1414855569601059, -0.03146663308143616, -0.05884680896997452, -0.10784823447465897, -0.025335563346743584, 0.013832109048962593, -0.14839507639408112, 0.05780801177024841, -0.0575672872364521, -0.07170544564723969, -0.07646651566028595, -0.20057548582553864, 0.049705177545547485, -0.12056256085634232, 0.06021919101476669, 0.12090723216533661, -0.06228946894407272, 0.1735275685787201, -0.017071129754185677, -0.0819111242890358, -0.016571462154388428, -0.020115138962864876, -0.06802569329738617, -0.11469369381666183, -0.030301997438073158, 0.03908729925751686, -0.013618494383990765, 0.014667442068457603, -0.07725922018289566, 0.09494514018297195, -0.03883849084377289, -0.10697028785943985, -0.07318373769521713, 0.033879369497299194, -0.0819237157702446, -0.004361814819276333, -0.11188003420829773, 0.009386638179421425, -0.18275369703769684, -0.2575056552886963, -0.09261222183704376, -0.07203643769025803, 0.06366042792797089, 0.04929983988404274, 0.04578223079442978, 0.12417857348918915, -0.06181197240948677, 0.01875443197786808, -0.0894130989909172, 0.0025496911257505417, -0.12325645983219147, -0.01679011806845665, -0.0814027190208435, -0.10038260370492935, -0.00448680529370904, 0.013817714527249336, -0.09886901825666428, -0.019208990037441254, -0.006993827410042286, 0.042608994990587234, 0.02932310663163662, 0.009411131031811237, -0.029508547857403755, -0.1368299275636673, -0.06752865016460419, -0.055698443204164505, -0.1369766891002655, -0.1935494989156723, -0.01844138279557228, 0.10418987274169922, 0.1558961272239685, -0.04234365373849869, -0.05157675966620445, 0.07275307923555374, 0.015714548528194427, 0.04707588255405426, -0.03879306837916374, -0.054035644978284836, -0.16514183580875397, 0.05786736682057381, -0.0727778971195221, -0.11092708259820938, -0.10753528773784637, -0.0742289125919342, -0.014222895726561546, 0.020017677918076515, 0.0036857041995972395, -0.021859051659703255, -0.010506629943847656, 0.007475156337022781, -0.13684679567813873, -0.07088027894496918, 0.05637730285525322, -0.17019830644130707, -0.150717094540596, -0.060209762305021286, 0.06539321690797806, 0.039089225232601166, 0.03859005123376846, -0.08034154027700424, -0.0030283816158771515, -0.03933490067720413, -0.06356728821992874, 0.03173688426613808, -0.05944979563355446, -0.13264217972755432, -0.16108722984790802, -0.05736438184976578, -0.07548664510250092, -0.04533914104104042, -0.037326131016016006, -0.08166100829839706, -0.021933887153863907, 0.09133992344141006, 0.13469429314136505, 0.0236882995814085, -0.01943143457174301, -0.006214475259184837, -0.16874809563159943, -0.16929404437541962, -0.22373774647712708, -0.0024643540382385254, -0.1535644680261612, -0.003266595071181655, -0.12301621586084366, -0.11959163099527359, 0.02657955326139927, -0.030340421944856644, 0.09641832858324051, 0.05843130871653557, -0.0882432609796524, 0.02969890832901001, 0.026651902124285698, 0.01637946255505085, -0.027757326140999794, -0.07491777092218399, 0.045324359089136124, 0.03439817950129509, -0.013035553507506847, 0.021066181361675262, -0.09886150807142258, 0.08909232169389725, 0.21049676835536957, 0.12268437445163727, -0.11072000116109848, 0.06297706812620163, -0.14791354537010193, -0.13649849593639374, -0.1328875571489334, -0.2262675017118454, 0.07801872491836548, -0.10875707119703293, -0.11439013481140137, -0.1087012067437172, 0.021151985973119736, -0.11513052135705948, -0.009492647834122181, -0.15224424004554749, -0.10870326310396194, -0.03262056037783623, -0.006043716333806515, 0.03320537880063057, -0.022999295964837074, 0.007691891398280859, -0.11442868411540985, 0.036879148334264755, 0.05487632006406784, -0.08439721912145615, -0.03371081128716469, 0.046591274440288544, -0.0816613957285881, 0.136498361825943, 0.12948456406593323, -0.0819442942738533, -0.13013878464698792, -0.14226123690605164, -0.1142711490392685, -0.07307583838701248, -0.1033918485045433, -0.11715767532587051, -0.15257897973060608, -0.06825877726078033, -0.15225060284137726, -0.19997641444206238, -0.08713886141777039, -0.14596238732337952, -0.12122640013694763, -0.03379620239138603, -0.03398004546761513, 0.021828822791576385, -0.00689095351845026, -0.029409946873784065, 0.02127734012901783, 0.01760087162256241, -0.024491434916853905, 0.03306102752685547, -0.11082584410905838, -0.08953415602445602, -0.1530640572309494, -0.10285036265850067, 0.07710904628038406, 0.05287646874785423, 0.045432981103658676, 0.12536384165287018, -0.027986228466033936, 0.07657799124717712, -0.023702653124928474, -0.02207508310675621, -0.06760337948799133, -0.03030322678387165, -0.146076962351799, -0.16285313665866852, -0.21121099591255188, -0.21789230406284332, -0.25079917907714844, -0.029538892209529877, 0.12871426343917847, 0.019319409504532814, -0.05257101729512215, -0.06636995822191238, 0.007570856250822544, -0.018226584419608116, 0.0037715828511863947, -0.02892441675066948, -0.06697290390729904, -0.022344578057527542, 0.009988062083721161, 0.04447707533836365, 0.02922355942428112, -0.042261507362127304, -0.03176794573664665, 0.1230492815375328, 0.12271489948034286, 0.004769811872392893, 0.0028804540634155273, 0.04911087080836296, -0.0383622981607914, -0.12419000267982483, -0.08968976885080338, -0.1367519050836563, -0.20661814510822296, -0.1315757781267166, -0.052791107445955276, -0.02452961541712284, -0.014096935279667377, 0.04568235203623772, 0.01270286925137043, -0.09954603016376495, 0.02891070954501629, -0.07536692172288895, -0.0552392415702343, -0.08923798054456711, -0.03319732844829559, -0.014532767236232758, 0.03360970318317413, 0.12651009857654572, 0.08995797485113144, 0.08174441754817963, -0.04656162112951279, 0.029795294627547264, 0.1292354017496109, 0.14977389574050903, 0.0954013243317604, 0.09191390872001648, 0.06457219272851944, -0.026510018855333328, 0.11957394331693649, -0.08298511058092117, -0.063050776720047, -0.04295593500137329, 0.04363376647233963, -0.037206485867500305, 0.08482348918914795, 0.034729212522506714, -0.07905861735343933, -0.045376669615507126, 0.015353456139564514, -0.07907886058092117, -0.03575408086180687, -0.0001507381966803223, -0.017225168645381927, -0.055441178381443024, 0.12000772356987, 0.1364009827375412, 0.13251754641532898, 0.07541579753160477, 0.08651120960712433, 0.221860870718956, 0.21465295553207397, 0.2588345408439636, 0.31626787781715393, 0.19802601635456085, 0.21653573215007782, 0.29719778895378113, 0.3477233648300171, 0.19875989854335785, 0.218649759888649, 0.17147114872932434, 0.030135177075862885, 0.04354672506451607, -0.05106612294912338, -0.051609545946121216, -0.11059042811393738, -0.0735587626695633, -0.058991026133298874, -0.06834710389375687, -0.014403400011360645, -0.006695916410535574, 0.01663900539278984, 0.04801688715815544, -0.04781969636678696, 0.08561398088932037, -0.029780760407447815, 0.033390291035175323, 0.02420700155198574, 0.19795703887939453, 0.1605241745710373, 0.17734351754188538, 0.2763890326023102, 0.3676048219203949, 0.32549726963043213, 0.20327980816364288, 0.28759297728538513, 0.13930745422840118, 0.12357190996408463, 0.003408936085179448, 0.06142006441950798, 0.057921092957258224, 0.024541322141885757, 0.013890047557651997, -0.004064133390784264, -0.08769579976797104, -0.035575982183218, 0.045784417539834976, 0.00823988113552332, -0.07153969258069992, -0.053412389010190964, -0.10489710420370102, -0.03483896702528, 0.043977171182632446, -0.0456572100520134, 0.061770301312208176, -0.08226310461759567, 0.07706215977668762, 0.048890553414821625, -0.07427487522363663, 0.006516281981021166, -0.03728945553302765, 0.0008997349068522453, 0.005586440674960613, -0.015256772749125957, -0.05331987515091896, 0.059581395238637924, -0.10010919719934464, 0.055951327085494995, 0.018451863899827003, -0.020848767831921577, -0.012847044505178928, 0.01675008237361908, 0.0027722325176000595, 0.0012751761823892593},
  { -0.009523638524115086, 0.06332555413246155, 0.0191978607326746, -0.04180777445435524, 0.0813242644071579, -0.021494733169674873, 0.015344211831688881, 0.014059560373425484, -0.014289632439613342, -0.0334874652326107, -0.07441311329603195, -0.03185748681426048, -0.047990817576646805, -0.07539298385381699, 0.004078797996044159, -0.025591082870960236, 0.04996342584490776, -0.02564098685979843, -0.031504806131124496, 0.027120279148221016, 0.04536182060837746, -0.04375201836228371, 0.07338254153728485, 0.03203979879617691, 0.05713680014014244, 0.0881798267364502, 0.04747598245739937, -0.02283329702913761, -0.04359013959765434, -0.03458036854863167, 0.057839345186948776, 0.06125607714056969, -0.01857002265751362, 0.08780187368392944, 0.07375457882881165, 0.015089007094502449, -0.0480438731610775, 0.023443834856152534, -0.05668612942099571, 0.04045109823346138, -0.04657385125756264, -0.06239240989089012, -0.06006533280014992, 0.017708847299218178, 0.016426214948296547, -0.0162701103836298, -0.027491889894008636, 0.07452701032161713, 0.009128885343670845, -0.06782649457454681, -0.002403556602075696, 0.04156455025076866, -0.030438104644417763, 0.07789866626262665, 0.052604835480451584, -0.04590240493416786, -0.04534243419766426, -0.028889210894703865, 0.08562561869621277, 0.03812422230839729, 0.06680934876203537, 0.07820025086402893, 0.040239207446575165, 0.042022161185741425, -0.06856269389390945, 0.01489237416535616, -0.02355099655687809, 0.0672721117734909, 0.06823515892028809, 0.03819673880934715, -0.00902269035577774, -0.05713854730129242, -0.04544401913881302, 0.06715957075357437, 0.08639512956142426, 0.03312567621469498, 0.07805436104536057, -0.006338336039334536, -0.028361167758703232, 0.04040989652276039, 0.05362479016184807, 0.09095148742198944, 0.0030185352079570293, 0.04749875143170357, 0.006307833828032017, 0.08483946323394775, 0.0794188529253006, 0.04600716754794121, 0.03851069509983063, 0.09471204876899719, 0.035416219383478165, 0.032273780554533005, -0.0050341784954071045, -0.06248391792178154, 0.07461676746606827, 0.06551148742437363, 0.062001075595617294, -0.056216198951005936, 0.07723100483417511, 0.08253740519285202, 0.013274996541440487, -0.028395110741257668, 0.05669480189681053, -0.019331222400069237, -0.040328025817871094, 0.049501750618219376, -0.0601189099252224, -0.06047787517309189, 0.09386258572340012, 0.058942075818777084, -0.007993794977664948, 0.08470508456230164, 0.03569789603352547, 0.07258723676204681, -0.009795619174838066, -0.04821190610527992, 0.08019167184829712, 0.06119614467024803, -0.013959437608718872, 0.025645190849900246, 0.022427696734666824, 0.002564367838203907, 0.0796033963561058, -0.06386885046958923, 0.007975601591169834, 0.01861245185136795, 0.03694923222064972, -0.022573435679078102, -0.03058517351746559, 0.07149702310562134, -0.06265164166688919, -0.06711158901453018, -0.060288697481155396, 0.08524663746356964, 0.0831698328256607, 0.02832327038049698, -0.07542292028665543, -0.057693734765052795, 0.02596248872578144, -0.009287027642130852, 0.03747331723570824, 0.049428846687078476, 0.04401732608675957, 0.0392598882317543, -0.04056715592741966, -0.044528987258672714, -0.04464598372578621, 0.02515258826315403, -0.05340085178613663, 0.04875972494482994, 0.039611369371414185, 0.09555602073669434, -0.00470350868999958, -0.048866380006074905, -0.05208572372794151, 0.08621358126401901, -0.0001999065570998937, 0.04130203649401665, 0.0588986761868, 0.011296046897768974, 0.00850704312324524, -0.06593545526266098, 0.018032506108283997, -0.04544796794652939, 0.06917684525251389, -0.049406200647354126, 0.05991698056459427, -0.06004108488559723, -0.03248487785458565, -0.055768899619579315, -0.023583518341183662, 0.04125222936272621, -0.0641603171825409, 0.008012844249606133, -0.03272183611989021, 0.06746745109558105, 0.06635799258947372, -0.0324508473277092, 0.06616482883691788, -0.04047278314828873, -0.06648094952106476, 0.03328414633870125, 0.06213078275322914, 0.06925064325332642, 0.008933342061936855, 0.016140280291438103, -0.016126487404108047, 0.06628402322530746, 0.04273522272706032, 0.06960660964250565, 0.06262823939323425, -0.04052233323454857, 0.05120057985186577, -0.05728130787611008, 0.06630286574363708, 0.07790738344192505, 0.02407272346317768, 0.08305355906486511, 0.06384221464395523, 0.03742193803191185, 0.07684899121522903, 0.029473023489117622, -0.052697714418172836, -0.06891734153032303, 0.005842352751642466, -0.0428800992667675, -0.07834262400865555, 0.016930589452385902, 0.05450880154967308, -0.015619281679391861, 0.05240728333592415, -0.03741465508937836, -0.04405508562922478, -0.02940230257809162, -0.04010700806975365, 0.03345777839422226, 0.05077813193202019, -0.03223472833633423, -0.020558880642056465, -0.041602618992328644, 0.03925607353448868, 0.024413634091615677, -0.0026982780545949936, -0.05841921269893646, 0.09002651274204254, -0.06626647710800171, 0.03830079361796379, -0.031995054334402084, 0.006361630745232105, 0.04295022040605545, -0.03125422075390816, 0.03849237412214279, -0.023954616859555244, 0.008310085162520409, 0.003576577641069889, -0.0110792126506567, 0.04519815742969513, -0.030871674418449402, 0.034352175891399384, 0.08021180331707001, 0.0790182501077652, 0.07316470891237259, -0.04466627538204193, -0.07928721606731415, -0.0014158941339701414, 0.014416429214179516, -0.03350212052464485, -0.053697723895311356, 0.06575921922922134, 0.0923837199807167, -0.04104364290833473, -0.06636535376310349, 0.05475581809878349, -0.005511200986802578, -0.0031023176852613688, 0.08166389912366867, -0.06495311856269836, 0.05644446983933449, -0.0546368733048439, 0.039401572197675705, 0.041202113032341, 0.04412544518709183, -0.04694513604044914, 0.0550478994846344, 0.03722278028726578, 0.02169891633093357, -0.006462844088673592, 0.07030985504388809, 0.006756361573934555, -0.09011055529117584, -0.08182361721992493, -0.08407506346702576, -0.04456043988466263, -0.048224590718746185, -0.000939933757763356, 0.01763773337006569, -0.058058228343725204, 0.05500307306647301, -0.04329024627804756, 0.03997837007045746, -0.014330721460282803, 0.030458929017186165, -0.03612135723233223, 0.08501401543617249, -0.07533542066812515, 0.02273799479007721, 0.014738061465322971, 0.05480064079165459, 0.05793139711022377, -0.060901083052158356, -0.08583572506904602, -0.09911272674798965, -0.00036839948734268546, 0.01744071952998638, -0.028381356969475746, 0.05266806110739708, -0.06822071969509125, -0.030568033456802368, 0.055103953927755356, -0.04531644657254219, 0.04931984096765518, -0.05971459671854973, -0.058367665857076645, 0.04330280050635338, 0.04884837567806244, -0.00020138516265433282, -0.01815687119960785, 0.0750647634267807, 0.004536501131951809, 0.028501251712441444, -0.045184578746557236, 0.030463889241218567, 0.07110012322664261, 0.031434316188097, 0.084055595099926, -0.0440203920006752, -0.0025787376798689365, -0.007032900117337704, -0.03981709107756615, 0.024502292275428772, 0.028399432078003883, 0.04736093804240227, 0.09609038382768631, -0.05776888132095337, -0.004547039978206158, -0.05185218155384064, 0.06285099685192108, -0.0584406778216362, -0.05293042212724686, -0.016917651519179344, 0.015309387817978859, -0.06019914522767067, -0.009653562679886818, -0.05639219656586647, -0.013493792153894901, -0.0032193809747695923, 0.061507996171712875, -0.014628307893872261, -0.04886287823319435, 0.07604432851076126, 0.03099384903907776, 0.09290271997451782, -0.02584823966026306, 0.07582997530698776, -0.06419603526592255, 0.01345182303339243, 0.059187013655900955, -0.05079660564661026, -0.05457073450088501, -0.034814853221178055, 0.0001462858635932207, 0.10124830901622772, -0.016660403460264206, -0.02853471226990223, 0.015700658783316612, -0.06590248644351959, 0.04932752996683121, 0.041891127824783325, -0.061654232442379, -0.024504775181412697, 0.08859210461378098, -0.06793683767318726, 0.03434084728360176, -0.006045266054570675, -0.07447449117898941, -0.018876338377594948, 0.0066606467589735985, 0.09274078160524368, -0.06251242756843567, 0.009214104153215885, -0.06489694118499756, -0.027114374563097954, 0.04225505515933037, -0.07397794723510742, -0.06739215552806854, -0.04258205369114876, 0.03430353105068207, 0.09497446566820145, 0.09918752312660217, -0.06832661479711533, 0.044464632868766785, 0.03566102683544159, -0.08194898068904877, 0.02132473886013031, -0.02292811870574951, 0.05744823440909386, 0.03678605332970619, -0.024908116087317467, 0.06863705813884735, 0.005754027981311083, -0.052675761282444, -0.0334089957177639, -0.06943615525960922, 0.03346461430191994, -0.03547114506363869, -0.0481732003390789, -0.023125888779759407, -0.06982281059026718, 0.02749224565923214, 0.002693342510610819, -0.08000670373439789, 0.0026483191177248955, 0.06368174403905869, -0.03655114769935608, -0.030239595100283623, 0.0077930353581905365, -0.03828931227326393, -0.06278210133314133, -0.0419718362390995, -0.0497899204492569, 0.048842087388038635, -0.033411528915166855, -0.03585518151521683, -0.045251667499542236, 0.04421418905258179, -0.07193350791931152, -0.023322179913520813, 0.017941676080226898, -0.06657824665307999, -0.007423060946166515, -0.03277399763464928, -0.0760209709405899, -0.02504638396203518, 0.06193387135863304, 0.03314253315329552, 0.010486148297786713, 0.054824087768793106, -0.0358552522957325, -0.04228174686431885, 0.029186129570007324, -0.016979292035102844, -0.06995673477649689, -0.040309611707925797, 0.05050761625170708, -0.015325826592743397, 0.07393506169319153, 0.002637930680066347, -0.03728658705949783, -0.07804995775222778, 0.04885992035269737, 0.03457954153418541, -0.07144294679164886, 0.07608256489038467, -0.052574820816516876, 0.01558661088347435, 0.045999061316251755, 0.005802792031317949, 0.006308732088655233, -0.004077858291566372, 0.09329628944396973, 0.043935488909482956, 0.03738972172141075, 0.0660300925374031, -0.05341095104813576, -0.05183129385113716, 0.05535807088017464, 0.06812433898448944, 0.07166099548339844, -0.07962686568498611, -0.02837839536368847, 0.07286131381988525, -0.009980246424674988, -0.06392522156238556, 0.0650324821472168, -0.09665572643280029, -0.10116875916719437, 0.06386671215295792, 0.010996157303452492, 0.0037731227930635214, 0.02278945781290531, 0.05061482638120651, 0.07436264306306839, 0.05831561237573624, -0.008949368260800838, -0.030886994674801826, 0.057733889669179916, 0.04068385437130928, 0.01550469733774662, 0.050175782293081284, -0.06914124637842178, 0.014000983908772469, 0.035464636981487274, 0.00667373975738883, -0.03593006730079651, 0.028793590143322945, 0.022123301401734352, -0.01105264388024807, 0.04846279323101044, 0.010535580106079578, -0.008345130831003189, 0.004738186486065388, 0.07348176836967468, -0.038511425256729126, 0.06059229001402855, 0.07924288511276245, -0.011368457227945328, -0.01946144551038742, -0.01931913197040558, -0.01907869055867195, -0.05432239919900894, 0.060008399188518524, 0.012332383543252945, -0.031569574028253555, 0.06450348347425461, -0.049097176641225815, 0.04923081025481224, 0.07287923991680145, 0.06337517499923706, -0.06512849777936935, 0.026020975783467293, -0.07027455419301987, -0.06961555778980255, 0.04786861315369606, 0.07799436897039413, 0.08961767703294754, -0.050680022686719894, 0.03530512750148773, -0.03985559940338135, 0.07879486680030823, -0.003305113408714533, -0.08448068797588348, -0.001786633743904531, 0.0022283082362264395, -0.0007530875154770911, -0.03900597617030144, -0.03214641287922859, 0.003562451107427478, 0.09121038764715195, 0.08070728927850723, 0.028617553412914276, 0.05020470172166824, 0.003397225169464946, 0.0782456248998642, 0.07707421481609344, -0.06576637178659439, 0.05143512412905693, 0.009718174114823341, -0.059931639581918716, 0.028097888454794884, 0.04983605816960335, 0.03425111249089241, 0.10114119201898575, 0.016132542863488197, 0.03167057782411575, 0.09141303598880768, -0.014031177386641502, -0.0619012825191021, -0.035197850316762924, -0.04649396613240242, -0.054548218846321106, 0.02879508025944233, -0.011810991913080215, -0.004817406181246042, -0.06566537916660309, -0.028655311092734337, -0.02005089446902275, 0.01339275948703289, -0.02798982337117195, 0.059666529297828674, -0.023585068061947823, 0.09337513148784637, 0.03544091060757637, -0.0037488045636564493, -0.031103026121854782, 0.01217898540198803, -0.021366314962506294, 0.0034911122638732195, -0.053628478199243546, -0.04781775921583176, -0.0303869117051363, -0.04152955859899521, 0.09464795887470245, -0.06190214678645134, 0.02668575383722782, -0.01799614727497101, 0.005259461235255003, -0.06797408312559128, -0.07945746928453445, -0.06555774062871933, 0.06474382430315018, 0.027609899640083313, 0.10292838513851166, 0.007640973664820194, 0.03215756267309189, -0.01131748128682375, 0.06482705473899841, 0.006739106494933367, -0.030319632962346077, -0.05376177653670311, -0.04376496002078056, 0.04763795807957649, 0.05701019987463951, 0.06692320108413696, 0.048391830176115036, 0.07458648085594177, 0.08628973364830017, 0.04268883913755417, -0.06172791123390198, 0.0885603129863739, -0.017744911834597588, -0.05916944146156311, -0.029064254835247993, 0.0339474081993103, -0.0591987743973732, -0.06109917536377907, -0.04048672318458557, 0.08662382513284683, -0.058757100254297256, -0.0684177353978157, -0.06700874119997025, -0.045307695865631104, 0.008603262715041637, -0.06366396695375443, -0.018946774303913116, -0.03903381898999214, -0.013722922652959824, 0.03645932674407959, -0.01633058302104473, 0.0028751040808856487, 0.0892392247915268, 0.07834464311599731, 0.03385370969772339, -0.010692714713513851, 0.0976908802986145, -0.004851870238780975, -0.06095236912369728, 0.07852348685264587, -0.05222468450665474, 0.033279597759246826, -0.06189783290028572, -0.01831476017832756, -0.056238628923892975, 0.008409423753619194, 0.020746219903230667, 0.044556234031915665, -0.04045432433485985, -0.06472864001989365, 0.02001853659749031, -0.024285882711410522, -0.056416139006614685, 0.06230621039867401, -0.05223502591252327, -0.01762090064585209, 0.08340853452682495, 0.017320405691862106, 0.02485479600727558, -0.06498734652996063, 0.05487089976668358, -0.05347300320863724, -0.05735287442803383, -0.02032308094203472, 0.0588507279753685, 0.024538489058613777, 0.06377187371253967, 0.008420057594776154, -0.04299147427082062, -0.0013195504434406757, 0.056754160672426224, -0.03307296708226204, -0.060012999922037125, 0.03645496442914009, -0.034819990396499634, 0.08794515579938889, -0.04978089779615402, -0.025971172377467155, 0.06973453611135483, 0.0188006442040205, -0.024558983743190765, -0.052599724382162094, -0.06458500772714615, 0.033398110419511795, -0.07539051026105881, -0.07332460582256317, 0.03362197428941727, 0.0330517403781414, 0.05903586372733116, 0.0691847950220108, -0.011066622100770473, -0.045306168496608734, 0.058872342109680176, 0.09196066111326218, 0.002817607019096613, 0.02331775799393654, 0.004962959326803684, -0.0541372187435627, -0.06239825114607811, 0.08245352655649185, 0.08269698172807693, 0.06548726558685303, -0.035528235137462616, -0.057048946619033813, 0.018350612372159958, -0.07160068303346634, -0.02609674446284771, 0.02451629936695099, 0.03789963200688362, -0.051614001393318176, -0.05887094512581825, 0.05175456032156944, -0.003568530548363924, -0.07338234037160873, 0.007646949030458927, -0.042138006538152695, -0.07571396231651306, -0.05553712695837021, 0.038159098476171494, -0.04193521663546562, -0.07614921033382416, 0.021008053794503212, 0.061247263103723526, 0.011261104606091976, 0.05481155216693878, 0.03719177097082138, 0.04881202057003975, -0.05910506844520569, -0.06079642102122307, -0.07492871582508087, -0.06159842386841774, 0.03793264925479889, -0.05134323239326477, -0.02421431802213192, -0.029603734612464905, 0.04933648556470871, 0.02787259966135025, 0.048937804996967316, 0.08063526451587677, -0.014069691300392151, -0.052198056131601334, -0.035104211419820786, -0.0008754131267778575, -0.02231963351368904, 0.011806974187493324, 0.02913162298500538, -0.06216340512037277, -0.017840715125203133, 0.041859906166791916, 0.010264270938932896, -0.07289154082536697, -0.0030226095113903284, -0.006475435104221106, -0.033607471734285355, 0.038816165179014206, -0.003996385261416435, -0.03737388551235199, 0.006718834396451712, 0.0665658712387085, 0.019007865339517593, 0.02361612394452095, -0.023966023698449135, 0.08253096789121628, -0.0381404347717762, 0.03723873570561409, 0.02739049680531025, 0.03852653503417969, -0.06574075669050217, -0.04124758020043373, 0.01722542569041252, 0.023367786779999733, -0.07133752852678299, -0.06714490801095963, 0.018933946266770363, 0.058859389275312424, 0.06382685154676437, 0.044207196682691574, 0.052259739488363266, 0.04694393649697304, 0.06592989712953568, 0.06048025190830231, -0.004383609630167484, 0.01640237495303154, 0.023948252201080322, 0.004718277137726545, 0.006930872332304716, 0.030793825164437294, 0.09250067174434662, 0.02220160886645317, -0.05495147779583931, 0.06289991736412048, -0.017863960936665535, 0.04696129634976387, -0.04678536579012871, 0.056284185498952866, -0.05674878880381584, 0.0323975533246994, 0.008733289316296577},
  { -0.041284579783678055, 0.03845694288611412, 0.0085840355604887, -0.02967231720685959, 0.05070797726511955, 0.11135884374380112, 0.03818708285689354, 0.07949911803007126, 0.008073410950601101, 0.11249663680791855, 0.0029622982256114483, 0.1251051276922226, 0.09327924996614456, -0.0017432677559554577, 0.00585528276860714, -0.01196327805519104, 0.12467243522405624, 0.09534024447202682, 0.02828531712293625, 0.11972709745168686, -0.039011675864458084, -0.04052067920565605, -0.042139943689107895, -0.003937976900488138, 0.01309104636311531, 0.06486163288354874, 0.04218383505940437, 0.08493710309267044, 0.06424036622047424, -0.000388259970350191, -0.039573784917593, 0.07892537862062454, 0.0484277568757534, -0.01584821566939354, 0.004610209260135889, 0.02645321935415268, -0.015175949782133102, -0.03275134041905403, 0.018915388733148575, -0.028943346813321114, 0.10944560170173645, 0.0980016365647316, 0.12336120754480362, 0.12726294994354248, 0.008009043522179127, -0.023301757872104645, -0.03106030449271202, 0.09783441573381424, -0.040305543690919876, 0.11617476493120193, -0.03550167754292488, 0.09639788419008255, 0.045344483107328415, 0.049727316945791245, -0.026737920939922333, 0.04834889993071556, 0.11220645159482956, 0.0636412724852562, -0.020282164216041565, 0.06517881900072098, 0.11489018052816391, -0.010654890909790993, 0.10970783978700638, 0.046300601214170456, -0.004649982787668705, 0.05189687758684158, 0.09231800585985184, -0.018001405522227287, 0.07732006162405014, 0.08321631699800491, 0.023930460214614868, 0.06691613048315048, 0.00017861713422462344, 0.08452677726745605, 0.05548245832324028, -0.04390393942594528, 0.06691879034042358, 0.026876967400312424, 0.03482727333903313, -0.009523684158921242, 0.04181215539574623, 0.10535809397697449, 0.040458545088768005, 0.07730487734079361, 0.07900045067071915, 0.011741099879145622, -0.009480411186814308, 0.058069948107004166, 0.10011570900678635, 0.12338774651288986, 0.02917395532131195, 0.00563095835968852, 0.06938007473945618, 0.084384024143219, -0.06039242818951607, -0.05468828231096268, -0.08707967400550842, -0.05319906398653984, -0.11834901571273804, -0.23680882155895233, -0.09453356266021729, -0.04283973202109337, -0.007935826666653156, 0.05642252415418625, -0.048402704298496246, -0.06500416994094849, 0.030592545866966248, 0.02120230160653591, -0.08379983901977539, 0.03957577049732208, 0.05460090562701225, -0.04727916046977043, -0.04395545646548271, 0.06278625875711441, 0.12197554856538773, 0.010973756201565266, 0.02877640165388584, 0.05711562559008598, 0.11385733634233475, -0.039182908833026886, -0.053987160325050354, 0.006124808453023434, -0.19495557248592377, -0.19630029797554016, -0.12014888972043991, -0.14200714230537415, -0.09386734664440155, -0.08166608214378357, -0.12380430102348328, -0.07672183960676193, -0.09807517379522324, -0.13339316844940186, 0.010295621119439602, -0.03131673112511635, -0.07554420083761215, 0.06630123406648636, -0.033817507326602936, 0.0004391691763885319, 0.008116000331938267, 0.08281852304935455, 0.0201271902769804, 0.08853142708539963, -0.028645547106862068, 0.08336146920919418, -0.0321243479847908, -0.035684388130903244, 0.09160436689853668, 0.07369973510503769, -0.0287129208445549, -0.0750158280134201, -0.18462695181369781, -0.2850474715232849, -0.24907144904136658, -0.19910120964050293, -0.11818838864564896, -0.0943605974316597, -0.06804721057415009, -0.06931906193494797, 0.003117150394245982, -0.0850074514746666, -0.15897583961486816, -0.12192174792289734, -0.030223660171031952, 0.08036790043115616, 0.08372392505407333, 0.047661762684583664, -0.04310174286365509, 0.08569798618555069, 0.07294760644435883, 0.019987091422080994, 0.12429368495941162, 0.10106183588504791, -0.00437272060662508, -0.012239108793437481, -0.015943342819809914, -0.005867643281817436, -0.030687401071190834, -0.12166867405176163, -0.22926051914691925, -0.2971622347831726, -0.09191399812698364, -0.0861266627907753, -0.10944931954145432, 0.024679232388734818, -0.023127557709813118, 0.08461043983697891, 0.024007180705666542, -0.05641181021928787, -0.08133271336555481, -0.08871715515851974, 0.04441939666867256, 0.01946253888309002, -0.011172762140631676, -0.03263282775878906, -0.068196602165699, 0.0948362648487091, 0.04146692156791687, 0.013863541185855865, 0.009115200489759445, 0.0745488777756691, 0.07147400826215744, 0.10268677771091461, -0.06418364495038986, -0.07505057007074356, -0.15389594435691833, -0.15619651973247528, -0.09401626884937286, -0.21772757172584534, -0.1480192393064499, 0.04810568690299988, -0.022508373484015465, 0.01632849872112274, 0.03789524361491203, 0.09262548387050629, 0.04864754527807236, 0.0250334944576025, 0.04661453887820244, 0.03619861230254173, -0.04031452164053917, 0.16000790894031525, 0.14191855490207672, 0.03638477623462677, -0.07203496247529984, 0.04362448677420616, -0.025135384872555733, -0.027537016198039055, 0.059974826872348785, 0.010067803785204887, 0.12229636311531067, 0.048287905752658844, 0.012283741496503353, -0.11144562810659409, -0.05771009624004364, -0.03484456241130829, -0.029658906161785126, -0.20147483050823212, -0.25688573718070984, -0.07227947562932968, -0.08232501149177551, 0.04741477593779564, 0.10671177506446838, -0.03976041078567505, 0.09474581480026245, 0.002639927202835679, 0.060175348073244095, 0.029847124591469765, 0.07085932791233063, -0.006910691037774086, -0.07366044074296951, -0.02256414294242859, 0.05147899314761162, 0.06043720245361328, -0.018840325996279716, 0.05965733155608177, 0.1011555939912796, 0.07818202674388885, -0.021933669224381447, -0.040973369032144547, -0.05046934261918068, -0.057451311498880386, -0.09386861324310303, -0.05155756324529648, -0.024845369160175323, -0.1296849101781845, -0.22019048035144806, -0.17866650223731995, 0.122639000415802, 0.10241858661174774, 0.25699490308761597, 0.09626385569572449, 0.10680454969406128, 0.19753339886665344, 0.10333296656608582, 0.012170742265880108, 0.06603793054819107, -0.060652412474155426, -0.06518153846263885, 0.09696564823389053, 0.017034566029906273, 0.05702963098883629, -0.031491078436374664, -0.00983419083058834, -0.0022102713119238615, -0.0440315417945385, -0.02195008657872677, -0.0553150475025177, -0.07760468125343323, -0.005648630205541849, 0.0018153648125007749, -0.07792534679174423, -0.06331697106361389, -0.08704041689634323, -0.15934699773788452, -0.11482930183410645, 0.15654638409614563, 0.16255386173725128, 0.20588794350624084, 0.18111711740493774, 0.03143874928355217, 0.08270151168107986, 0.10678575187921524, 4.540420195553452e-05, 0.02647445909678936, 0.07350901514291763, -0.0031237276270985603, 0.11001667380332947, 0.08699989318847656, 0.07063497602939606, -0.02220320701599121, -0.03859483078122139, 0.048063308000564575, -0.026776565238833427, 0.07668349891901016, -0.03459467366337776, -0.02068614959716797, -0.07394962012767792, -0.1680881232023239, -0.02274400368332863, -0.06316245347261429, 0.019529802724719048, -0.018558571115136147, -0.09651154279708862, 0.15384720265865326, 0.22404247522354126, -0.013967282138764858, -0.07258095592260361, -0.04198518767952919, 0.11082571744918823, -0.0725475400686264, -0.013396811671555042, -0.0012575543951243162, 0.11908401548862457, 0.14707259833812714, 0.07284362614154816, -0.005257646553218365, 0.1305391937494278, 0.022910796105861664, 0.11514019221067429, 0.04673789069056511, -0.02234332263469696, 0.09753607958555222, 0.09440097212791443, -0.11328163743019104, -0.11924732476472855, -0.03345309942960739, -0.004016431979835033, -0.09762957692146301, 0.04701407998800278, 0.13208651542663574, 0.1545175462961197, 0.15041780471801758, 0.18823778629302979, 0.12186895310878754, -0.08727994561195374, 0.015576946549117565, -0.035195380449295044, -0.06111929565668106, -0.07547973841428757, 0.04466533288359642, 0.002544983522966504, 0.026499677449464798, -0.05500435456633568, 0.02271229214966297, 0.05066202953457832, 0.031199725344777107, -0.02342095971107483, 0.06676434725522995, 0.016871577128767967, -0.039011333137750626, -0.012638797983527184, 0.047718651592731476, -0.04908670485019684, -0.016283998265862465, 0.07098109275102615, 0.16982145607471466, 0.0693458691239357, 0.0832442045211792, 0.027679601684212685, 0.06499440222978592, 0.2119678407907486, 0.08212398737668991, -0.03663322329521179, 0.029812991619110107, -0.1444920003414154, -0.19442902505397797, -0.16494180262088776, -0.14257358014583588, -0.14257971942424774, -0.14212219417095184, -0.1098853051662445, -0.07852703332901001, 0.06623003631830215, 0.008950912393629551, 0.1194889172911644, 0.012650609016418457, 0.09003635495901108, 0.01383170671761036, -0.025352729484438896, -0.05637182667851448, -0.02523757517337799, -0.05651005357503891, 0.007557348348200321, 0.0362190343439579, 0.028990067541599274, 0.07009167224168777, 0.0689854621887207, 0.06502009183168411, 0.09729069471359253, 0.03855259343981743, 0.010333973914384842, -0.05656527355313301, -0.0077212960459291935, -0.1305762529373169, -0.1982191503047943, -0.18385736644268036, -0.1224915161728859, -0.057653505355119705, -0.007415899075567722, 0.05108856409788132, -0.060264259576797485, 0.10747960209846497, 0.08841770142316818, 0.12704458832740784, -0.03775932639837265, 0.09269682317972183, 0.013369801454246044, 0.014158670790493488, -0.024775950238108635, 0.01832812838256359, -0.06186104938387871, -0.03173059970140457, -0.08670096844434738, -0.022666441276669502, 0.09226898103952408, 0.04162014648318291, 0.05943473055958748, -0.02540130726993084, 0.016061795875430107, 0.026429174467921257, 0.002435500267893076, -0.11530812829732895, -0.24512536823749542, -0.1695108562707901, -0.007916277274489403, -0.12895770370960236, -0.1321941763162613, -0.06964464485645294, 0.08727844804525375, 0.036803778260946274, 0.11240602284669876, 0.01246051024645567, 0.004564977250993252, 0.001406196504831314, 0.11865942180156708, 0.07916964590549469, -0.018427308648824692, -0.1486434042453766, -0.029035968706011772, -0.030225178226828575, -0.03516921028494835, 0.06994345039129257, -0.0027637796010822058, 0.18528315424919128, 0.14395102858543396, -0.005229915026575327, 0.08069218695163727, -0.1375957429409027, -0.1042289212346077, -0.11381662636995316, -0.10309315472841263, -0.08138042688369751, -0.13396546244621277, -0.07762028276920319, -0.05418149381875992, -0.059011682868003845, 0.03433990105986595, -0.019678380340337753, 0.014848219230771065, -0.01416758168488741, 0.08217518776655197, -0.058162871748209, -0.038997258991003036, 0.06213349103927612, -0.01685546338558197, -0.12485816329717636, -0.10555941611528397, -0.08330745995044708, -0.03822323679924011, -0.07545579224824905, 0.045725464820861816, 0.18364791572093964, 0.2128153294324875, 0.027190590277314186, -0.1325732171535492, -0.0397818461060524, -0.11304881423711777, -0.1774626523256302, -0.19694754481315613, -0.07897794246673584, -0.02114262804389, 0.01985134743154049, -0.09086732566356659, 0.06660574674606323, -0.021856611594557762, 0.06384611874818802, 0.01363227516412735, -0.02304976060986519, 0.06727097183465958, -0.036466363817453384, -0.06235926225781441, -0.014597796835005283, -0.020935537293553352, -0.0473620668053627, -0.03039136715233326, -0.03694520890712738, 0.001956698251888156, 0.11967384815216064, 0.11301006376743317, 0.16360194981098175, 0.07856804132461548, -0.08834990113973618, -0.24362316727638245, -0.10824726521968842, -0.13069050014019012, -0.07189743220806122, -0.18268248438835144, -0.1007659062743187, -0.12968279421329498, -0.09492087364196777, -0.06821722537279129, -0.03538936749100685, 0.025181308388710022, 0.10724340379238129, -0.009905893355607986, 0.0564647801220417, 0.05727873742580414, 0.02905857004225254, -0.017331277951598167, -0.12527278065681458, -0.06758686155080795, -0.15340416133403778, -0.030339840799570084, 0.04885952174663544, 0.004943496081978083, 0.05063954368233681, 0.1474449187517166, 0.20222268998622894, 0.05960961803793907, -0.20681338012218475, -0.24231170117855072, -0.19865195453166962, -0.06582745909690857, -0.1497163623571396, -0.11872676759958267, -0.1038915291428566, -0.10444590449333191, -0.04889403656125069, -0.07104632258415222, 0.05670005828142166, 0.04502011835575104, 0.01923527382314205, 0.06193118169903755, -0.0008439100929535925, -0.03602750971913338, -0.04139522463083267, -0.1049870029091835, -0.033065322786569595, -0.07317689061164856, -0.07610564678907394, -0.12865115702152252, 0.042450886219739914, 0.13958370685577393, 0.11732395738363266, 0.1378045380115509, 0.13156495988368988, 0.03862110525369644, -0.1627265363931656, -0.15115244686603546, -0.11478107422590256, -0.15569186210632324, -0.06375887989997864, -0.06318081170320511, -0.1703587770462036, -0.019149381667375565, -0.038756463676691055, -0.04471047222614288, 0.12156889587640762, 0.0676945149898529, -0.017269371077418327, -0.012845620512962341, 0.1100054681301117, 0.08666542172431946, -0.06270617991685867, 0.005916750989854336, -0.07141444087028503, -0.11611887067556381, -0.041748013347387314, -0.1567559540271759, -0.030410831794142723, 0.007688688579946756, -0.08065026253461838, -0.03178038448095322, 0.035891950130462646, -0.0495283380150795, -0.07906179875135422, -0.22604835033416748, -0.34126394987106323, -0.1614198088645935, -0.22534774243831635, -0.03846052661538124, -0.09845617413520813, 0.009034409187734127, -0.04290631785988808, -0.05300280079245567, 0.043496932834386826, 0.0972709134221077, 0.047066282480955124, 0.0923728421330452, 0.12455689907073975, -0.00011350834392942488, 0.06629602611064911, -0.10139146447181702, -0.04989202693104744, 0.0806642547249794, -0.05295996740460396, 0.03126940131187439, -0.009923061355948448, 0.03213232383131981, -0.14797699451446533, -0.1319740265607834, -0.033390387892723083, 0.016333485022187233, -0.11466218531131744, -0.1859893649816513, -0.07100410759449005, -0.10280711948871613, -0.1120869517326355, -0.008814754895865917, -0.026375140994787216, 0.00714707188308239, -0.0022034624125808477, 0.04881703481078148, 0.10789992660284042, 0.019991835579276085, 0.027391929179430008, 0.10762374848127365, -0.006241003051400185, 0.0012618207838386297, 0.007963922806084156, -0.03724212199449539, 0.09442097693681717, 0.04919379949569702, 0.07237810641527176, 0.04076317697763443, 0.17747707664966583, 0.05011792108416557, 0.09395036846399307, 0.05565233156085014, -0.029151886701583862, -0.2036270797252655, -0.08704619109630585, -0.152679443359375, -0.08705133944749832, -0.128642737865448, -0.07005684822797775, 0.032777175307273865, -0.07400333136320114, 0.04151279851794243, 0.08954117447137833, 0.08847399801015854, -0.021717868745326996, -0.003571582492440939, 0.062451671808958054, -0.035363730043172836, 0.11368534713983536, 0.04525451362133026, -0.0401083305478096, 0.0773729532957077, 0.04112967476248741, -0.033082202076911926, -0.042942292988300323, 0.019587520509958267, 0.14349742233753204, 0.06220712140202522, -0.09676168859004974, -0.02403007633984089, -0.14327946305274963, -0.06992506980895996, -0.033736784011125565, -0.24598340690135956, -0.13246244192123413, -0.05427192524075508, -0.07661613076925278, -0.0671612024307251, -0.009376702830195427, 0.0849725678563118, 0.0637330412864685, -0.033149100840091705, -0.040898993611335754, -0.04084768518805504, 0.06863569468259811, 0.06698020547628403, 0.019533373415470123, 0.0017048692097887397, -0.004843156784772873, -0.01567874290049076, 0.08985667675733566, -0.09453602880239487, -0.017740420997142792, 0.04450250789523125, -0.06354250758886337, -0.032715581357479095, -0.041643764823675156, -0.025483308359980583, -0.0132321547716856, 0.010981306433677673, -0.027801116928458214, -0.07803282141685486, -0.10797519981861115, -0.06167740747332573, -0.021454479545354843, 0.1164318099617958, -0.014923973008990288, -0.028956782072782516, 0.06512214988470078, 0.06342916935682297, 0.011448739096522331, -0.01690504513680935, 0.1243739128112793, 0.0599697045981884, 0.10218029469251633, 0.11842300742864609, 0.08038884401321411, 0.05901798978447914, 0.06335359811782837, 0.08755649626255035, 0.10562054812908173, 0.06730548292398453, -0.02152162417769432, -0.03308582678437233, 0.08195309340953827, 0.05370103195309639, -0.04148758202791214, 0.023672575131058693, 0.03355148807168007, 0.07968912273645401, 0.022780513390898705, -0.0032341033220291138, 0.06578168272972107, 0.01136762835085392, 0.09866618365049362, 0.012221152894198895, -0.004928059875965118, -0.03673533722758293, 0.0805741474032402, 0.12207654863595963, 0.01470911130309105, 0.12113051861524582, 0.0610225684940815, 0.12677142024040222, -0.038391534239053726, 0.07435782998800278, 0.07040275633335114, 0.040166471153497696, 0.0377817340195179, 0.11696790903806686, 0.004947093315422535, 0.02392878569662571, -0.03569566085934639, 0.08405660837888718, -0.03064042516052723, 0.05277444049715996, 0.0807952880859375, 0.10113825649023056, 0.0083220349624753, 0.11978060007095337, 0.10609288513660431, 0.0921425148844719, 0.12149541825056076, -0.031407568603754044, -0.010653737932443619, 0.08432059735059738, 0.08135097473859787, 0.029561538249254227, 0.05421267822384834},
  { -0.008596101775765419, -0.010279941372573376, 0.008733988739550114, -0.019324585795402527, -0.05782448500394821, 0.08350161463022232, -0.02633264660835266, -0.02943948656320572, 0.09232128411531448, -0.01799672842025757, 0.009180196560919285, 0.04510178416967392, 0.030018877238035202, 0.09469015151262283, 0.0662679597735405, 0.006052131298929453, 0.01242429856210947, -0.03153228387236595, -0.03500189632177353, 0.03691338747739792, 0.07255806773900986, -0.011998900212347507, -0.05094730108976364, 0.09383419901132584, 0.00031133287120610476, -0.030404413118958473, -0.04274406284093857, 0.0925530269742012, 0.019069496542215347, 0.05816096067428589, 0.03145590424537659, 0.06380744278430939, -0.026097998023033142, 0.06807093322277069, 0.03169149532914162, 0.0658988356590271, 0.09265271574258804, 0.07687771320343018, 0.0558391697704792, -0.012562531977891922, -0.06020164489746094, 0.10494101047515869, 0.06479290127754211, 0.03168358653783798, 0.05792395770549774, 0.11831845343112946, 0.0557551383972168, 0.0384872741997242, -0.0432143434882164, -0.05242915824055672, 0.04988156259059906, 0.05469529330730438, 0.004402367863804102, 0.018463946878910065, 0.04181835055351257, 0.09258504956960678, 0.07893454283475876, 0.08944571763277054, 0.04594426602125168, 0.0867963656783104, -0.01838338002562523, -0.026576854288578033, 0.01621013879776001, -0.06394568085670471, -0.009702087379992008, 0.048897624015808105, 0.008170785382390022, 0.029034098610281944, 0.029297661036252975, 0.12427064776420593, -0.012916546314954758, 0.10021910071372986, -0.04029655084013939, 0.010749958455562592, 0.08376174420118332, 0.16220754384994507, 0.09984985738992691, -0.021781958639621735, 0.04666215553879738, -0.035054661333560944, 0.07117358595132828, 0.009195668622851372, 0.013468232937157154, -0.05353274941444397, 0.03746923804283142, 3.745366120710969e-05, 0.03763880580663681, 0.04211948812007904, 0.019081179052591324, 0.04235893860459328, -0.05862212926149368, 0.09535954147577286, 0.058893002569675446, 0.1792624294757843, 0.08063796162605286, 0.05351033806800842, 0.0557866096496582, 0.14316624402999878, 0.10134987533092499, -0.0012413561344146729, 0.10737990587949753, -0.05543671175837517, 0.04964675381779671, 0.06267984211444855, 0.07272027432918549, 0.05351541191339493, 0.016691897064447403, 0.02239372208714485, 0.06716874986886978, -0.03267527371644974, 0.017124896869063377, 0.004039404913783073, 0.08766333013772964, -0.018509726971387863, -0.05625947564840317, -0.07052154839038849, -0.07348614186048508, 0.020519111305475235, 0.044954489916563034, 0.03979301080107689, 0.08431382477283478, 0.14681600034236908, 0.18774168193340302, 0.17713232338428497, 0.11470930278301239, 0.008717349730432034, -0.06796862185001373, 0.02178543247282505, -0.07667442411184311, -0.021462704986333847, -0.04916815459728241, 0.09570347517728806, 0.039679937064647675, -0.08119136840105057, -0.09853711724281311, -0.08057781308889389, -0.0489184744656086, -0.032512273639440536, 0.0017009316943585873, -0.05122365429997444, 0.03328748419880867, -0.048823483288288116, -0.07706474512815475, -0.03511173650622368, 0.02545178309082985, -0.028968241065740585, -0.010844198986887932, -0.053963541984558105, 0.13768590986728668, 0.12464725971221924, -0.02265329472720623, 0.06652547419071198, -0.05760621652007103, -0.05997259542346001, 0.018559707328677177, -0.1283167004585266, -0.06520547717809677, 0.019187133759260178, 0.0014820824144408107, -0.07078128308057785, -0.11134398728609085, -0.005428593140095472, 0.0010788887739181519, -0.0495201013982296, -0.07959230989217758, -0.06801441311836243, 0.03343149274587631, 0.07982682436704636, -0.07213166356086731, 0.03034861944615841, -0.00864801462739706, 0.01632225513458252, -0.007630227133631706, 0.04593737795948982, 0.0989634320139885, -0.05115042254328728, -0.026303809136152267, -0.040344540029764175, -0.005802530329674482, -0.1694929450750351, -0.09370402246713638, -0.12890242040157318, -0.026436256244778633, -0.10178417712450027, -0.19757235050201416, -0.034486543387174606, -0.08430954813957214, -0.15350931882858276, -0.14753013849258423, -0.1391989290714264, -0.113884836435318, -0.08718598634004593, -0.11911267787218094, -0.02346315234899521, 0.03202357515692711, -0.06561895459890366, -0.030864568427205086, 0.07873255759477615, -0.008974933065474033, -0.014554656110703945, -0.06166578829288483, 0.03640374913811684, -0.05298438295722008, 0.02991359680891037, -0.07713185995817184, -0.05112016573548317, -0.08966188877820969, -0.10880804061889648, -0.054896045476198196, -0.14436109364032745, -0.17954027652740479, -0.15042747557163239, -0.24799609184265137, -0.2459031343460083, -0.29318204522132874, -0.1987295150756836, -0.2681967616081238, -0.1842770278453827, -0.21164512634277344, -0.1584811508655548, -0.16311195492744446, 0.059222105890512466, 0.034289129078388214, -0.040987126529216766, 0.005500439088791609, -0.055720798671245575, 0.0951634868979454, -0.07192694395780563, -0.06948038190603256, 0.03150634467601776, -0.023446816951036453, -0.07835862785577774, -0.012772031128406525, -0.0328008197247982, -0.1285848617553711, -0.10048691928386688, -0.10919669270515442, -0.2367979884147644, -0.22388522326946259, -0.11705571413040161, -0.22162090241909027, -0.31277376413345337, -0.17447322607040405, -0.19389039278030396, -0.046943098306655884, 0.02786935307085514, -0.038834381848573685, 0.026528310030698776, -0.06360282003879547, 0.01969381608068943, 0.05613185837864876, 0.017069287598133087, 0.07790974527597427, 0.051748402416706085, -0.028268631547689438, -0.08581826835870743, 0.06713565438985825, 0.1492670178413391, 0.02501847967505455, -0.10061753541231155, -0.021569909527897835, -0.08434343338012695, -0.15251107513904572, -0.16181403398513794, -0.1735823005437851, -0.03865177929401398, -0.2401815950870514, 0.02080557309091091, -0.15777602791786194, -0.04788607358932495, -0.12347923964262009, -0.06389616429805756, -0.11532346904277802, 0.021471954882144928, -0.024264931678771973, -0.1339520514011383, -0.0591462142765522, 0.05096493661403656, 0.017378468066453934, 0.005802675615996122, 0.025354573503136635, -0.06471635401248932, -0.07597610354423523, -0.040803249925374985, -0.012817616574466228, 0.06389160454273224, 0.0878167375922203, -0.10868868976831436, -0.03882138431072235, 0.04630788788199425, -0.1623505800962448, -0.048002343624830246, -0.07261693477630615, 0.011824284680187702, -0.04595279321074486, -0.04748016595840454, 0.11015193164348602, 0.11496669799089432, -0.017025653272867203, -0.08402840793132782, 0.0014018231304362416, -0.10017532855272293, -0.01207596156746149, 0.05000532045960426, -0.10250762850046158, 0.033713772892951965, -0.0034396883565932512, 0.055243827402591705, -0.010708861984312534, -0.06177205964922905, -0.0034645688720047474, -0.017292043194174767, 0.08613696694374084, 0.040198784321546555, 0.028919674456119537, -0.02925935946404934, 0.06239214539527893, -0.04202750325202942, -0.04029892757534981, 0.016960158944129944, 0.03292454406619072, -0.07381866127252579, -0.08000906556844711, 0.08461181819438934, 0.1720828115940094, 0.1567445993423462, 0.17423006892204285, 0.06258464604616165, 0.018277637660503387, -0.004417350050061941, 0.057172227650880814, 0.10983850806951523, 0.14414860308170319, 0.05096060782670975, 0.1407933235168457, 0.06858813017606735, 0.08946831524372101, 0.019945040345191956, -0.016122860834002495, -0.03595424443483353, 0.06847520172595978, 0.08045075833797455, -0.008721131831407547, -0.0180946197360754, 0.029794620350003242, 0.015499849803745747, -0.004211007617413998, 0.14352144300937653, -0.03854707255959511, -0.09416644275188446, 0.07160568982362747, 0.2737467288970947, 0.1072114109992981, 0.1571841835975647, 0.10449007153511047, -0.0011184616014361382, -0.022518986836075783, 0.02712150663137436, -0.031693942844867706, 0.019222408533096313, 0.01931055821478367, 0.07426397502422333, -0.024456452578306198, -0.05342564359307289, 0.010190687142312527, 0.04157968610525131, -0.0002547977783251554, 0.018512126058340073, 0.048315513879060745, -0.010823099873960018, 0.047811660915613174, 0.038100600242614746, -0.08202102035284042, -0.0013503199443221092, -0.07486632466316223, -0.1059221625328064, -0.007944030687212944, -0.01358066126704216, 0.13929502665996552, 0.07989105582237244, -0.004952549934387207, 0.10513420403003693, 0.05370773747563362, 0.1290968805551529, 0.14211846888065338, 0.040636591613292694, -0.004864657763391733, 0.11431162804365158, 0.20777000486850739, 0.038649458438158035, 0.08480000495910645, 0.038534995168447495, -0.05966607853770256, 0.059079915285110474, 0.0939750000834465, 0.04017018899321556, 0.06355297565460205, -0.133095383644104, 0.0762801542878151, -0.012770899571478367, -0.08120548725128174, -0.15555018186569214, 0.019386470317840576, 0.10635121166706085, 0.02248520776629448, 0.04419248178601265, -0.058429598808288574, -0.09251955896615982, 0.01598639041185379, 0.10340610891580582, -0.011856061406433582, 0.21245338022708893, 0.09195362031459808, 0.1540871113538742, 0.21019190549850464, 0.21261318027973175, 0.18590573966503143, 0.17279115319252014, 0.0751509889960289, -0.032759230583906174, -0.018641598522663116, 0.029970556497573853, 0.0486929714679718, -0.02405460923910141, 0.02335217595100403, 0.006727299187332392, -0.04778290539979935, 0.05873130261898041, -0.036536358296871185, -0.08862779289484024, 0.02624264732003212, -0.0783754512667656, -0.09397062659263611, 0.039564236998558044, 0.09369873255491257, -0.0005473229102790356, 0.04061424359679222, 0.013119654729962349, 0.11981508880853653, 0.16053470969200134, 0.21694757044315338, 0.13919702172279358, 0.1399429589509964, 0.10133598744869232, 0.10975911468267441, 0.2138894945383072, 0.19234222173690796, 0.022080058231949806, -0.01380171999335289, 0.028528165072202682, 0.014787907712161541, 0.07054197043180466, 0.02268308214843273, 0.03500840440392494, 0.05181398242712021, 0.048425812274217606, -0.07533247768878937, -0.07241013646125793, -0.18771415948867798, -0.15043248236179352, -0.13487309217453003, -0.13772046566009521, 0.01164429821074009, 0.11471910029649734, 0.06310594081878662, -0.04902289807796478, 0.06485867500305176, 0.1800709366798401, 0.09169699251651764, 0.16994495689868927, 0.03111395239830017, 0.10835706442594528, 0.07921348512172699, 0.09691442549228668, 0.10464596748352051, 0.011110110208392143, -0.05883750692009926, 0.005605181213468313, 0.01399035844951868, 0.06610509753227234, 0.07960394769906998, 0.0509868822991848, 0.030169300734996796, 0.10741864144802094, 0.08101586997509003, 0.06883317232131958, -0.18547990918159485, -0.12802769243717194, 0.024452239274978638, -0.10058782249689102, -0.14334328472614288, -0.02251875214278698, 0.028895221650600433, 0.11590884625911713, 0.10062441229820251, -0.022989721968770027, 0.05192984268069267, 0.1410554051399231, 0.046262700110673904, -0.0547168031334877, 0.049366820603609085, -0.03857621178030968, -0.025104066357016563, -0.056611284613609314, 0.06584692001342773, -0.06727658212184906, 0.005178577732294798, -0.06460586935281754, 0.052569177001714706, 0.11398250609636307, 0.0526433065533638, 0.03875897452235222, 0.15795284509658813, 0.11213761568069458, 0.022155877202749252, 0.11502598971128464, 0.1396017074584961, 0.05726825073361397, 0.03805052489042282, 0.010771775618195534, 0.08487999439239502, 0.1364930123090744, 0.17105825245380402, 0.05941103771328926, -0.11598991602659225, -0.18821856379508972, -0.19684703648090363, -0.05662824958562851, -0.038526080548763275, 0.05197492986917496, 0.019026577472686768, -0.05432191491127014, 0.08651909977197647, -0.03155995160341263, 0.05240785330533981, -0.004805182572454214, 0.12667648494243622, 0.013382047414779663, 0.04107442870736122, 0.014002292416989803, 0.08715520799160004, 0.03305571898818016, 0.06322810053825378, 0.10135497897863388, 0.2462334930896759, 0.30947989225387573, 0.2668246328830719, 0.1987786591053009, 0.14646923542022705, 0.07420225441455841, 0.13652172684669495, 0.034440163522958755, -0.14501360058784485, -0.05009153112769127, -0.1267685741186142, -0.11157708615064621, 0.002098657190799713, -0.09301315248012543, 0.05631326884031296, -0.05181622505187988, 0.05752037465572357, 0.08278373628854752, 0.016316181048750877, 0.05099394917488098, 0.03634519875049591, 0.10462448000907898, 0.10818127542734146, 0.061195436865091324, 0.09357617795467377, 0.14435148239135742, 0.15366873145103455, 0.216301828622818, 0.2112296223640442, 0.17633594572544098, 0.2790820598602295, 0.25521987676620483, 0.024445684626698494, 0.02830418199300766, -0.051950037479400635, -0.05461781844496727, -0.2289254367351532, -0.17352229356765747, -0.2655409574508667, -0.07018761336803436, -0.008136868476867676, -0.017050614580512047, 0.05827195569872856, -0.04350578412413597, -0.06999588012695312, -0.050734370946884155, 0.03842339664697647, -0.04861027002334595, 0.06942827999591827, 0.005470953416079283, -0.11335768550634384, -0.016962066292762756, 0.05475391075015068, -0.022870518267154694, 0.09989813715219498, 0.16481642425060272, 0.2132965624332428, 0.17538365721702576, 0.24676573276519775, 0.12665779888629913, 0.07010329514741898, 0.058363478630781174, -0.024493880569934845, 0.05667433887720108, -0.22116027772426605, -0.2608993947505951, -0.1460225135087967, -0.1790851503610611, -0.01736319065093994, -0.1258336305618286, -0.046959467232227325, 0.05571986734867096, 0.016040582209825516, -0.022639278322458267, -0.06864285469055176, 0.013912460766732693, 0.03731745854020119, 0.04146887734532356, -0.07169502973556519, -0.08305682241916656, -0.13899309933185577, -0.06558458507061005, 0.15704573690891266, 0.11650963127613068, 0.044091854244470596, 0.14146846532821655, 0.03071773238480091, -0.009580851532518864, 0.0683966875076294, -0.015497082844376564, -0.15494568645954132, -0.07970114797353745, -0.1553509384393692, -0.16506806015968323, -0.1651948243379593, -0.11205442994832993, -0.01380992028862238, 0.0026438708882778883, -0.06192261725664139, -0.03525816649198532, -0.012940174899995327, 0.05404089391231537, 0.060796573758125305, 0.04246882349252701, 0.022318750619888306, 0.08710384368896484, -0.07205208390951157, -0.03322131559252739, -0.12375786900520325, -0.11278202384710312, -0.1580256074666977, -0.18967817723751068, -0.22997453808784485, -0.22381211817264557, -0.20989911258220673, -0.2312883585691452, -0.1775171160697937, -0.2128448784351349, -0.18399925529956818, -0.10391402989625931, -0.058072373270988464, -0.07203373312950134, 0.034333210438489914, -0.07311005890369415, -0.0617646686732769, -0.05296691879630089, 0.06080973893404007, -0.04379231110215187, -0.04029037058353424, 0.04082143306732178, 0.023177240043878555, 0.08653195947408676, 0.06005870923399925, 0.03511917218565941, -0.054725419729948044, -0.055112164467573166, -0.1363508254289627, -0.1921873688697815, -0.19220559298992157, -0.22435034811496735, -0.31307345628738403, -0.3079107105731964, -0.32928699254989624, -0.28752097487449646, -0.2504870593547821, -0.20558127760887146, -0.15175315737724304, -0.1601896584033966, -0.06041550263762474, -0.05210861191153526, -0.04097883030772209, 0.03391612693667412, 0.07130502909421921, 0.04687231406569481, 0.062137242406606674, -0.002244910690933466, 0.019277963787317276, -0.04221276193857193, -0.0007093044696375728, 0.08599703758955002, 0.02421814203262329, -0.04759656637907028, -0.027108941227197647, -0.06188574433326721, 0.03684047609567642, -0.09152800589799881, -0.06544553488492966, -0.2307845652103424, -0.21138900518417358, 0.02059144340455532, -0.020789727568626404, -0.0064054750837385654, -0.16869065165519714, -0.04155662655830383, -0.01951567642390728, -0.02425619773566723, 0.025985265150666237, 0.07943904399871826, -0.057195406407117844, 0.07270518690347672, 0.04347052425146103, -0.031136153265833855, 0.044929131865501404, -0.002216685563325882, -0.006128814537078142, 0.017583303153514862, 0.04373887926340103, -0.04929233342409134, -0.03674495220184326, 0.04370277747511864, -0.050225745886564255, -0.023166198283433914, -0.06833802163600922, 0.022154882550239563, 0.0484989769756794, 0.03558250889182091, 0.026900341734290123, -0.04054786264896393, 0.08397054672241211, 0.03998452052474022, -0.03563760966062546, 0.02306053601205349, 0.013586725108325481, -0.016555054113268852, -0.019650660455226898, -0.010464896447956562, 0.056964293122291565, 0.07150992751121521, -0.02367078885436058, -0.06666689366102219, 0.06971096247434616, 0.03722728043794632, 0.02800297737121582, -0.03695068508386612, 0.06057499349117279, 0.017841361463069916, 0.09191799908876419, 0.05395432189106941, -0.0556316077709198, -0.06226997822523117, 0.07806149870157242, -0.06876026839017868, -0.03460448607802391, -0.04866690933704376, -0.06836843490600586, 0.02333570457994938, 0.07129732519388199, -0.02340499497950077, 0.02731148712337017, -0.04086741432547569, 0.07474657893180847, 0.025129901245236397, -0.07049115002155304, -0.01558535173535347, 0.04511146992444992, 0.011966059915721416, 0.08105627447366714, 0.00015646335668861866, -0.0483352467417717, -0.04905937612056732, -0.035904571413993835},
