/**
 * _________________________________________________________________
 * Layer (type)                 Output Shape              Param #   
 * =================================================================
 * input_1 (InputLayer)         (None, 784)               0         
 * _________________________________________________________________
 * hidden (Dense)               (None, 32)                25120     
 * _________________________________________________________________
 * output (Dense)               (None, 10)                330       
 * =================================================================
 * Total params: 25,450
 * Trainable params: 25,450
 * Non-trainable params: 0
 * _________________________________________________________________
 **/

Layer layers[2];


/* Configuring layer: "hidden" */

// Initialise neurons for layer: "hidden"
Neuron hiddenNeurons[32];

// Configure neuron[0] for layer "hidden"
unsigned int hiddenNeuron0NumWeights = 785;
float hiddenNeuron0Weights[785] = {
   -0.018487755209207535 // This is the bias
  ,  0.06551922857761383, -0.03823046386241913, 0.0059176101349294186
  , -0.01489335112273693,  0.09532109647989273,  0.03709006682038307
  , -0.041503094136714935, 9.242057421943173e-05, -0.004183188080787659
  , -0.0026587590109556913,   0.1030542179942131,  0.03482744097709656
  , 0.029668152332305908,  0.04225828871130943, -0.0006404493469744921
  , -0.03788798302412033,  0.08410529047250748, -0.044917136430740356
  ,  0.04441008344292641, -0.05745580792427063, -0.0003372400824446231
  , 0.0021222850773483515, -0.033906303346157074, -0.047454994171857834
  , -0.003994837403297424,  0.09695229679346085, -0.06526237726211548
  , -0.06630156189203262,   0.0941242203116417,  0.03881625086069107
  ,   0.0608687698841095, -0.02041555941104889, -0.012636816129088402
  , -0.03203786537051201,  0.09694121032953262,  0.02795470505952835
  , -0.038922108709812164,  0.07156292349100113,  0.08596725016832352
  ,  0.01589851640164852,  0.09047498553991318, -0.046134963631629944
  ,  0.08016566187143326, -0.04757033661007881, -0.04268341884016991
  , -0.014397495426237583,  0.08340870589017868,  0.10298024863004684
  , 0.013067502528429031, 0.008282085880637169,  0.05136261135339737
  ,  0.09907383471727371,  0.02595938742160797,  0.03730585798621178
  ,  0.04235551878809929,  0.00847094226628542, -0.034724585711956024
  , 0.007192450109869242, -0.030979027971625328, -0.0009408351616002619
  , 0.006111586466431618, -0.040460556745529175, -0.006173458881676197
  , -0.009370563551783562, -0.06297367811203003,  0.08950557559728622
  ,  0.04324083402752876, 0.019571663811802864, -0.05432526767253876
  , -0.032808274030685425,  0.09605646878480911, -0.03261909633874893
  ,  0.06128478795289993, -0.05739767849445343, -0.051993243396282196
  ,   -0.061739481985569,  0.03618486598134041, 0.0009054422844201326
  ,  0.03323774412274361, 0.025843918323516846, -0.04904606193304062
  ,   0.0476347915828228,  0.09123609215021133, 0.005212367977946997
  , 0.048474784940481186,  0.06285560876131058, -0.06671232730150223
  , 0.022886663675308228, -0.06202341616153717, -0.03113446943461895
  ,  -0.0201713964343071, 0.016418421640992165,  0.06056619808077812
  ,  0.08329727500677109, -0.028756603598594666, 0.007657472975552082
  ,   0.0585615448653698, -0.06208815798163414,  0.08568305522203445
  , 0.030580556020140648,  0.00660109706223011, -0.050543807446956635
  ,  0.06587093323469162, 0.018548371270298958, 0.025780823081731796
  ,   -0.041868906468153, 0.054944057017564774,  0.05788729712367058
  , 0.017488684505224228,   0.0473799966275692,  0.09339342266321182
  , -0.03170262277126312,  0.09997972100973129, -0.021447032690048218
  , 0.011096451431512833,  -0.0603535994887352, 0.004026883281767368
  , -0.04755936935544014, -0.060519374907016754, -0.06337393820285797
  ,  0.07300245761871338, 0.013624363578855991, -0.0027762383688241243
  ,  0.06066993623971939, -0.04669616371393204,  0.07713080197572708
  ,  0.06184279918670654,   0.0541868731379509,  0.01652338355779648
  , 0.022214479744434357, -0.060976527631282806, 0.057472486048936844
  , -0.04833110049366951, 0.005091734696179628,  0.09383806586265564
  , -0.009380481205880642, 0.016102058812975883, -0.02284007892012596
  ,  0.03179458528757095,  -0.0636330395936966, 0.0008200512966141105
  , -0.035199932754039764,  0.07449968159198761, -0.048404425382614136
  , -0.04563538357615471,  -0.0548735111951828,  0.09267809242010117
  ,  0.02419397234916687,  0.07678687572479248,  0.05194368585944176
  , -0.011405322700738907, -0.027520382776856422, 0.0031341875437647104
  , 0.016139868646860123, -0.008973604999482632, -0.06583099067211151
  , -0.042775508016347885,  0.08808315545320511, 0.031019873917102814
  ,  0.02936755307018757,  0.05369719862937927, -0.03438558056950569
  ,  0.09151255339384079, 0.009221713989973068,  0.05244765430688858
  ,  0.06505017727613449, -0.016630597412586212,    0.095098577439785
  ,  0.05929592251777649, -0.06328842788934708,  0.06387828290462494
  , -0.04325612261891365, -0.06427887082099915,  0.08567510545253754
  , -0.015010122209787369,  0.08325117826461792,  0.01719178818166256
  , -0.0070219142362475395,  0.07585382461547852,  0.08354908227920532
  , -0.025928381830453873, -0.010836152359843254,  0.07509561628103256
  ,  0.05798006057739258,  0.03361400589346886, -0.03434840589761734
  , 0.029146693646907806,   0.0925593301653862, -0.03372415900230408
  , -0.041755061596632004, -0.03628160059452057,  0.01131137553602457
  ,  0.07288998365402222, -0.009083326905965805,  0.10297615081071854
  ,  0.06773754209280014,  0.04875632002949715, 0.026991762220859528
  , -0.035531844943761826, 0.00011899539094883949, -0.05516346916556358
  ,  0.09469229727983475,   0.0398222990334034, 0.036329831928014755
  , -0.03504759073257446, 0.024401305243372917,  0.03921128064393997
  ,  0.07987496256828308,  0.08736591041088104, -0.07919135689735413
  , -0.06263501197099686, -0.023599758744239807, -0.0038704010657966137
  , -0.0067895506508648396, 0.014745508320629597, 0.044074490666389465
  , -0.06363679468631744,  0.02147696353495121,  0.06464435905218124
  ,  0.05955600365996361, -0.04336807131767273, 0.022299958392977715
  , -0.046056222170591354, 0.028453394770622253, 0.017010029405355453
  , 0.013389375060796738, -0.030481703579425812,  0.08653534203767776
  ,  0.01802268624305725, 0.015686172991991043,  0.05706358328461647
  , -0.05004510283470154, 0.020330248400568962, -0.07415060698986053
  , -0.06353843212127686, -0.036931298673152924, -0.05321940407156944
  , -0.024068264290690422,  0.06715285032987595,  0.07208364456892014
  , -0.015981296077370644,  0.05267276242375374, 0.022220762446522713
  , -0.027755610644817352, 0.0017725045327097178, -0.014950876124203205
  ,  0.04255770146846771,  0.09131554514169693, -0.019902396947145462
  , -0.054271213710308075, 0.018748072907328606, -0.00719253858551383
  , 0.019425779581069946,  0.06047753989696503,  0.09521203488111496
  ,  0.05018813535571098, -0.04554477706551552,  0.06858469545841217
  , -0.044699668884277344,  0.08696599304676056,  0.08858142793178558
  , -0.0077063110657036304,  -0.0650116577744484, 0.023551980033516884
  , -0.011059412732720375, -0.08001414686441422,  0.01714848168194294
  , -0.043977588415145874,  -0.0790676549077034, -0.015127794817090034
  ,  0.08234155178070068,  0.07538953423500061, 0.0018449063645675778
  , -0.013857267796993256,  0.08461412787437439, -0.05964936316013336
  ,  0.03881564363837242, -0.038267482072114944,   0.0837453082203865
  , 0.015183660201728344, -0.036484770476818085, 0.037530768662691116
  ,  0.04924978315830231,  0.09447432309389114, 0.029351506382226944
  , -0.05393277108669281,  0.05957658588886261, -0.055304378271102905
  , -0.04257049411535263,  -0.0647098571062088,  0.09374260157346725
  ,  0.07231175899505615, -0.04565838724374771,  0.05569018796086311
  , -0.05813416838645935,  0.07879722118377686, -0.04834786802530289
  , -0.00028788609779439867,  0.04585619643330574, -0.06561151891946793
  , -0.01452021487057209, -0.01834072172641754,  0.06001020222902298
  ,  0.06898431479930878,  0.07657739520072937,  0.09357865154743195
  ,  0.04430554434657097,  0.03797287121415138, -0.03201883286237717
  , -0.01941894367337227, -0.04020744562149048, -0.046290215104818344
  ,  0.06606108695268631,  0.01409477461129427,  0.09705079346895218
  ,  0.08117268979549408,  0.01528882049024105,  0.08451750874519348
  , -0.06628746539354324, -0.07206781208515167, 0.0022848404478281736
  , -0.015338679775595665, -0.026560718193650246,  0.03934428095817566
  , -0.028521230444312096,  0.09021841734647751, 0.0024511353112757206
  , -0.06105119735002518,  -0.0761016383767128, 0.039198942482471466
  , 0.023836752399802208, -0.04936041682958603, 0.004382540471851826
  , -0.02405332215130329,   0.0949554443359375,  0.08338575810194016
  , -0.03768983483314514,  0.09985145181417465, -0.003522671991959214
  , 0.023634616285562515, -0.03618232160806656, -0.03501385077834129
  , 0.003602581564337015, 0.020536061376333237,  0.07083761692047119
  , -0.03250938653945923,  0.04951116815209389,   0.0175201203674078
  , 0.013169698417186737, 0.006035422906279564,   0.0902424156665802
  , -0.057627685368061066, -0.051524605602025986, -0.0030918745324015617
  ,  0.08414964377880096, 0.060638219118118286,  0.06373767554759979
  , 0.047226760536432266,   0.0693558007478714,  0.01257553044706583
  , -0.03903793543577194, -0.03395919129252434, -0.04836311936378479
  , 0.034002698957920074,  0.06362410634756088,  0.02877885103225708
  , -0.046945322304964066,  0.08077816665172577, -0.02290380746126175
  , -0.06279108673334122, -0.040694206953048706, 0.026588229462504387
  ,   0.0779925286769867, -0.04494265466928482,  0.02243630401790142
  , -0.060875341296195984, -0.05962783843278885, -0.023330582305788994
  ,  0.04578114300966263, -0.07028353214263916,   0.0711987167596817
  , 0.020814040675759315, -0.013467606157064438, -0.07721394300460815
  ,  0.05263812094926834, -0.03793131560087204,  0.04894670099020004
  , 0.054605964571237564,   0.0339253731071949, 0.009642099030315876
  ,  0.01471513882279396, -0.009828086942434311, 0.011576873250305653
  ,  0.08567976206541061,  0.08006372302770615,  0.08322276920080185
  , -0.011404439806938171,  0.05624539405107498, -0.0030040398705750704
  ,   0.0531400702893734, 0.032001666724681854, 0.005805630702525377
  ,  0.05980938673019409,  0.05446887016296387, -0.04795291647315025
  , 0.008311673998832703,  0.01566103659570217, -0.003118017688393593
  , -0.03984101861715317,  0.05183201655745506, -0.0014814744936302304
  ,  -0.0712188109755516, -0.03768966719508171, -0.046216096729040146
  , -0.048324789851903915, -0.017421064898371696, 0.024201346561312675
  , 0.016346929594874382,  0.09912987798452377, 0.015356640331447124
  ,  0.07732701301574707,  0.09094097465276718, -0.0002564833266660571
  , 0.014302369207143784,  0.02006618306040764, 0.005381796974688768
  , 0.015030414797365665, -0.04757227748632431, -0.04948539659380913
  , -0.014901887625455856,   0.0875941589474678,  0.01093822717666626
  , -0.02656877413392067,  0.07971606403589249,  -0.0786743015050888
  , -0.035665176808834076, -0.017554743215441704,  0.04785026237368584
  , -0.0027449149638414383,  0.07423768192529678, 0.021092379465699196
  ,  0.05437225475907326, -0.06218545138835907,   0.0890575423836708
  , -0.041241034865379333, -0.04932187497615814,  0.08637378364801407
  ,  0.05064456909894943,  0.06680382788181305,  0.04961986094713211
  ,  0.07745784521102905, -0.02881036326289177, -0.04971038177609444
  ,   0.0243863333016634, -0.03379838541150093,  0.08128540217876434
  ,  0.03259778022766113, -0.020112400874495506, 0.044481419026851654
  ,  0.09159725904464722, -0.06788572669029236, -0.02711029350757599
  , -0.059400927275419235, 0.037250813096761703,  0.03348908573389053
  , -0.05114471912384033,  0.09152678400278091,   -0.066383957862854
  , -0.012199152261018753,  0.07662419229745865,  0.04593697190284729
  ,    0.027479387819767, 0.008727558888494968,  0.08989454060792923
  , -0.018108408898115158,   0.0509452223777771, 0.009531712159514427
  , -0.06662602722644806, 0.011920829303562641,  0.10013953596353531
  ,  0.03175860643386841, 0.034242939203977585, -0.043932996690273285
  ,  0.06180509924888611,  -0.0614534392952919, -0.07753340154886246
  , -0.002696854528039694,  0.02064596489071846, -0.04411134123802185
  , -0.0026646603364497423, -0.04339209198951721, -0.024602968245744705
  , 0.013275889679789543, 0.008506170473992825, 0.008921260014176369
  , -0.027523519471287727, -0.04005751758813858, 0.009691592305898666
  , -0.011914215050637722,  0.07626266777515411,  0.08299729228019714
  , -0.06503339856863022,  0.05026274919509888,  -0.0533377081155777
  ,  0.09834014624357224,  0.07886854559183121, -0.04959680512547493
  , -0.009015166200697422, -0.05810234323143959,  0.06483576446771622
  , -0.02005504071712494, 0.010086248628795147, -0.061296310275793076
  , 0.004996922332793474,  0.06891412287950516, 0.013370102271437645
  , -0.03461246192455292, -0.08589024841785431, 0.018493186682462692
  , -0.05942074581980705, 0.007917137816548347,  -0.0636412724852562
  , -0.06386484950780869, -0.02528190053999424, -0.04774121567606926
  ,  0.03552355617284775, 0.0020794246811419725,  0.05707349255681038
  , -0.059491947293281555,  0.01503694150596857, 0.027478739619255066
  ,  0.06982345134019852,  0.08371510356664658,  0.07839542627334595
  , -0.04796252027153969,  0.03740209713578224,  -0.0630090981721878
  ,  0.09785915911197662, -0.01723380573093891, -0.020116813480854034
  , -0.07712181657552719, -0.05120754614472389, -0.04390218108892441
  ,  0.04648320749402046, 0.009055898524820805,  0.07529497891664505
  , -0.01036108285188675, -0.08223029971122742,   0.0748206228017807
  ,  0.08946692943572998, 0.042407162487506866,  0.04727484658360481
  , -0.04143059253692627, -0.04541829973459244,  0.04461995139718056
  , 0.012819559313356876,   0.0947137400507927,  0.04098355397582054
  , -0.039454683661460876,  0.07857144623994827, -0.06685993075370789
  , 0.011310276575386524,  0.05941703915596008,   0.1007150411605835
  , -0.005448112264275551, -0.023140067234635353, 0.050353165715932846
  ,  0.06017186492681503,  0.05549165979027748,  -0.0166156068444252
  , -0.002710681175813079, -0.07186390459537506, -0.007204688619822264
  , -0.08203288167715073, 0.044508226215839386, 0.046266861259937286
  , 0.008257267996668816, -0.04515631124377251,   0.0264122411608696
  , -0.03818162530660629,  0.04602959007024765,  -0.0427839495241642
  , -0.03256100043654442,  -0.0527760311961174,     0.06411112844944
  , 0.054340559989213943, 0.006834635976701975, 0.026709631085395813
  , 0.0038959623780101538, 0.046339426189661026, -0.021839704364538193
  ,  0.08348751813173294,   0.0241681057959795, -0.061711497604846954
  ,  0.08490046858787537, -0.01759403944015503, 0.0004449068510439247
  , -0.05863030627369881,  0.07325678318738937,  0.02516363561153412
  , -0.014171959832310677, 0.048833757638931274, 0.042651258409023285
  , -0.014783093705773354, -0.027548810467123985, -0.02283400297164917
  , -0.039891667664051056, 0.005259247031062841, -0.007925888523459435
  , 0.008036546409130096, -0.02486906386911869,  0.06363225728273392
  ,  0.08793281763792038, 0.034795887768268585, 0.036796920001506805
  , -0.0007944303215481341, -0.039381593465805054,  0.07926534861326218
  , -0.002965343650430441, -0.007113007828593254,  0.03884992003440857
  , -0.02423706091940403, -0.03139841929078102,  0.07507868111133575
  ,  0.08613236248493195, -0.07834865897893906, 0.052227288484573364
  , 0.028981346637010574, -0.05004559084773064, 0.0037094238214194775
  , 0.009911827743053436, -0.05010595545172691,  0.07628364861011505
  , 0.061187829822301865, -0.028789035975933075, -0.03865913674235344
  ,  0.00984041765332222, 0.016376608982682228,  0.09670431166887283
  , 0.025273075327277184, 0.053183622658252716, 0.016178451478481293
  ,  -0.0336848683655262,  0.01715145632624626,  -0.0214238278567791
  , 0.030875828117132187, -0.024083662778139114, -0.05109616741538048
  , -0.003850727342069149, -0.022618256509304047, 0.005099841393530369
  ,   0.0267762653529644,  0.04270579665899277, 0.034042131155729294
  , 0.033955127000808716, -0.035181932151317596, -0.026221204549074173
  ,  0.06725937128067017, -0.019772129133343697, -0.0019927292596548796
  , 0.029908964410424232, -0.05447303131222725, -0.05505893751978874
  , -0.04792949557304382, -0.04633760079741478, -0.004971812013536692
  , 0.025696715340018272,   0.0878530815243721, -0.06198424473404884
  , -0.02185812219977379, -0.04873921722173691,  0.06243951618671417
  , -0.05411342531442642, -0.014923403039574623,  0.06035633385181427
  , 0.043815068900585175, -0.031371697783470154, -0.06247035786509514
  , -0.04808827117085457, 0.026035532355308533, -0.048247288912534714
  ,  0.05952392891049385,  -0.0305820070207119,  0.06133148819208145
  ,  0.03996121510863304, -0.03599712997674942,   0.0967760980129242
  ,  0.04440511390566826,  0.00929745938628912, -0.010352718643844128
  , -0.03237815573811531,   0.0738610178232193,   0.1027291789650917
  ,  0.09636524319648743, -0.048740848898887634, -0.06659215688705444
  ,  0.05430222302675247,  0.06303104013204575, -0.05844821780920029
  ,  0.02673541009426117,  0.01992194354534149, 0.028075404465198517
  , -0.01437357533723116, -0.05077100172638893, -0.04852534830570221
  ,  0.07775713503360748,   0.0682511031627655, 0.001777186058461666
  ,  0.01263923104852438,  0.02591661550104618,  0.04163294658064842
  , -0.05241631343960762, 0.039064180105924606, -0.038310758769512177
  ,  0.09805680066347122,  0.04464973136782646,  0.08624844998121262
  , 0.051483575254678726, 0.013160262256860733, -0.005104380659759045
  ,   0.0607680082321167, -0.05924297869205475,  0.10362999886274338
  , 0.019032184034585953, -0.005262602120637894,  0.05766073614358902
  ,  0.04148034378886223,  0.09830068796873093, -0.010085032321512699
  , 0.051710836589336395,   0.0604974627494812,  0.05094689875841141
  ,  0.09503955394029617,    0.067205049097538, -0.009932741522789001
  , 0.0020845336839556694, -0.06745483726263046,  0.07776099443435669
  , -0.05046243965625763,  0.03618671000003815,  0.08494742214679718
  , -0.04115743935108185, -0.04904547333717346, -0.02742646634578705
  , 0.007448398508131504,   0.0705556645989418, 0.005962567403912544
  ,  0.10266663134098053, 0.060203924775123596, 0.028191938996315002
  ,  0.05045854300260544, 0.035918183624744415, -0.010808795690536499
  ,  0.07200609892606735, -0.05752319097518921,  0.05245561897754669
  , 0.005539634730666876, -0.04333941265940666, -0.009430427104234695
  , 0.050315722823143005,  0.08949164301156998,  0.05121193081140518
  , -0.018379539251327515, -0.05775762349367142, -0.023489758372306824
  ,  0.03445832431316376,   -0.063108891248703, 0.005479076411575079
  , -0.020085424184799194, 0.057321593165397644, -0.06259571760892868
  ,  0.07277296483516693,  0.07423777878284454, -0.030142202973365784
  ,  0.03813895955681801, 0.008148741908371449,  0.09264696389436722
  , -0.017751391977071762,  0.02660548686981201, 0.030810389667749405
  , -0.04854436218738556, -0.03033284842967987, -0.04842318594455719
  ,  0.03224317356944084
};
Neuron_ctor(&(hiddenNeurons[0]), hiddenNeuron0Weights, hiddenNeuron0NumWeights, Activation_ReLU);

// Configure neuron[1] for layer "hidden"
unsigned int hiddenNeuron1NumWeights = 785;
float hiddenNeuron1Weights[785] = {
   0.026486126706004143 // This is the bias
  , -0.04397272318601608, -0.05873246490955353, -0.056595079600811005
  ,   -0.088971346616745, -0.08402316272258759, -0.03525210916996002
  , -0.02611369825899601, -0.01926998235285282, -0.06600013375282288
  , -0.01769035868346691, -0.05347590893507004, -0.026451831683516502
  , -0.05434945225715637,  0.03452203422784805, 0.014721698127686977
  , -0.009221510961651802, 0.030171437188982964, -0.060801662504673004
  , -0.03356032073497772,  0.03755117207765579, -0.005184682551771402
  , 0.008907961659133434, -0.06473957002162933, -0.019189978018403053
  , -0.06962376832962036, -0.043600067496299744, 0.004137910436838865
  , 0.0007530886214226484, -0.10490483045578003,  0.03149401396512985
  ,  0.01738390512764454, -0.0032405396923422813, 0.021877741441130638
  , -0.003214840777218342, 0.006082233041524887,  0.05530761554837227
  , -0.01619061641395092,  0.03229682147502899,  0.05106227844953537
  , -0.045220013707876205,  0.02012467198073864, -0.015815045684576035
  , -0.01042513083666563, -0.029438653960824013, -0.010974042117595673
  , -0.04662062227725983, -0.07678905129432678, -0.059178225696086884
  , -0.013786381110548973,  0.05216075852513313, -0.010479198768734932
  ,   0.0292722936719656, -0.09610830247402191,  0.03569413721561432
  , -0.03743927925825119, 0.008074955083429813, -0.01606718823313713
  , -0.08700208365917206, -0.10402542352676392, -0.10718836635351181
  ,  0.04667363315820694, -0.08989603817462921,  0.03132593631744385
  , -0.025944389402866364, -0.10882590711116791, -0.09021861851215363
  ,  0.00809700321406126, -0.023316938430070877, -0.015270272269845009
  , -0.14289332926273346,  -0.1887732595205307, -0.12415949255228043
  , -0.15694664418697357, -0.07790599018335342, -0.017380008473992348
  ,  -0.0973757952451706, -0.09800734370946884, -0.0018824032740667462
  , -0.10119134187698364, -0.059654492884874344, -0.04486910626292229
  , -0.09986256808042526, -0.06296311318874359,  0.01741674728691578
  ,  0.05766810476779938, 0.009415552020072937,  0.03061104193329811
  , -0.08632955700159073, -0.07099699229001999, -0.06990806758403778
  , -0.017256570979952812, 0.020478030666708946,  0.07045790553092957
  , -0.06492072343826294, -0.001865512691438198, -0.06709018349647522
  , -0.11358971148729324,  -0.2200973778963089,  -0.2306305319070816
  , -0.10888557881116867,  -0.1773747354745865, -0.14027860760688782
  , -0.04057261720299721, -0.14189337193965912,  -0.1010947972536087
  , -0.03431397303938866,  -0.1209484189748764, -0.06230362504720688
  , -0.05586264654994011, -0.008482915349304676, -0.06334321945905685
  , -0.11056245863437653, -0.05841657519340515, -0.10077869892120361
  ,   -0.107272207736969, -0.0019770129583775997,  0.04226768761873245
  , -0.07705893367528915, -0.06726209074258804, -0.025439878925681114
  ,  -0.0897742435336113, 0.010062452405691147, -0.05610731616616249
  ,  0.08642116189002991, -0.027524583041667938, -0.14937341213226318
  , -0.16210836172103882,  0.05937232822179794, -0.14699091017246246
  , -0.09770432859659195, -0.06140635535120964, -0.06858418881893158
  ,  -0.2791702151298523, -0.12285147607326508, -0.06555882841348648
  ,  -0.1018206998705864, -0.044472742825746536,  0.08652899414300919
  ,  0.06788288056850433,  0.05757490545511246, -0.000332764902850613
  ,  0.04982195049524307, -0.05408575013279915, -0.03466016426682472
  , 0.020363960415124893, -0.017568301409482956, -0.037465471774339676
  , -0.053558651357889175, 0.006446695886552334,  -0.0355459526181221
  ,   0.0706130713224411, 0.052927590906620026, 0.040807440876960754
  ,  0.05819960683584213, -0.06521780788898468, -0.30218425393104553
  , -0.14434120059013367, -0.14299646019935608, -0.15253637731075287
  , -0.12516191601753235, -0.12372548133134842,  -0.2128143310546875
  ,  -0.1800624430179596,  -0.0978892371058464, -0.07181060314178467
  ,  0.02292729914188385, -0.07254111766815186, -0.09278487414121628
  , -0.08247993886470795,  0.04933325573801994, 0.011684533208608627
  ,  0.06987234950065613,   0.0272289477288723,  0.01492391899228096
  , -0.00564628466963768, -0.04875989258289337,  0.13188837468624115
  , -0.003497337456792593,  0.07080115377902985,  0.23273102939128876
  ,  0.14860831201076508,  0.21998848021030426,  0.15974444150924683
  ,   0.0734301507472992, 0.016337191686034203, -0.025197910144925117
  ,  0.09681788086891174,  0.08410107344388962,  0.11312957108020782
  ,   0.1369328498840332, -0.060309361666440964,  -0.0939815416932106
  , 0.026726558804512024, 0.047920018434524536, 0.022795338183641434
  , 0.00021362036932259798, -0.005190617870539427, -0.07757379114627838
  , -0.012732932344079018, -0.015794584527611732,  -0.1306333839893341
  , -0.09242524951696396,  0.08107466995716095, -0.015031152404844761
  ,  0.08327892422676086,  0.15089140832424164,  0.22490140795707703
  ,  0.11951759457588196,   0.3017098903656006,  0.40191182494163513
  ,   0.1866110861301422,   0.2413579821586609,  0.22087876498699188
  ,   0.1973697692155838,  0.18489651381969452,  0.18997806310653687
  ,  0.14124320447444916,   0.1213410273194313,  0.10360290110111237
  , -0.014882291667163372, -0.03273338824510574, 0.010538884438574314
  , 0.012409302406013012, 0.008049093186855316, -0.06584800034761429
  , 0.015873700380325317, -0.009939899668097496, -0.04439684376120567
  , -0.049494143575429916, -0.02676783874630928, -0.03369508683681488
  , -0.04396039620041847,  0.12761756777763367,  0.09443306177854538
  ,  0.19116364419460297,  0.22329425811767578,  0.24974164366722107
  ,   0.2552553117275238,   0.2739238739013672,   0.2651648223400116
  ,  0.30733951926231384,   0.1636929214000702,   0.2924448847770691
  ,  0.19140943884849548,  0.23573598265647888,   0.1265808790922165
  ,    0.105478435754776, -0.02010495960712433,   0.1419193595647812
  ,  0.04981374368071556,  0.07511311024427414,  0.04398469999432564
  , -0.05409698933362961,  -0.0747125893831253, 0.023793252184987068
  , -0.030246669426560402, 0.039247192442417145, -0.04036898910999298
  ,  0.11709336191415787,  0.02623898535966873,  0.06023753806948662
  ,   0.1700565665960312,   0.1651569902896881,   0.1886301040649414
  ,  0.31671974062919617,  0.26006272435188293,   0.2912139892578125
  ,  0.07148075848817825,  0.17091327905654907,  0.20274648070335388
  ,  0.23511111736297607,  0.04284694790840149,  0.06861867010593414
  ,  0.14633430540561676,  0.10561253130435944,  0.04460673779249191
  ,   0.1707637459039688,  0.15324926376342773,  0.10992882400751114
  , -0.045224275439977646, -0.05143165960907936,  0.03314952552318573
  , 0.0007700221613049507, 0.012286312878131866,   0.0599411204457283
  ,  0.09222313016653061,  0.08966028690338135,  0.10566893965005875
  ,  0.01562533900141716,   0.1054455116391182,  0.10867618769407272
  ,  0.04561282694339752, 0.030476845800876617,    0.207260400056839
  ,  0.22546032071113586,  0.02935918979346752,  0.13009105622768402
  , 0.007766993250697851,  0.15358062088489532, -0.060311973094940186
  ,  0.07561200857162476,    0.128891721367836,  0.11392228305339813
  ,  0.11722620576620102,  0.18311597406864166,  0.12016118317842484
  , 0.013529721647500992, -0.10452345758676529, 0.0033450759947299957
  ,  0.06069428473711014,  0.05997737869620323,  0.08119425177574158
  ,   0.0704912319779396, 0.062112610787153244,  0.09265308082103729
  , 0.011471222154796124,  0.08177591860294342, -0.0052784825675189495
  , -0.04458125680685043,  0.07566556334495544,  0.03154590353369713
  ,  0.17762677371501923,   0.0750354528427124, -0.056714240461587906
  , -0.13359057903289795,   0.1421746462583542, -0.040364209562540054
  , -0.11668361723423004,  0.06496325880289078,  0.09768069535493851
  ,  0.09154241532087326,  0.07027244567871094,   0.0365070179104805
  ,   0.1430494487285614,  0.01061825081706047,  -0.0658983662724495
  ,  0.05509437248110771, 0.0004436601302586496, 0.005163287278264761
  ,  0.01179966889321804,  0.08575388789176941,  0.13310201466083527
  , 0.009201360866427422, -0.026418091729283333, -0.026021365076303482
  , -0.11841440945863724, -0.08096708357334137, -0.02278812788426876
  , -0.19600656628608704, 0.003036988666281104,   0.0429256334900856
  , -0.010193048045039177, -0.11538717150688171,  0.10997850447893143
  ,   0.0974259302020073, -0.07533267140388489, -0.07385218143463135
  , -0.08482177555561066, 0.040565162897109985, -0.04431363567709923
  , -0.18027019500732422, -0.06362545490264893, -0.017335688695311546
  , -0.11060623824596405,  -0.0771092101931572, -0.08036334812641144
  , 0.042636845260858536, -0.024404941126704216,  0.11302676051855087
  , -0.06189878657460213, -0.07206454873085022, -0.12844061851501465
  , -0.15092329680919647, -0.05162276327610016, -0.04724276065826416
  , -0.02443142607808113, 0.017241286113858223,  -0.0862855613231659
  , -0.0003245878906454891, -0.028053902089595795,  -0.0887015089392662
  , -0.04548632726073265, -0.09047523140907288, -0.056949369609355927
  , -0.029372772201895714,  0.02960909716784954, -0.09349934756755829
  , -0.11578069627285004, -0.06434246897697449, -0.07819194346666336
  , 0.014158894307911396, -0.07643891125917435,  0.03705325722694397
  , -0.07936260104179382, 0.053822580724954605,  0.07499393075704575
  ,  0.10605990886688232,  -0.1007370725274086, -0.09443489462137222
  , -0.043148212134838104, -0.07813959568738937, 0.015705237165093422
  , -0.016071969643235207, -0.007656759582459927, -0.06374415010213852
  , -0.014169489033520222, -0.12761500477790833, 0.057703252881765366
  , -0.04928075149655342, -0.05532178655266762, -0.06566441059112549
  , 0.010148338042199612,  0.08865990489721298, -0.05145149305462837
  , -0.060918450355529785, -0.08689649403095245, 0.007256100885570049
  ,  -0.1121780127286911, 0.027336707338690758, -0.08732743561267853
  , -0.03471919149160385, -0.01901947148144245, -0.00197314633987844
  , -0.12804722785949707, -0.038220297545194626, -0.07546964287757874
  , -0.10795364528894424, 0.0059862881898880005, 0.057938747107982635
  , -0.06243316829204559,   0.1162671372294426, -0.031270045787096024
  , -0.07005824893712997, -0.06756860017776489, -0.20262964069843292
  ,  0.06784847378730774, -0.11309503763914108,  0.09038517624139786
  ,   0.1397949457168579,  -0.0345359705388546,  0.20854344964027405
  ,  0.02016938291490078, -0.03041374869644642, 0.035872526466846466
  , 0.013442992232739925, -0.08345848321914673, -0.10965628921985626
  , -0.027550287544727325,  0.04222121089696884, -0.010536212474107742
  , 0.019093826413154602, -0.06676767021417618,  0.08172155171632767
  , -0.057787392288446426, -0.11109236627817154, -0.053427115082740784
  ,  0.04810599982738495, -0.027981966733932495,  0.05397358164191246
  , -0.07814730703830719,  0.04761357232928276, -0.11021433770656586
  , -0.21732169389724731, -0.050070978701114655, -0.05062331259250641
  ,  0.12907443940639496,  0.05711895599961281,    0.091750368475914
  ,  0.16716188192367554, -0.01526615209877491, 0.006559050176292658
  ,  -0.0697525218129158,  0.03629046306014061, -0.12909044325351715
  , -0.01589539460837841, -0.07821904867887497, -0.09724900126457214
  , -0.0013757962733507156,  0.02086457796394825, -0.09394509345293045
  , -0.008935006335377693, 0.014211209490895271, 0.029727723449468613
  ,  0.02948063611984253, 0.007181288208812475, -0.012503745034337044
  , -0.09363368153572083, -0.01694924384355545,  0.01105157658457756
  , -0.08289363235235214, -0.17675422132015228,  0.02184748835861683
  ,  0.10511765629053116,    0.143308624625206, -0.032591965049505234
  , -0.03201192244887352,  0.13703462481498718,  0.05684037506580353
  ,  0.05391718074679375, -0.008382059633731842, -0.023037079721689224
  , -0.16695071756839752,   0.0570157915353775, -0.06499446928501129
  , -0.10804397612810135, -0.10440729558467865, -0.06892756372690201
  , -0.004071755800396204, 0.028174763545393944, 0.015192026272416115
  , -0.026963360607624054,  0.01182086393237114,  0.03663524612784386
  , -0.14106464385986328,  -0.1174478605389595, 0.033227309584617615
  ,  -0.1702442318201065, -0.16351249814033508, -0.09129274636507034
  ,  0.04498368874192238, 0.019633984193205833, 0.017857227474451065
  , -0.10395187884569168, 0.005343948025256395, -0.003289740765467286
  , -0.03570450469851494,   0.0392657034099102, -0.030239177867770195
  , -0.11817718297243118, -0.15829457342624664, -0.055025484412908554
  , -0.07319233566522598, -0.04220504313707352, -0.032154638320207596
  , -0.07720397412776947, -0.013138587586581707,  0.08085524290800095
  ,   0.1223098412156105,  0.02758992277085781, -0.03140751272439957
  , -0.018429387360811234, -0.20437605679035187, -0.22330079972743988
  ,  -0.2577526569366455, -0.047882772982120514, -0.18832330405712128
  , -0.027998490259051323, -0.13343437016010284, -0.13504411280155182
  , 0.0004508646670728922, -0.026256989687681198,  0.09777304530143738
  ,  0.07128597050905228, -0.09066728502511978, 0.016783855855464935
  , 0.016726071015000343, 0.008214703761041164, -0.030288122594356537
  , -0.07381386309862137, 0.048134803771972656, 0.037531353533267975
  , -0.009946854785084724,  0.02471090480685234, -0.09314883500337601
  ,  0.07124507427215576,  0.19099771976470947,   0.1134541854262352
  , -0.12565138936042786, 0.033453669399023056,  -0.1928684264421463
  , -0.13350951671600342, -0.13126227259635925, -0.20094513893127441
  ,  0.06354696303606033,  -0.1239471435546875, -0.13320954144001007
  , -0.12271110713481903, -0.023706084117293358, -0.13138549029827118
  , -0.00619907071813941,  -0.1100352555513382, -0.09212269634008408
  , -0.050235915929079056, -0.018283944576978683,  0.02696320228278637
  , -0.02818579412996769, 0.009921262040734291, -0.11129286885261536
  ,  0.04001348465681076,  0.05792750418186188, -0.08134347945451736
  , -0.029524384066462517,  0.04140027239918709, -0.07059090584516525
  ,  0.12167790532112122,  0.09210702776908875, -0.11627029627561569
  , -0.14973150193691254, -0.18528753519058228, -0.12134291231632233
  , -0.07019133865833282, -0.14658696949481964,  -0.1541317254304886
  , -0.18448226153850555, -0.07976306974887848, -0.15237562358379364
  , -0.17514470219612122, -0.05965447425842285, -0.12945860624313354
  , -0.12055496871471405,  -0.0563376359641552, -0.05507864058017731
  , 0.021830014884471893, -0.016858505085110664, -0.027085909619927406
  , 0.024410560727119446,  0.02073541097342968, -0.021357571706175804
  ,   0.0340406633913517, -0.11464512348175049, -0.08934759348630905
  ,  -0.1255071610212326, -0.06395704299211502,   0.0855080634355545
  , 0.024513525888323784,  0.03179491311311722,   0.0731951966881752
  , -0.07453416287899017,   0.0350072979927063, -0.09322868287563324
  , -0.05793491378426552,  -0.0931154191493988,  -0.0179294440895319
  , -0.12985871732234955, -0.17054633796215057, -0.23178240656852722
  , -0.23229485750198364, -0.27322232723236084, -0.06482851505279541
  ,  0.09664203226566315,  0.01706538535654545, -0.054003648459911346
  , -0.06457306444644928, 0.010703971609473228, -0.01509325485676527
  , 0.006904954090714455, -0.02731420285999775,  -0.0704088881611824
  , -0.023367030546069145, 0.020486820489168167,  0.08468522876501083
  ,  0.06258036196231842, -0.052308134734630585, -0.08296646922826767
  ,  0.08504810929298401,  0.11692510545253754, -0.002301060361787677
  , -0.030704129487276077, 0.035186607390642166,  -0.0538429394364357
  , -0.12258380651473999, -0.12439551949501038, -0.18154868483543396
  , -0.24146635830402374,   -0.166354238986969, -0.08265181630849838
  , -0.05329952389001846, -0.03162180259823799,  0.03921597823500633
  , 0.009678342379629612, -0.09853696078062057, 0.032043807208538055
  , -0.07223336398601532, -0.05210606008768082, -0.08709639310836792
  , -0.034735698252916336, -0.011019185185432434,  0.04989073425531387
  ,  0.15058206021785736,  0.11603030562400818,  0.08726286888122559
  , -0.06486240774393082, -0.006981218233704567,  0.08118634670972824
  ,  0.09431765228509903,  0.06530650705099106,  0.06861550360918045
  ,  0.05641859397292137, -0.04251191020011902,  0.07740069925785065
  , -0.10841525346040726, -0.04997897893190384, -0.04987219348549843
  , 0.032897695899009705, -0.04425165429711342,  0.07291345298290253
  , 0.025639036670327187, -0.08132530003786087, -0.04226081073284149
  , 0.018486855551600456, -0.07594528794288635, -0.032620660960674286
  , 0.0028051193803548813, -0.01338972058147192, -0.05092591047286987
  ,  0.12774914503097534,  0.14954644441604614,   0.1398199200630188
  ,  0.07752343267202377,   0.0792306438088417,   0.2192143201828003
  ,  0.21914251148700714,  0.23873773217201233,  0.30092284083366394
  ,  0.19518804550170898,   0.2199850231409073,   0.2878102660179138
  ,  0.34284713864326477,   0.1928459107875824,  0.21262747049331665
  ,   0.1577371209859848, 0.010652038268744946, 0.038042642176151276
  , -0.049516577273607254, -0.04913010448217392, -0.10737442970275879
  , -0.07042224705219269, -0.055857837200164795, -0.06521367281675339
  , -0.011269990354776382, -0.00356256403028965,  0.01976197399199009
  ,  0.05023324489593506, -0.04977654665708542,  0.08049182593822479
  , -0.027628574520349503, 0.040217477828264236, 0.029619649052619934
  ,   0.1971801519393921,  0.14518435299396515,   0.1580510288476944
  ,   0.2642464339733124,   0.3537003695964813,    0.318226158618927
  ,  0.18549557030200958,  0.29317396879196167,  0.15049968659877777
  ,  0.12543579936027527, 0.004530614707618952,  0.06358028948307037
  ,  0.06008698418736458,  0.02719048224389553,   0.0171047430485487
  , -0.0009307595901191235, -0.08456219732761383, -0.03244253620505333
  , 0.048917606472969055, 0.011373300105333328, -0.06840604543685913
  , -0.05027920752763748,  -0.1017601490020752, -0.03169543296098709
  ,  0.04717447981238365, -0.04215160384774208,  0.06553111970424652
  ,  -0.0783315896987915,  0.08587794750928879, 0.052154406905174255
  , -0.07693048566579819, 0.005134309642016888, -0.03520389273762703
  , 0.004295774735510349, 0.009096622467041016, -0.01048268098384142
  , -0.04955507814884186,  0.06543787568807602, -0.09611029922962189
  ,   0.0600147545337677, 0.022119075059890747, -0.017643243074417114
  , -0.009713651612401009, 0.019883470609784126, 0.005905617494136095
  ,  0.00440859142690897
};
Neuron_ctor(&(hiddenNeurons[1]), hiddenNeuron1Weights, hiddenNeuron1NumWeights, Activation_ReLU);

// Configure neuron[2] for layer "hidden"
unsigned int hiddenNeuron2NumWeights = 785;
float hiddenNeuron2Weights[785] = {
   -0.009658466093242168 // This is the bias
  ,   0.0634603202342987,  0.01933269388973713, -0.041672978550195694
  ,  0.08145904541015625, -0.021359900012612343, 0.015479038469493389
  , 0.014194387011229992, -0.014154803939163685, -0.03335266932845116
  ,  -0.0742783322930336, -0.03172269091010094, -0.04785602539777756
  , -0.07525820285081863, 0.004213618114590645, -0.025456245988607407
  ,  0.05009821802377701, -0.025506149977445602, -0.03137001022696495
  , 0.027255112305283546, 0.045496612787246704, -0.04361722245812416
  ,   0.0735173225402832, 0.032174598425626755,  0.05727159231901169
  ,  0.08831460773944855, 0.047610774636268616, -0.02269846387207508
  , -0.043455347418785095, -0.03444557636976242, 0.057974137365818024
  , 0.061390869319438934, -0.018435189500451088,   0.0879366546869278
  ,     0.07388935983181, 0.015223833732306957, -0.04790908098220825
  , 0.023578668013215065, -0.05655134096741676,  0.04058589041233063
  , -0.04643905907869339, -0.06225762888789177, -0.05992847681045532
  , 0.017844684422016144, 0.016561046242713928, -0.01613527722656727
  , -0.02735704928636551,  0.07466179132461548, 0.009263712912797928
  , -0.06769171357154846, -0.002268737880513072,  0.04169934242963791
  , -0.03030327893793583,    0.078033447265625,  0.05273962765932083
  , -0.045767609030008316, -0.04520764201879501, -0.028754375874996185
  ,  0.08576039969921112,  0.03825901448726654,  0.06694413721561432
  ,  0.07833503186702728,  0.04037400335073471, 0.042156971991062164
  , -0.06842780113220215, 0.015027332119643688, -0.023416154086589813
  ,  0.06740683317184448,  0.06836993247270584,  0.03833259642124176
  , -0.008881471119821072, -0.05699640139937401, -0.045306213200092316
  ,  0.06729553639888763,  0.08653244376182556, 0.033263690769672394
  ,  0.07819113880395889, -0.006203220225870609, -0.02822604961693287
  , 0.040544744580984116, 0.053759582340717316,  0.09108626842498779
  , 0.0031533550936728716, 0.047633543610572815, 0.006442653480917215
  ,   0.0849742442369461,  0.07955363392829895, 0.046141959726810455
  ,  0.03864549100399017,  0.09484682977199554,  0.03555101156234741
  , 0.032408613711595535, -0.004899214021861553, -0.06234903633594513
  ,  0.07475310564041138,  0.06564973294734955,  0.06213897839188576
  , -0.056075915694236755,  0.07737238705158234,  0.08268330246210098
  , 0.013417169451713562, -0.028253277763724327,  0.05683838203549385
  , -0.019185498356819153, -0.040186021476984024, 0.049641095101833344
  ,  -0.0599786639213562, -0.06033839285373688,  0.09399795532226562
  ,  0.05907686799764633, -0.00785896647721529,  0.08483986556529999
  , 0.035832688212394714,  0.07272201776504517, -0.009660794399678707
  , -0.04807711020112038,  0.08032645285129547,  0.06133093684911728
  , -0.01382480375468731, 0.025779331102967262,  0.02256123721599579
  , 0.002699293429031968,  0.07974075525999069, -0.06372975558042526
  , 0.008112546987831593, 0.018747510388493538,  0.03708525002002716
  , -0.022436637431383133, -0.03044763393700123,  0.07163989543914795
  , -0.06250262260437012, -0.06696294248104095, -0.060141440480947495
  ,  0.08539307862520218,  0.08330879360437393, 0.028458118438720703
  , -0.07528869807720184, -0.05755895376205444,  0.02609732188284397
  , -0.009152202866971493, 0.037608105689287186,  0.04956363886594772
  , 0.044152118265628815,  0.03939468413591385, -0.04043236002326012
  , -0.04439432919025421, -0.04451284557580948,   0.0252851452678442
  , -0.05326838418841362, 0.048895638436079025, 0.039748162031173706
  ,  0.09569277614355087, -0.004585869610309601, -0.04888300597667694
  , -0.052133265882730484,  0.08616624027490616, -0.000246695737587288
  ,  0.04131321981549263,  0.05900832638144493, 0.011411535553634167
  , 0.008618008345365524, -0.06582186371088028, 0.018168289214372635
  , -0.04531627520918846,  0.06930990517139435, -0.04927187040448189
  , 0.060051724314689636, -0.05990630388259888,  -0.0323500856757164
  , -0.055634111166000366, -0.023448685184121132,  0.04138702154159546
  , -0.06402553617954254,  0.00814615935087204, -0.032590463757514954
  ,  0.06759518384933472,  0.06648524105548859, -0.03231831267476082
  ,   0.0663009062409401, -0.040342867374420166, -0.06643455475568771
  ,  0.03323579579591751,  0.06207142770290375,  0.06918393820524216
  , 0.008871054276823997, 0.016073716804385185, -0.016189223155379295
  ,  0.06623538583517075,  0.04268676042556763,  0.06955835968255997
  ,  0.06261683255434036, -0.04053178429603577,  0.05126652866601944
  , -0.05724325031042099,  0.06643758714199066,    0.078042171895504
  ,  0.02420755662024021,  0.08318834006786346,  0.06397699564695358
  ,   0.0375567264854908,  0.07698382437229156, 0.029606085270643234
  , -0.052566755563020706, -0.06879515945911407, 0.005967182107269764
  , -0.04276084154844284, -0.07823220640420914,  0.01703437604010105
  ,  0.05453428626060486, -0.01570047251880169,  0.05234967917203903
  , -0.03741705045104027, -0.044108979403972626, -0.02943778596818447
  , -0.04016904532909393,  0.03340332210063934,  0.05072973668575287
  , -0.03227090463042259, -0.02058708667755127, -0.041630420833826065
  ,  0.03922043368220329, 0.024383513256907463, -0.0025636982172727585
  , -0.05828443914651871,   0.0901612937450409, -0.06613169610500336
  ,  0.03843558579683304, -0.03186026215553284, 0.006494116969406605
  ,  0.04307505860924721, -0.031134815886616707, 0.038607317954301834
  , -0.023843074217438698, 0.008408683352172375,  0.00366766843944788
  , -0.010988601483404636,  0.04515310376882553, -0.030954787507653236
  ,  0.03438158333301544,  0.08027375489473343,  0.07907936722040176
  ,  0.07322678714990616, -0.044600579887628555, -0.07920438796281815
  , -0.0013214016798883677, 0.014524892903864384, -0.03338189795613289
  , -0.05357282608747482,  0.06587228178977966,  0.09249751269817352
  , -0.04090927541255951, -0.06623060256242752,  0.05489061027765274
  , -0.005376381333917379, -0.002967498265206814,   0.0817987248301506
  , -0.06482042372226715,  0.05656938627362251, -0.054520681500434875
  ,  0.03951073810458183, 0.041300058364868164,  0.04421401396393776
  ,  -0.0468578077852726,  0.05514197424054146,  0.03716421499848366
  , 0.021677713841199875, -0.00636538490653038,  0.07038392871618271
  , 0.006822721101343632, -0.09004820883274078, -0.08176086097955704
  ,    -0.08399648219347, -0.04446638375520706, -0.04812290519475937
  , -0.0008257003501057625, 0.017766272649168968, -0.057923540472984314
  ,  0.05513535067439079, -0.04315657541155815, 0.040113210678100586
  , -0.01419589389115572, 0.030593762174248695, -0.03598654642701149
  ,   0.0851488709449768, -0.07520190626382828,  0.02286548912525177
  , 0.014858231879770756,  0.05490964651107788,  0.05803237110376358
  , -0.060809165239334106, -0.08573558181524277,  -0.0990290641784668
  , -0.0004099986399523914, 0.017513155937194824, -0.028265148401260376
  ,  0.05276293680071831,  -0.0681496188044548, -0.030498303472995758
  ,  0.05518496409058571, -0.04523327574133873, 0.049406953155994415
  , -0.059608712792396545, -0.058247797191143036,  0.04343951866030693
  ,  0.04898446425795555, -6.73551912768744e-05, -0.018023677170276642
  ,  0.07519959658384323, 0.0046713221818208694, 0.028636084869503975
  , -0.04504977539181709, 0.030598757788538933,  0.07123532146215439
  ,  0.03156556189060211,   0.0841853991150856, -0.043898049741983414
  , -0.0024700246285647154, -0.0069224657490849495, -0.039740294218063354
  , 0.024504153057932854, 0.028377430513501167, 0.047481656074523926
  ,  0.09621527791023254, -0.05767688900232315, -0.004474050831049681
  , -0.05177498608827591,  0.06294172257184982, -0.05835116282105446
  , -0.052837666124105453, -0.01680777035653591, 0.015440738759934902
  , -0.06005770340561867, -0.009513547644019127,  -0.0562540739774704
  , -0.013359756208956242, -0.003084561787545681,  0.06164278835058212
  , -0.014493480324745178, -0.04872801899909973,  0.07617919892072678
  , 0.031129004433751106,  0.09303668886423111, -0.02571706660091877
  ,  0.07595705986022949,  -0.0640767440199852, 0.013505612500011921
  , 0.059140224009752274,  -0.0508250817656517, -0.05451112613081932
  , -0.03465753793716431, 0.0002613863907754421,  0.10133451968431473
  , -0.01658431440591812, -0.028444556519389153, 0.015797104686498642
  , -0.06580482423305511, 0.049433961510658264,  0.04201611503958702
  , -0.061515532433986664, -0.02436133474111557,  0.08873312920331955
  , -0.06779735535383224,  0.03447561711072922, -0.005910446401685476
  , -0.07433971017599106, -0.018741505220532417, 0.006795463617891073
  ,  0.09287560731172562, -0.06237751618027687, 0.009349437430500984
  , -0.06476523727178574, -0.026986142620444298, 0.042336639016866684
  ,   -0.074007049202919, -0.06743152439594269, -0.04258556291460991
  ,  0.03444751352071762,  0.09512452781200409,  0.09929708391427994
  , -0.06824367493391037,  0.04454910382628441, 0.035755861550569534
  ,  -0.0818534791469574,  0.02142174541950226, -0.022812213748693466
  , 0.057591214776039124, 0.036931999027729034, -0.024767279624938965
  ,  0.06877715140581131, 0.005893068853765726, -0.05254096910357475
  , -0.03327420353889465, -0.06930137425661087,  0.03359941020607948
  , -0.03533635288476944, -0.048038408160209656, -0.022991057485342026
  , -0.06968783587217331,  0.02762575075030327, 0.002826293231919408
  , -0.08002202212810516, 0.002600027248263359,  0.06364314258098602
  , -0.036537110805511475, -0.03011711873114109,  0.00791437178850174
  , -0.03818758949637413, -0.06269747018814087, -0.04189019650220871
  , -0.04970185458660126, 0.048932258039712906, -0.033321309834718704
  , -0.03573455661535263, -0.04510008171200752, 0.044370319694280624
  , -0.07179153710603714, -0.02318289689719677, 0.018079444766044617
  , -0.06644374877214432, -0.007288540247827768, -0.03263920545578003
  , -0.07588618993759155,  -0.0249115489423275,  0.06206866353750229
  ,  0.03327732905745506, 0.010620973072946072,  0.05496162176132202
  , -0.03580109775066376, -0.04232725128531456, 0.029146481305360794
  , -0.017019052058458328, -0.06999519467353821, -0.040345530956983566
  ,  0.05047336593270302, -0.015311246737837791,  0.07395891100168228
  , 0.0027113219257444143, -0.03720477968454361,  -0.0779731273651123
  ,  0.04895462468266487,  0.03471197560429573, -0.07128561288118362
  ,  0.07623836398124695, -0.052428971976041794, 0.015724698081612587
  , 0.046136077493429184,  0.00593686755746603, 0.006443253252655268
  , -0.003943038638681173,  0.09343107044696808,   0.0440702810883522
  ,   0.0375245101749897,  0.06616488099098206, -0.05327606946229935
  , -0.05169113352894783,  0.05535520985722542,  0.06808595359325409
  ,  0.07163376361131668, -0.07953786849975586, -0.02832181565463543
  ,  0.07284534722566605, -0.010027926415205002, -0.06401573121547699
  ,  0.06492473185062408,   -0.096765898168087, -0.10119075328111649
  ,  0.06391222774982452,  0.01110175158828497, 0.003911922220140696
  , 0.022945938631892204,  0.05076965317130089,  0.07451096922159195
  ,  0.05845631659030914, -0.008810898289084435, -0.030752236023545265
  , 0.057868681848049164,  0.04081864655017853, 0.015639515593647957
  ,  0.05031057447195053, -0.06900646537542343, 0.014135810546576977
  , 0.035599611699581146,  0.00681437598541379, -0.03588458150625229
  ,  0.02882615476846695, 0.022225821390748024, -0.01090120617300272
  ,  0.04860781505703926,  0.01067663449794054, -0.008247203193604946
  , 0.004742729011923075,  0.07342518121004105, -0.03861147537827492
  ,  0.06047743186354637,  0.07915133237838745, -0.011341583915054798
  , -0.019315753132104874, -0.019160283729434013, -0.01892455294728279
  , -0.054176297038793564, 0.060147128999233246, 0.012471177615225315
  , -0.03143322095274925,  0.06463826447725296, -0.04896238446235657
  ,  0.04936560243368149,   0.0730140209197998,  0.06350994110107422
  , -0.06499370187520981,  0.02615601383149624, -0.07013731449842453
  , -0.06948089599609375,  0.04801554977893829,  0.07815377414226532
  ,  0.08978095650672913, -0.05051807686686516, 0.035459429025650024
  , -0.03972818702459335,  0.07887300848960876, -0.0032392607536166906
  , -0.08441746979951859, -0.001812302740290761, 0.002165689133107662
  , -0.0007934116874821484, -0.03900451213121414, -0.032010357826948166
  , 0.003714232938364148,  0.09135308861732483,  0.08084460347890854
  , 0.028755294159054756,  0.05034120753407478, 0.003532045753672719
  ,  0.07838040590286255,   0.0772089958190918, -0.06563159078359604
  ,  0.05156991630792618, 0.009853007271885872,  -0.0597970187664032
  , 0.028231246396899223, 0.049973733723163605,  0.03440064564347267
  ,  0.10129709541797638, 0.016293182969093323, 0.031830593943595886
  ,   0.0915701761841774, -0.013909685425460339, -0.06181733310222626
  , -0.035123132169246674, -0.04640936851501465, -0.05445060133934021
  ,  0.02890307642519474, -0.01178368553519249, -0.004850252065807581
  , -0.06561022996902466, -0.028512220829725266, -0.019913939759135246
  , 0.013527357950806618, -0.027856312692165375,  0.05980150029063225
  , -0.02345023863017559,  0.09350991249084473,  0.03557570278644562
  , -0.0036139844451099634, -0.030968204140663147, 0.012313741259276867
  , -0.02123272232711315, 0.003625918412581086, -0.05349048227071762
  , -0.047672346234321594, -0.030235178768634796, -0.04137490317225456
  ,  0.09479895979166031, -0.06176171824336052,  0.02680027484893799
  , -0.01790037751197815, 0.005349932704120874, -0.06786920130252838
  , -0.07934849709272385,  -0.0654330924153328,  0.06474845856428146
  , 0.027566038072109222,  0.10297929495573044, 0.007772309239953756
  ,  0.03228779509663582, -0.011184697970747948,  0.06495985388755798
  , 0.006873951759189367, -0.030184801667928696, -0.05362698435783386
  , -0.04363016411662102,  0.04777275025844574,  0.05714499205350876
  ,  0.06705590337514877, 0.048524726182222366,  0.07472193986177444
  ,  0.08642697334289551,  0.04283054918050766, -0.06158221885561943
  ,  0.08870482444763184, -0.017605384811758995, -0.059042662382125854
  , -0.028947429731488228,  0.03405260667204857, -0.059093620628118515
  , -0.060987167060375214, -0.04041830077767372,  0.08661764115095139
  , -0.05880623683333397, -0.06842713057994843, -0.06688033789396286
  , -0.045174431055784225, 0.008735938929021358, -0.06353045254945755
  , -0.018811937421560287, -0.038899023085832596, -0.01358761265873909
  ,  0.03659411519765854,  -0.0161957498639822, 0.003009923966601491
  ,  0.08937400579452515,  0.07847701013088226,  0.03398612514138222
  , -0.010559048503637314,  0.09782690554857254, -0.004714382812380791
  , -0.060819514095783234,  0.07865502685308456,  -0.0520985908806324
  ,  0.03339890390634537, -0.061789121478796005, -0.018217360600829124
  , -0.05614271014928818, 0.008453511632978916, 0.020676400512456894
  ,  0.04448584094643593, -0.04046386852860451, -0.06463780254125595
  , 0.020153088495135307, -0.024150578305125237, -0.05628097802400589
  ,  0.06244117394089699, -0.05210007727146149, -0.01748606748878956
  ,  0.08354336023330688, 0.017455236986279488, 0.024989629164338112
  , -0.06485256552696228, 0.055005691945552826, -0.05333825200796127
  , -0.05721917003393173, -0.02030361443758011,  0.05887198820710182
  , 0.024545393884181976,  0.06376788765192032, 0.008427928201854229
  , -0.04299161583185196, -0.001318431692197919,  0.05674992501735687
  , -0.033138688653707504, -0.060087308287620544,  0.03638460487127304
  ,  -0.0348905473947525,  0.08794223517179489, -0.04966432601213455
  , -0.025844713672995567,  0.06986752152442932,  0.01893562637269497
  , -0.02442406490445137, -0.05246448889374733, -0.06445011496543884
  ,  0.03353290632367134, -0.07525572925806046, -0.07318982481956482
  , 0.033756766468286514,  0.03318653628230095,  0.05917065590620041
  ,  0.06931955367326736, -0.010932281613349915, -0.04529203101992607
  , 0.058824606239795685,  0.09190894663333893, 0.002785410499200225
  , 0.023295583203434944, 0.004971413407474756, -0.05419527739286423
  , -0.06246501952409744,  0.08238404244184494,  0.08269470930099487
  ,  0.06555138528347015, -0.03544612601399422,  -0.0569358766078949
  ,  0.01847217045724392, -0.07147428393363953, -0.02596503309905529
  , 0.024650882929563522,  0.03803454712033272,  -0.0514790415763855
  , -0.058736156672239304,  0.05188935250043869, -0.0034337108954787254
  , -0.07324755936861038, 0.0077817682176828384, -0.04200321435928345
  , -0.07557918131351471, -0.05540233850479126,  0.03829389065504074
  , -0.04180040583014488, -0.07601593434810638,  0.02113642729818821
  ,  0.06136399880051613, 0.011373676359653473, 0.054932523518800735
  , 0.037315864115953445,  0.04893197864294052, -0.05899493023753166
  , -0.060689955949783325, -0.07481544464826584, -0.061479344964027405
  ,  0.03804922103881836, -0.05122344568371773, -0.024086719378829002
  , -0.029470622539520264,  0.04947075992822647, 0.028007520362734795
  , 0.049072615802288055,  0.08077004551887512, -0.013934862799942493
  , -0.052063263952732086, -0.03496941924095154, -0.0007405919022858143
  , -0.02218480035662651, 0.011941800825297832,  0.02926645614206791
  , -0.06202860549092293, -0.017705881968140602, 0.041994716972112656
  , 0.010397466830909252, -0.07276410609483719, -0.0028989939019083977
  , -0.006344967987388372, -0.03347551450133324, 0.038949158042669296
  , -0.0038658648263663054, -0.037249110639095306, 0.006841746624559164
  ,  0.06669048219919205,  0.01913304254412651,  0.02374071069061756
  , -0.023834023624658585,  0.08266621083021164, -0.03800535947084427
  ,  0.03737352415919304,  0.02752532996237278,  0.03866133093833923
  , -0.06560597568750381, -0.041112784296274185, 0.017360256984829903
  , 0.023502621799707413, -0.07120274752378464, -0.06701012700796127
  , 0.019068779423832893,  0.05899418145418167,  0.06396163254976273
  ,  0.04434198886156082,  0.05239453166723251, 0.047078728675842285
  ,  0.06606468558311462,  0.06061519309878349, -0.0042482465505599976
  ,  0.01653762347996235,  0.02407890558242798, 0.0048462520353496075
  , 0.007061396259814501, 0.030928650870919228,  0.09263550490140915
  , 0.022336479276418686, -0.054816655814647675,  0.06303468346595764
  , -0.017729127779603004,  0.04709608852863312, -0.04665057361125946
  ,  0.05641897767782211, -0.05661400407552719,  0.03253234922885895
  ,  0.00886811688542366
};
Neuron_ctor(&(hiddenNeurons[2]), hiddenNeuron2Weights, hiddenNeuron2NumWeights, Activation_ReLU);

// Configure neuron[3] for layer "hidden"
unsigned int hiddenNeuron3NumWeights = 785;
float hiddenNeuron3Weights[785] = {
   -0.03846590965986252 // This is the bias
  ,   0.0356382355093956, 0.005765407811850309, -0.03249106556177139
  ,  0.04788919538259506,  0.10854024440050125,  0.03536836802959442
  ,    0.076680488884449, 0.005254803691059351,  0.10967803746461868
  , 0.00014359899796545506,  0.12228649109601974,  0.09046056121587753
  , -0.004561521578580141, 0.003045302117243409, -0.014773234724998474
  ,  0.12185420840978622,  0.09252160042524338,  0.02546677179634571
  ,    0.116908498108387, -0.04183065891265869, -0.04333968460559845
  , -0.04495885968208313, -0.006756723392754793, 0.010272447019815445
  ,  0.06204279512166977,  0.03936510533094406,   0.0821186825633049
  ,  0.06142151728272438, -0.0032069364096969366, -0.04239276796579361
  ,  0.07610677927732468,   0.0456090047955513, -0.018666939809918404
  , 0.0017915688222274184, 0.023634659126400948, -0.01798355020582676
  , -0.035030465573072433,  0.01649514213204384, -0.031592391431331635
  ,  0.10581052303314209,  0.09375238418579102,  0.11979298293590546
  ,   0.1244383379817009, 0.004473547451198101, -0.02613452449440956
  , -0.03357589244842529,  0.09505070000886917, -0.04261420667171478
  ,  0.11109666526317596, -0.04011591896414757,  0.09329874068498611
  ,  0.04251330345869064,  0.04690854251384735, -0.02955666370689869
  ,  0.04553014039993286,   0.1093878522515297,   0.0608225092291832
  , -0.023100892081856728,  0.06235990300774574,  0.11204726248979568
  , -0.013482162728905678,  0.10688918083906174,  0.04347836226224899
  , -0.007204238325357437, 0.047550737857818604,  0.08509642630815506
  , -0.022198809310793877,  0.07573656737804413,    0.076100192964077
  , 0.013036008924245834,  0.09029623866081238,    0.048064935952425
  ,  0.10236985236406326,  0.06239867955446243, -0.029786420986056328
  ,  0.06775374710559845,  0.02724248170852661,  0.03449583053588867
  , -0.01353791356086731,  0.03870187699794769,  0.10246756672859192
  ,  0.03764602541923523,   0.0744861587882042,  0.07618185132741928
  , 0.008922535926103592, -0.012299083173274994, 0.055074792355298996
  ,  0.09718353301286697,    0.120484359562397, 0.026701336726546288
  , 0.0028865605127066374,  0.06822216510772705,  0.08064447343349457
  , -0.06787222623825073, -0.051389891654253006, -0.08158129453659058
  , -0.06531223654747009, -0.10467458516359329,   -0.171107679605484
  , -0.014859546907246113, -0.019782541319727898, 0.005871336441487074
  ,   0.1008540466427803, -0.03642573580145836, -0.05839632451534271
  ,   0.0357699915766716, 0.025440504774451256, -0.08170826733112335
  , 0.035450082272291183,  0.05183163285255432, -0.05074682831764221
  , -0.04677437245845795,  0.05996740609407425,  0.11915694922208786
  , 0.007543007377535105, 0.025918085128068924,  0.05481324344873428
  ,  0.11548811942338943, -0.041744716465473175, -0.05606359243392944
  , 0.0009086087229661644,  -0.2069750875234604, -0.20410434901714325
  , -0.13966155052185059, -0.17553575336933136, -0.07030016928911209
  , -0.011179089546203613, -0.05320887267589569, -0.09620869159698486
  , -0.11226744949817657,  -0.1083793044090271, 0.012005966156721115
  ,  -0.0268058143556118, -0.05283033102750778,  0.09046421200037003
  , -0.019034966826438904, -0.0011678122682496905, 0.003986264578998089
  ,  0.08264364302158356, 0.018084919080138206,   0.0857129916548729
  , -0.03146425634622574,  0.08057226240634918, -0.035320062190294266
  , -0.037859149277210236,  0.09502144902944565,   0.0723010003566742
  ,  -0.0355062335729599, -0.10035555064678192, -0.21346637606620789
  , -0.31773149967193604,  -0.2781289517879486, -0.20770473778247833
  , -0.07136552035808563, -0.05397859215736389, -0.011521512642502785
  , -0.07979825884103775, -0.022578945383429527, -0.09381651878356934
  , -0.13681969046592712, -0.08415203541517258, -0.001074697356671095
  ,   0.0907318964600563,  0.08402539789676666, 0.044221870601177216
  , -0.046379946172237396,   0.0831030085682869,  0.06979797035455704
  , 0.017168449237942696,  0.12148038297891617,  0.09955374896526337
  , -0.00861697643995285, -0.015594147145748138,  -0.0215248242020607
  , -0.016804808750748634, -0.04724018648266792, -0.14671418070793152
  ,  -0.2495286762714386,  -0.3066721260547638, -0.09036284685134888
  , -0.08118407428264618, -0.10457506030797958,  0.05833180248737335
  , 0.0026006707921624184, 0.043579015880823135,  0.01681571640074253
  , -0.09140102565288544, -0.09172701835632324, -0.08256560564041138
  ,  0.07394849509000778, 0.019124915823340416, -0.008853134699165821
  , -0.032547976821660995, -0.06667984277009964,  0.09043706953525543
  ,  0.03649922087788582, 0.011044923216104507, 0.006342946086078882
  ,  0.07655797153711319,   0.0697520524263382,  0.09989320486783981
  , -0.07694561034440994,  -0.0800514742732048, -0.16638050973415375
  , -0.18193116784095764, -0.09900151938199997, -0.17296522855758667
  , -0.09742376208305359,  0.05448072403669357, -0.01764923520386219
  ,  0.03514661639928818,  0.05738086998462677,  0.08815012872219086
  , 0.046601779758930206, 0.0018726576818153262,   0.0469219908118248
  ,   0.0741407498717308, -0.027682997286319733,  0.16805611550807953
  ,  0.15996843576431274,  0.03595009446144104, -0.09444768726825714
  ,  0.03687690198421478, -0.02918301895260811, -0.03037230856716633
  ,  0.05594192445278168, 0.010877527296543121,  0.12028370052576065
  , 0.039336856454610825, 0.008268549107015133, -0.10917472094297409
  ,  -0.0564773790538311, -0.04712742194533348,  -0.0136338472366333
  , -0.16391733288764954, -0.21664781868457794, -0.04364009201526642
  , -0.014960027299821377,  0.12367549538612366,  0.10782462358474731
  , -0.005356497131288052,  0.11567661911249161,  0.02299928478896618
  ,  0.09237134456634521,  0.07115264981985092,  0.10668133199214935
  ,  0.01339221652597189, -0.05653255805373192, -0.011223428882658482
  , 0.027959875762462616,  0.05458735302090645, -0.02121312916278839
  ,  0.05680784583091736,  0.09829557687044144,  0.07742497324943542
  , -0.02503037638962269,   -0.056001927703619, -0.06093953549861908
  , -0.031184116378426552, -0.06999605894088745, -0.02521333284676075
  , 0.020569609478116035, -0.11157631874084473, -0.16413052380084991
  ,  -0.1255258321762085,  0.19144406914710999,  0.09963874518871307
  ,  0.25461500883102417,  0.10426165908575058,  0.11459989845752716
  ,  0.18454144895076752,  0.14481958746910095,  0.04344435781240463
  ,  0.07856075465679169, -0.045514240860939026,  -0.0524410605430603
  ,  0.11150138080120087,  0.01428554393351078,  0.05422003194689751
  , -0.03632710874080658, -0.012688582763075829, -0.005048950202763081
  , -0.04511666297912598, -0.024518942460417747,  -0.0739544928073883
  , -0.10680001974105835, -0.0022004886996001005,  0.02175959199666977
  ,  -0.0452960766851902, -0.04048045352101326, -0.08634303510189056
  ,   -0.134644016623497, -0.09220454841852188,  0.16205629706382751
  ,    0.152216374874115,  0.24235036969184875,  0.16611194610595703
  , -0.02096313238143921, 0.050034672021865845,  0.10884014517068863
  ,  -0.0077214022167027, 0.023361293599009514,   0.0819835513830185
  , 0.006736176088452339,  0.12010682374238968,  0.08198731392621994
  ,  0.07064876705408096, -0.023989848792552948, -0.04141665995121002
  , 0.045340653508901596, -0.028343940153717995,   0.0733569860458374
  , -0.04665590450167656, -0.04730222001671791, -0.10161744803190231
  , -0.15891562402248383, -0.0007554104086011648, -0.05697093904018402
  , -0.005645547062158585, -0.07769710570573807, -0.13526849448680878
  ,  0.13349291682243347,  0.23003801703453064, 0.013328035362064838
  , -0.06406620889902115, -0.13022804260253906,   0.0383601076900959
  , -0.11364027112722397, -0.03753118962049484,  0.00775564881041646
  ,  0.12172281742095947,  0.16366499662399292,  0.08543974906206131
  , -0.012981221079826355,  0.13152822852134705, 0.021046409383416176
  ,  0.11232159286737442,  0.04391011968255043, -0.023532835766673088
  ,  0.09483640640974045,  0.09004243463277817, -0.11898764967918396
  ,  -0.1138232871890068, -0.03484024107456207, -0.033739086240530014
  , -0.13346606492996216, 0.0008294596918858588,  0.07777711749076843
  ,  0.09461085498332977,   0.1244230717420578,  0.22021996974945068
  ,  0.12943117320537567, -0.12125199288129807, -0.08163689076900482
  , -0.11526073515415192,  -0.0988662838935852, -0.07501743733882904
  ,  0.05424633249640465, 0.029928991571068764,  0.05831422656774521
  , -0.03935273736715317,  0.02297074720263481, 0.049422670155763626
  , 0.028387872502207756, -0.026240592822432518,   0.0639353096485138
  , 0.013848760165274143, -0.04280322045087814, -0.011166798882186413
  ,  0.05848563835024834, -0.023676322773098946, -0.008257218636572361
  , 0.010616403073072433,  0.11354945600032806,  0.01992889866232872
  ,  0.03685041144490242, -0.022547196596860886,  0.05288929492235184
  ,  0.22250817716121674,  0.08045706152915955,  -0.1035018339753151
  , -0.06806350499391556, -0.21266190707683563,  -0.2310602068901062
  , -0.19805610179901123, -0.15539619326591492, -0.14475175738334656
  , -0.12732943892478943, -0.09524732083082199, -0.07198780030012131
  ,  0.06828238815069199, 0.004385945852845907,  0.11666805297136307
  , 0.009831944480538368,  0.08709550648927689, 0.008652539923787117
  , -0.027326153591275215, -0.04308786988258362, 0.008199552074074745
  , -0.05068264901638031, -0.013324746862053871, 0.0062445178627967834
  , -0.013196563348174095, 0.044781558215618134,   0.0661073625087738
  ,  0.08056022226810455,  0.11370035260915756, 0.040033016353845596
  , -0.03451993316411972,  -0.0902300626039505, -0.03168237581849098
  ,  -0.1618499755859375, -0.20194286108016968, -0.17118927836418152
  , -0.10302708297967911, -0.03696690872311592, 0.012678161263465881
  , 0.056578315794467926, -0.06691081076860428,  0.10465826094150543
  ,  0.08559853583574295,  0.12422586977481842, -0.04113263264298439
  ,  0.09108870476484299, 0.016607822850346565, 0.029014848172664642
  , -0.005805548280477524,   0.0203435979783535, -0.06668087840080261
  , -0.03981762379407883, -0.08799156546592712, -0.02162991091609001
  ,  0.09681537747383118, 0.056894708424806595,   0.1496209055185318
  , 0.035153958946466446, 0.025621868669986725, 0.019391531124711037
  , -0.02029612474143505,  -0.1522589474916458, -0.25569429993629456
  , -0.14917969703674316, 0.009778590872883797, -0.11275139451026917
  , -0.12065580487251282, -0.07113664597272873,    0.074219711124897
  ,  0.03242693468928337,   0.1095874235033989, 0.009721310809254646
  , -0.0009635823080316186, -0.0037105707451701164,  0.12111002206802368
  ,  0.09967054426670074, -0.012332639656960964, -0.17094837129116058
  , -0.061776455491781235, -0.07323692739009857, -0.03298260644078255
  ,  0.07395129650831223, -0.04763244464993477,   0.1366771012544632
  ,  0.21866938471794128,  0.09026451408863068,   0.0846206396818161
  ,  -0.1619928628206253,  -0.1414663940668106,  -0.1932552605867386
  ,  -0.1406055986881256, -0.06752301752567291, -0.12547509372234344
  , -0.08519506454467773, -0.06115197762846947, -0.06577575951814651
  , 0.029949629679322243, -0.023394431918859482, 0.012029603123664856
  , -0.016975844278931618,  0.07469221949577332, -0.06261191517114639
  , -0.03980459272861481,   0.0646824836730957, -0.03245403245091438
  , -0.14052414894104004, -0.12224563211202621, -0.08267341554164886
  , -0.0046372381038963795, -0.08505602180957794, -0.02227749302983284
  ,  0.10362514108419418,   0.2657865881919861,   0.1279422491788864
  , -0.11547797173261642, -0.037189919501543045, -0.11954601109027863
  , -0.18224792182445526, -0.20110470056533813, -0.07182556390762329
  , -0.002043275162577629,  0.05084088072180748, -0.09437407553195953
  , 0.042617734521627426, -0.026872076094150543, 0.060170549899339676
  , 0.010768512263894081, -0.02586505375802517,  0.06283066421747208
  , -0.04207685962319374, -0.07808268815279007,   -0.030925203114748
  , -0.04060789942741394, -0.03825373575091362, 0.0050633191131055355
  , -0.004023031331598759, -0.02470124512910843, 0.045335620641708374
  , 0.033884838223457336,   0.0975157842040062,   0.1346622109413147
  , 0.027461333200335503, -0.21516551077365875, -0.08866129070520401
  ,  -0.1067538633942604, -0.061159275472164154, -0.17556358873844147
  , -0.10136767476797104, -0.11804590374231339, -0.060311686247587204
  ,  -0.0500781387090683,  -0.0375061072409153, 0.021937621757388115
  ,  0.10401544719934464, -0.012719761580228806,  0.05365730822086334
  ,  0.05505288764834404, 0.028214100748300552, -0.028954114764928818
  , -0.13307209312915802, -0.05341634154319763, -0.10169051587581635
  , 0.021730385720729828,   0.0679529458284378, -4.196041845716536e-05
  , -0.00855261366814375,   0.0889749601483345,    0.151472270488739
  ,  0.09408695995807648, -0.10305836796760559, -0.16085386276245117
  , -0.14051201939582825, -0.02078085206449032,  -0.1219577044248581
  , -0.10304085910320282, -0.10408509522676468, -0.09210372716188431
  , -0.01515627559274435, -0.030255617573857307,  0.06445877254009247
  ,  0.04269813746213913, 0.016318324953317642,  0.05911237746477127
  , -0.0037619785871356726, -0.039422836154699326, -0.037146519869565964
  , -0.11580678820610046, -0.030342988669872284, -0.019258029758930206
  , -0.011643371544778347, -0.08720120042562485, 0.058541618287563324
  ,  0.16160044074058533,  0.11854265630245209,  0.10804134607315063
  ,  0.08057614415884018, 0.035886142402887344, -0.10387248545885086
  ,  -0.0775008574128151, -0.043945904821157455, -0.14894771575927734
  , -0.05121161788702011, -0.05118391662836075, -0.16217225790023804
  , -0.025939971208572388,  -0.0395742766559124, -0.03881155699491501
  ,  0.11675890535116196,  0.06533802300691605, -0.020078806206583977
  , -0.015664895996451378,  0.10726980865001678,    0.082985058426857
  , -0.05928521603345871, -0.005335692781955004, -0.06658373773097992
  , -0.08828291296958923, -0.04724094271659851, -0.13625985383987427
  , -0.03013601340353489,  0.04860901087522507, -0.059608813375234604
  , -0.015019971877336502, 0.049807339906692505, -0.04629554972052574
  , -0.02922901138663292,    -0.17136250436306, -0.31860777735710144
  , -0.20056401193141937, -0.24952127039432526, -0.04305001348257065
  , -0.09300914406776428, -0.003103861818090081, -0.056313302367925644
  , -0.06824102252721786,   0.0386807806789875,  0.09289422631263733
  ,   0.0442475751042366,   0.0895535871386528,  0.12174250930547714
  , -0.0027967358473688364,  0.06208775192499161, -0.10225904732942581
  , -0.05004921555519104,  0.08904289454221725, -0.03916911780834198
  , 0.051745444536209106,  0.02626756578683853,  0.07298469543457031
  , -0.10526987165212631, -0.09339480102062225, -0.04132292419672012
  ,   0.0286713857203722, -0.08304697275161743, -0.17840413749217987
  , -0.06901991367340088,   -0.110265351831913, -0.14327020943164825
  , -0.04450216889381409, -0.05426392704248428, -0.008607248775660992
  , -0.019770661368966103,  0.04163924604654312,  0.10356017202138901
  , 0.015483713708817959, 0.024573395028710365,  0.10480514913797379
  , -0.009059686213731766, -0.003104771953076124, 2.9884569812566042e-05
  , -0.039681561291217804,   0.0791308805346489,  0.03356093913316727
  ,  0.06828636676073074,  0.04593005031347275,  0.17318668961524963
  ,  0.05718950927257538,  0.13849233090877533,  0.13986311852931976
  , 0.030580535531044006, -0.16711661219596863, -0.07412099093198776
  , -0.16255685687065125, -0.13451191782951355, -0.17371733486652374
  , -0.11931024491786957, -0.004850562196224928, -0.09868977963924408
  ,    0.034603301435709,  0.07870828360319138,  0.08201326429843903
  , -0.02591816894710064, -0.0059480913914740086, 0.059632837772369385
  , -0.03818260878324509,  0.11086674779653549,  0.04203087463974953
  , -0.04568133503198624,  0.07009212672710419,  0.03962869942188263
  , -0.04056040197610855, -0.05033133924007416, -0.005068755708634853
  ,   0.1314266324043274,  0.06267277896404266, -0.07075187563896179
  ,  0.03437227010726929, -0.10125546902418137,  -0.0665980651974678
  ,  -0.0639762133359909, -0.26326438784599304, -0.16929373145103455
  , -0.08435646444559097,  -0.1070474162697792, -0.08737353980541229
  , -0.021039968356490135,  0.08171078562736511,  0.05689588561654091
  , -0.038505878299474716, -0.04378141462802887, -0.043682876974344254
  ,  0.06581690162420273,  0.06416147202253342,  0.01671474240720272
  , -0.001122924848459661, -0.00698454724624753, -0.02188935875892639
  ,  0.09107999503612518, -0.08554217219352722, -0.017003247514367104
  , 0.020771799609065056, -0.09980575740337372,  -0.0572960190474987
  , -0.05197075009346008, -0.023051857948303223, -0.014847341924905777
  , -0.011519966647028923, -0.041398998349905014, -0.07751829922199249
  , -0.11360739916563034, -0.07933332771062851, -0.04095719754695892
  ,  0.10425831377506256, -0.023214569315314293, -0.034194860607385635
  , 0.059175897389650345,   0.0590316466987133, 0.008630184456706047
  , -0.019723782315850258,  0.12155529111623764,  0.05715093016624451
  ,  0.09936166554689407,  0.11560440808534622,  0.07755883783102036
  ,  0.05705009773373604,  0.06478025019168854,  0.08712461590766907
  ,  0.10719194263219833,  0.07877707481384277, -0.011044246144592762
  , -0.03426707535982132,  0.08145635575056076,  0.05402126535773277
  , -0.05328138917684555, 0.014447346329689026, 0.021840518340468407
  ,  0.07643204182386398, 0.024691889062523842, -0.004501102026551962
  , 0.061042726039886475, 0.008011376485228539,  0.09577937424182892
  , 0.009408323094248772, -0.007748742122203112, -0.03955429047346115
  ,  0.07775557786226273,  0.11925794929265976,  0.01189049705862999
  ,  0.11831191927194595,  0.05820375680923462,  0.12395300716161728
  , -0.04121045023202896,  0.07158329337835312,  0.06769292056560516
  ,  0.03762568160891533, 0.036026328802108765,  0.11527925729751587
  , 0.002587369177490473,  0.01982145756483078, -0.03874712437391281
  ,  0.08105530589818954, -0.03448453173041344,  0.04971330612897873
  ,  0.07886464148759842,  0.09831676632165909, 0.005446350667625666
  ,  0.11663348972797394,  0.10322504490613937,  0.08939362317323685
  ,   0.1187077984213829, -0.03430876135826111, -0.013484982773661613
  ,  0.08150217682123184,  0.07853247970342636,   0.0267429668456316
  ,  0.05139383673667908
};
Neuron_ctor(&(hiddenNeurons[3]), hiddenNeuron3Weights, hiddenNeuron3NumWeights, Activation_ReLU);

// Configure neuron[4] for layer "hidden"
unsigned int hiddenNeuron4NumWeights = 785;
float hiddenNeuron4Weights[785] = {
   -0.008136357180774212 // This is the bias
  , -0.010739668272435665, 0.008274233900010586, -0.019784318283200264
  , -0.05828426405787468,  0.08304198831319809,  -0.0267923753708601
  , -0.029899252578616142,  0.09186165779829025, -0.018456486985087395
  , 0.008720454759895802,  0.04464201256632805,  0.02955915592610836
  ,  0.09426271915435791,  0.06586925685405731, 0.005581963807344437
  , 0.011964122764766216, -0.03199209272861481,  -0.0354616604745388
  , 0.036453623324632645,  0.07209853082895279, -0.012458610348403454
  , -0.051407087594270706,   0.0933745726943016, -0.0001484593522036448
  , -0.030864162370562553, -0.04320382699370384,  0.09209340065717697
  , 0.018609745427966118, 0.057701196521520615, 0.030996153131127357
  ,    0.063347727060318, -0.02655772678554058,  0.06761442869901657
  , 0.031226927414536476,  0.06331893801689148,  0.08837933838367462
  ,  0.07274366915225983, 0.054608434438705444, -0.012929800897836685
  , -0.061157263815402985,  0.10558932274580002,  0.06740877777338028
  ,  0.03480258584022522,  0.06062467768788338,  0.12125935405492783
  ,  0.05529775097966194, 0.035605303943157196, -0.04542916268110275
  , -0.05380355194211006, 0.049168188124895096,   0.0548015721142292
  , 0.004308400209993124, 0.018004225566983223,  0.04135855659842491
  ,  0.09212542325258255,  0.07847491651773453,  0.08898609131574631
  , 0.045484501868486404,  0.08633667230606079, -0.01880532130599022
  , -0.02692943997681141, 0.015609062276780605, -0.06721188127994537
  , -0.013354981318116188,  0.04320145770907402, 0.007012123707681894
  ,  0.02835015021264553,  0.02323872223496437,  0.11610928922891617
  , -0.027102002874016762,  0.08187401294708252, -0.04223943501710892
  , 0.017587337642908096,  0.07931128889322281,    0.154380664229393
  ,  0.09834890812635422, -0.02049429714679718,   0.0465753972530365
  , -0.033597927540540695,  0.07509103417396545, 0.013219374231994152
  , 0.013539424166083336, -0.053992610424757004,  0.03700947389006615
  , -0.0004223409341648221,  0.03717904910445213,  0.04165371134877205
  ,  0.01873733289539814, 0.041832976043224335, -0.05907369405031204
  ,  0.08844932913780212,  0.04176466912031174,   0.1622646152973175
  ,  0.06893538683652878, 0.048282869160175323, 0.044530633836984634
  ,  0.13415393233299255,  0.08855902403593063, -0.011334048584103584
  ,  0.10831282287836075, -0.05003555491566658,  0.05307668820023537
  ,  0.07246413826942444,  0.07910130172967911,  0.06514054536819458
  , 0.024780135601758957,  0.02771277166903019,  0.07585781067609787
  , -0.02880016714334488, 0.017217494547367096, 0.004248308949172497
  ,  0.08720370382070541, -0.018969504162669182, -0.056718144565820694
  , -0.07100305706262589, -0.07387299835681915, 0.018574947491288185
  , 0.031138043850660324, 0.019368937239050865,  0.07090037316083908
  ,  0.14976805448532104,  0.19385266304016113,  0.16704542934894562
  ,   0.1146138459444046, 0.003547028172761202, -0.08212071657180786
  , 0.0052543459460139275, -0.08585288375616074, 0.0004018298059236258
  , -0.03370305523276329,  0.11142794787883759,  0.06461558490991592
  ,  -0.0555536262691021, -0.06354311853647232, -0.07398629933595657
  , -0.03699908033013344, -0.02446441724896431, 0.007743983995169401
  , -0.04931390658020973,  0.03367907181382179, -0.049283210188150406
  , -0.07752435654401779, -0.03543314337730408, 0.026133308187127113
  , -0.030572958290576935,  -0.0188287403434515, -0.07863392680883408
  ,  0.10960229486227036,  0.11955253034830093, -0.024546770378947258
  ,  0.05924161151051521, -0.06242411583662033, -0.07130437344312668
  , 0.013899825513362885, -0.13329307734966278, -0.07497250288724899
  ,   0.0150231271982193, 0.0018506762571632862, -0.06802985072135925
  ,   -0.090199314057827, 0.027710499241948128,  0.02259853668510914
  , -0.027667641639709473, -0.06375018507242203, -0.05715259537100792
  ,  0.03904625028371811,  0.08196229487657547, -0.07203284651041031
  ,  0.02988888882100582, -0.00912773422896862, 0.016442274674773216
  , -0.004079557489603758,  0.04623344913125038,  0.10390245914459229
  , -0.07099149376153946, -0.04102521017193794, -0.03091506101191044
  , -0.037595540285110474, -0.19216285645961761, -0.13799865543842316
  ,  -0.1361514925956726, -0.014154571108520031, -0.09253452718257904
  , -0.20597675442695618, -0.05499871075153351,  -0.1088808998465538
  ,  -0.1741030067205429, -0.14846035838127136, -0.13393153250217438
  , -0.09898938983678818,  -0.0690084844827652, -0.11903579533100128
  , -0.038049932569265366, 0.026223741471767426, -0.06659861654043198
  , -0.03293242305517197,  0.07827293127775192, -0.009819230996072292
  , -0.014729856513440609, -0.06231682002544403,  0.03308197110891342
  , -0.048040129244327545,  0.02369428239762783, -0.05799791216850281
  , -0.02519230730831623, -0.09711439162492752, -0.10586203634738922
  , -0.056976720690727234,  -0.1495187133550644, -0.17286890745162964
  , -0.16321824491024017, -0.27276891469955444,  -0.2833837866783142
  , -0.33254608511924744, -0.23027223348617554,  -0.2792498767375946
  ,  -0.1831267923116684, -0.19969548285007477,  -0.1473546177148819
  ,  -0.1708759069442749,  0.03376699984073639, 0.015691258013248444
  , -0.04908251762390137, 0.0040268804877996445, -0.05555308982729912
  ,  0.09505273401737213, -0.07519081979990005, -0.07333486527204514
  , 0.026723578572273254, -0.02481246553361416, -0.06885949522256851
  , -0.009638828225433826, -0.051170580089092255, -0.13499224185943604
  ,  -0.0646379217505455, -0.10675135254859924,  -0.2514273226261139
  ,  -0.2295812964439392, -0.12555138766765594,  -0.2347101867198944
  , -0.34927818179130554,  -0.2049379050731659, -0.19502143561840057
  , -0.014709138311445713,  0.03558386117219925, -0.03427723050117493
  , 0.030409205704927444, -0.06491422653198242,  0.02043311670422554
  ,  0.04722902551293373, 0.029459230601787567,  0.07924893498420715
  ,   0.0513320155441761, -0.027822105213999748, -0.08735444396734238
  , 0.062141694128513336,   0.1415034383535385, 0.015924040228128433
  , -0.11099004000425339, -0.033677950501441956, -0.10166043043136597
  , -0.17203882336616516, -0.15599001944065094, -0.19688355922698975
  , -0.05238448083400726, -0.24113650619983673, 0.014244260266423225
  , -0.13439510762691498, -0.016194112598896027,  -0.1094159260392189
  , -0.049803681671619415, -0.10761639475822449, 0.003360232338309288
  , -0.015447484329342842,  -0.1297171264886856,  -0.0772077813744545
  ,  0.05151182413101196, 0.026878347620368004, 0.017800528556108475
  , 0.023572899401187897, -0.06512553244829178, -0.07621999084949493
  , -0.03890867903828621, -0.014136428013443947, 0.057957716286182404
  ,  0.08399369567632675, -0.09376931190490723, -0.039723433554172516
  , 0.027642633765935898,  -0.1665903627872467, -0.08015866577625275
  , -0.09087235480546951,  0.03167690709233284,  -0.0336783267557621
  , -0.029160955920815468,  0.12984740734100342,   0.1630333513021469
  , 0.005192440468817949, -0.06378767639398575, -0.01937239058315754
  , -0.10724535584449768, -0.001328644691966474, 0.050485141575336456
  , -0.09828338772058487,  0.05627736449241638, -0.0015648775734007359
  ,  0.05170771852135658, -0.011126806028187275, -0.06222628057003021
  , -0.003963455092161894, -0.01994248293340206,  0.08099091053009033
  ,   0.0479036420583725, 0.027702050283551216, -0.015017954632639885
  ,  0.05242474377155304, -0.058298300951719284, -0.044661667197942734
  , 0.00019667952437885106, 0.036178071051836014,  -0.0743432343006134
  , -0.058768901973962784,  0.08468558639287949,   0.1975325047969818
  ,   0.1755731850862503,  0.19761385023593903,  0.08550704270601273
  , -0.005871369503438473, -0.007735100109130144,   0.0519958920776844
  ,  0.09877348691225052,   0.1469355970621109,  0.07404764741659164
  ,  0.13554757833480835, 0.062346186488866806,  0.08864030987024307
  , 0.019485266879200935, -0.014980259351432323, -0.039870139211416245
  ,  0.06871993839740753,  0.08972466737031937, -0.009214958176016808
  , -0.016642287373542786, 0.014338482171297073, -0.017427461221814156
  , -0.01874489150941372,  0.10535882413387299, -0.05797608941793442
  , -0.07943219691514969,   0.0854591429233551,  0.24514132738113403
  ,  0.11037105321884155,   0.1604844480752945,  0.11775244027376175
  , -0.007032194174826145, -0.02643485926091671,  0.05310044810175896
  , -0.04301541671156883, -0.010549379512667656, 0.006946341600269079
  ,   0.0733739361166954, -0.04009074345231056, -0.06199778988957405
  , 0.009221688844263554,  0.04111815243959427, -0.0001540557568660006
  ,  0.01624235138297081, 0.049825847148895264, -0.008920351974666119
  ,   0.0544915534555912,  0.02677117846906185, -0.09675140678882599
  , 0.009243440814316273, -0.06571651995182037, -0.11618999391794205
  , -0.02507665380835533, 0.037904128432273865,  0.15318796038627625
  ,  0.07777688652276993, 0.021448025479912758,  0.11279033869504929
  , 0.059171292930841446,  0.11418420821428299,  0.13294118642807007
  ,  0.07325521111488342, -0.02135203592479229,  0.08541856706142426
  ,  0.18321174383163452, 0.022753367200493813,  0.06444994360208511
  ,  0.03216812387108803, -0.059195440262556076, 0.058620501309633255
  ,   0.0935344249010086,  0.03881644085049629,   0.0659637525677681
  , -0.13918384909629822, 0.057752273976802826, -0.026731213554739952
  , -0.07131797075271606, -0.11028750985860825,  0.06500333547592163
  ,  0.11914759129285812, 0.0071276212111115456,  0.04250388965010643
  , -0.06887942552566528, -0.10529007017612457, 0.009060665965080261
  ,  0.07920344918966293, -0.022503497079014778,  0.22705091536045074
  ,  0.07891293615102768,  0.13902097940444946,  0.19013921916484833
  ,  0.18766367435455322,  0.16925963759422302,  0.14867520332336426
  , 0.055301323533058167, -0.039768368005752563, -0.018999038264155388
  ,  0.02951095812022686, 0.048272375017404556, -0.024484621360898018
  , 0.017986062914133072, -0.001687187934294343, -0.03869760036468506
  ,  0.09012044221162796, -0.004309369251132011,  -0.0413459911942482
  ,   0.0658014565706253, -0.06933478266000748, -0.10052131861448288
  , 0.052908480167388916,  0.11004912108182907, 0.026424095034599304
  ,  0.05787491425871849, 0.006845192052423954,  0.13671883940696716
  ,  0.14334727823734283,    0.202812060713768,  0.13331787288188934
  ,  0.13734909892082214,  0.09568725526332855,  0.09525765478610992
  ,  0.17949678003787994,  0.17405511438846588, 0.020074890926480293
  , -0.014596918597817421, 0.028068529441952705,  0.01430881954729557
  ,  0.06745294481515884, 0.016592564061284065,  0.03049103356897831
  ,  0.08795188367366791,  0.08507585525512695, -0.05254555121064186
  , -0.06179364025592804, -0.21204601228237152, -0.18021835386753082
  , -0.20060327649116516, -0.19457922875881195,  0.01067242119461298
  ,  0.10447460412979126,  0.08072123676538467, -0.023140475153923035
  ,  0.08251382410526276,  0.18747735023498535,   0.1255970001220703
  ,  0.19942541420459747, 0.048452235758304596,  0.10387914627790451
  ,  0.07824794203042984,  0.08614105731248856,   0.0954689010977745
  ,  0.01476808451116085, -0.060317154973745346, 0.005145413801074028
  , 0.013522532768547535,  0.06122050806879997,  0.08127535879611969
  , 0.052530620247125626,    0.068126380443573,  0.13163605332374573
  ,  0.12080354243516922,  0.06775903701782227, -0.22618715465068817
  , -0.19256560504436493, -0.042413584887981415, -0.14013801515102386
  , -0.15039584040641785, -0.03172222152352333,   0.0248198714107275
  ,   0.1426079124212265,  0.12080968171358109, -0.008163302205502987
  ,  0.08507457375526428,  0.15334491431713104,  0.06379050761461258
  , -0.048396870493888855,  0.06064116209745407, -0.044308990240097046
  , -0.03463983163237572, -0.05758216604590416,  0.06588703393936157
  , -0.06793349236249924, 0.004714931361377239, -0.06718642264604568
  ,  0.06227782368659973,  0.12587597966194153,  0.06790603697299957
  ,  0.05644022300839424,  0.19566033780574799,  0.14175884425640106
  , 0.021565014496445656,   0.1289667785167694,  0.14189662039279938
  , 0.050591014325618744, 0.012976258061826229, -0.032247815281152725
  ,  0.06456168740987778,  0.12639997899532318,  0.15410645306110382
  , 0.057929325848817825, -0.10220000892877579, -0.19026395678520203
  ,  -0.1734858602285385, -0.05133401229977608, -0.033048324286937714
  , 0.053285010159015656, 0.019880719482898712, -0.05372790992259979
  ,  0.08601987361907959, -0.03202106058597565,  0.05404699221253395
  , -0.004349673166871071,  0.14481277763843536,  0.01654575951397419
  ,  0.05644815415143967, 0.019923187792301178,  0.08339657634496689
  ,  0.04352693259716034,  0.07141529023647308,   0.1029343456029892
  ,  0.24517123401165009,   0.2837858498096466,  0.23857282102108002
  ,  0.14955931901931763,  0.09776163101196289, 0.042003463953733444
  ,  0.11236009746789932, 0.038483891636133194,  -0.1404103934764862
  , -0.04036122187972069, -0.10978537797927856,  -0.1277451515197754
  , -0.017695382237434387, -0.09992430359125137,  0.05558212473988533
  ,  -0.0521283857524395,  0.05714577063918114,  0.08232410997152328
  , 0.015743719413876534, 0.053994257003068924, 0.041800521314144135
  ,   0.1037735715508461,  0.11466304212808609, 0.054190728813409805
  ,   0.0782235637307167,  0.12807974219322205,   0.1216983050107956
  ,  0.18548324704170227,  0.17359928786754608,   0.1738574504852295
  ,    0.269905149936676,    0.226188063621521, -0.0032439061906188726
  , 0.009823630563914776, -0.06120356172323227, -0.06164693087339401
  , -0.20983463525772095, -0.16106851398944855,  -0.2742949426174164
  , -0.09701189398765564, -0.025475068017840385, -0.018726281821727753
  ,  0.05593443661928177, -0.04400741308927536, -0.07046019285917282
  , -0.051195256412029266,  0.03785357624292374, -0.04623720422387123
  ,  0.06877607852220535, 0.011347983963787556, -0.09524314105510712
  , -0.0013617225922644138,  0.07284542173147202, -0.02926919050514698
  ,  0.07176145166158676,  0.13229908049106598,  0.19710345566272736
  ,  0.19184079766273499,  0.22441160678863525,  0.12820737063884735
  ,   0.0678035095334053,  0.05616993457078934,  -0.0089264502748847
  ,  0.07899594306945801, -0.19218522310256958,  -0.2454058825969696
  , -0.15650080144405365,  -0.1956985741853714, -0.02185998111963272
  ,  -0.1223369762301445, -0.04947145655751228,  0.05711968243122101
  , 0.015580850653350353, -0.023099957033991814, -0.06910442560911179
  , 0.014503952115774155,  0.03874506056308746,  0.05308624356985092
  , -0.06885237991809845, -0.07976115494966507, -0.12870995700359344
  , -0.06074879318475723,  0.15846116840839386,  0.13011732697486877
  ,  0.06472579389810562,  0.17396676540374756,  0.04950501769781113
  , 0.006967310328036547,  0.08094999194145203, -0.00026551284827291965
  , -0.12045378983020782, -0.06380048394203186,  -0.1381138265132904
  , -0.15224303305149078, -0.18082280457019806,  -0.1323082000017166
  , -0.01776050217449665, 0.010917025618255138, -0.059649866074323654
  , -0.03576523810625076, -0.013399914838373661, 0.053581129759550095
  ,  0.06033680960536003, 0.043195877224206924, 0.026915179565548897
  ,  0.10264943540096283, -0.054664142429828644, -0.026830580085515976
  , -0.11867249757051468, -0.12220412492752075,  -0.1630222499370575
  , -0.19110652804374695, -0.22706475853919983, -0.21379368007183075
  ,  -0.1938534826040268, -0.20342543721199036, -0.15406331419944763
  , -0.21706445515155792, -0.16510489583015442, -0.09944382309913635
  ,   -0.051821518689394, -0.06681909412145615,  0.02557285688817501
  , -0.08514927327632904, -0.05983974412083626, -0.04752705991268158
  ,  0.06060261279344559, -0.044354356825351715, -0.04075012728571892
  , 0.040361616760492325,  0.02271745167672634,  0.08571771532297134
  ,  0.05962769314646721,  0.03947063162922859, -0.045297302305698395
  , -0.037758368998765945, -0.11540703475475311, -0.18049922585487366
  , -0.17843733727931976, -0.21195201575756073, -0.33061304688453674
  ,  -0.3053494095802307, -0.31388381123542786,   -0.289955198764801
  , -0.26529937982559204, -0.23637306690216064,  -0.1422315090894699
  ,  -0.1429539918899536, -0.05165273696184158, -0.05428074300289154
  , -0.04637257382273674,  0.03277353569865227,  0.07380622625350952
  ,  0.04849022254347801,  0.06153131648898125, -0.0028006224893033504
  , 0.018818216398358345, -0.04267251864075661, -0.0011690860847011209
  ,  0.08553657680749893, 0.023846888914704323, -0.04719693213701248
  , -0.023210886865854263, -0.052006401121616364,  0.04800548776984215
  , -0.07368023693561554, -0.047468751668930054, -0.21835754811763763
  , -0.19440582394599915, 0.030151110142469406, -0.01713956892490387
  , -0.007302024867385626,   -0.172759011387825, -0.04265838488936424
  , -0.012727143242955208, -0.021522551774978638, 0.026806389912962914
  ,  0.07619252055883408, -0.059118714183568954,  0.07205522805452347
  ,  0.04750199243426323, -0.029317930340766907,  0.04437970742583275
  , -0.002783609554171562, -0.0065885428339242935, 0.017123596742749214
  ,  0.04327909275889397,  -0.0497521348297596, -0.03720443323254585
  ,   0.0445462167263031, -0.04786083102226257, -0.019157838076353073
  ,  -0.0633222833275795, 0.027942992746829987,  0.05232441797852516
  , 0.044220004230737686,   0.0324198454618454, -0.03835538029670715
  ,   0.0913901999592781,   0.0438692569732666, -0.030946355313062668
  ,  0.02494964748620987,  0.01793893240392208, -0.011674960143864155
  , -0.018964195623993874, -0.012103771790862083,  0.05475018173456192
  ,  0.07008009403944016, -0.02423323504626751, -0.06698098033666611
  ,  0.06925152987241745,  0.03676753118634224, 0.027543196454644203
  , -0.037410441786050797, 0.060115229338407516,  0.01738162152469158
  ,  0.09145837277173996,  0.05349571257829666, -0.05608711391687393
  , -0.06269370764493942,  0.07787878066301346, -0.06837314367294312
  , -0.034831151366233826, -0.04571213573217392, -0.06892804801464081
  , 0.023134848102927208,  0.07029962539672852, -0.022802505642175674
  , 0.028020301833748817, -0.040840860456228256,    0.076021209359169
  ,  0.02871984802186489, -0.06996908038854599, -0.016048209741711617
  ,  0.04445544257760048, 0.011295841075479984,  0.08059010654687881
  , -0.0003033304528798908, -0.048795025795698166, -0.04951915517449379
  , -0.03636432811617851
};
Neuron_ctor(&(hiddenNeurons[4]), hiddenNeuron4Weights, hiddenNeuron4NumWeights, Activation_ReLU);

// Configure neuron[5] for layer "hidden"
unsigned int hiddenNeuron5NumWeights = 785;
float hiddenNeuron5Weights[785] = {
   0.011562434956431389 // This is the bias
  , 0.010566141456365585, -0.08256092667579651, -0.042137108743190765
  , -0.005818759091198444, -0.06355196237564087, 0.019356459379196167
  , -0.08746077120304108, -0.06866095960140228, 0.030033066868782043
  ,  0.03655184805393219, -0.08767454326152802, -0.01637047901749611
  , -0.07959997653961182, 0.020137380808591843, 0.055627211928367615
  , -0.056030817329883575,  0.04237163066864014, -0.059043630957603455
  , -0.03394528478384018, 0.047438740730285645, -0.08802470564842224
  ,  0.05775123089551926, 0.030791696161031723, -0.022284306585788727
  ,  0.03690677881240845,  0.05012883245944977, -0.029817456379532814
  , -0.025508753955364227,  0.07037925720214844, -0.08596499264240265
  , -0.04176846146583557, -0.03373283892869949, -0.01813093200325966
  , -0.00814182311296463, -0.0062049441039562225,  -0.0669732540845871
  , -0.004211169667541981, -0.08580140769481659, -0.09646990895271301
  , -0.027902018278837204,   0.0456007644534111, -0.026280604302883148
  , 0.038271158933639526, -0.025710005313158035,  0.04624039679765701
  , 0.016478413715958595, -0.05041946470737457, 0.009183661080896854
  , -0.08348236978054047,  0.07022596895694733, 0.020367275923490524
  , 0.054649561643600464, -0.017450831830501556, -0.011022306978702545
  ,  0.03631642460823059, -0.07237915694713593, -0.017165426164865494
  ,  0.07386244833469391, 0.034040868282318115,  -0.0740869790315628
  , -0.01374504342675209,  0.05014832317829132, -0.040277935564517975
  , -0.09804929792881012, -0.06844108551740646,  0.02348509430885315
  , 0.045116398483514786,  0.07052470743656158, 0.006090808194130659
  ,  0.06404175609350204,  -0.0933666005730629, -0.11828043311834335
  , -0.09056804329156876, 0.009989970363676548,  0.04843610152602196
  , 0.003148159710690379, -0.08557203412055969, 0.0003170219133608043
  ,  0.01647169701755047, -0.009570304304361343,  0.07335914671421051
  , -0.040229037404060364, -0.029633959755301476, -0.0047380561009049416
  , -0.043470367789268494, -0.07476438581943512,  0.05334140360355377
  , -0.05196016654372215, -0.013083270750939846,  0.06703691929578781
  , -0.08014031499624252,  -0.0294096227735281, -0.04601150006055832
  , -0.01540571078658104,  0.02362067811191082, -0.03786615654826164
  ,  0.05927414819598198,  -0.0249693151563406,  0.03129439800977707
  ,  0.03758598491549492, -0.07212623953819275, -0.06913094967603683
  , 0.028890790417790413, -0.03753991425037384, -0.01835811324417591
  , -0.06899184733629227, -0.02783302403986454, -0.09496589004993439
  , -0.0011458508670330048,   0.0752972885966301, 0.028347410261631012
  ,  0.03655149042606354, -0.08364805579185486, -0.027215130627155304
  , -0.04809414595365524, -0.08699025213718414, -0.054216474294662476
  , -0.016817526891827583,   0.0826249048113823, -0.020020227879285812
  , -0.01957823894917965, 0.007506977766752243,  0.09189535677433014
  ,  0.13482150435447693,  0.10403818637132645,  0.03724118694663048
  , -0.0022681034170091152,  0.02942049875855446,  0.07720484584569931
  ,  0.06858224421739578,  0.20985795557498932,  0.09393449127674103
  , 0.019411494955420494, -0.022826284170150757,  0.09120330214500427
  , -0.005164989735931158, -0.00677454611286521, -0.023064693436026573
  ,  0.02985771745443344,  0.04920788109302521, 0.015288073569536209
  , -0.05874405801296234, -0.06484291702508926, 0.052179135382175446
  ,  -0.1044820100069046, -0.09026569128036499, -0.09901199489831924
  , 0.058039747178554535,   0.1136544793844223,  0.07791560888290405
  ,    0.179351806640625,  0.12882283329963684, 0.022343510761857033
  ,   0.1469735950231552, -0.033942218869924545, -0.06623569875955582
  ,  0.03302225098013878,  0.05051344260573387, 0.061020925641059875
  ,  0.09603375941514969, -0.039809513837099075, -0.0071335239335894585
  , 0.005455018021166325, -0.005795853212475777, 0.059412624686956406
  , -0.03790378198027611, -0.029562778770923615, -0.042561765760183334
  , -0.08984149992465973, -0.05402208864688873, -0.006008782424032688
  , -0.07109685987234116, -0.038014963269233704, -0.013187030330300331
  , 0.058913446962833405, 0.0003010581131093204, -0.07667846977710724
  , 0.024062875658273697,  0.21776455640792847,  0.03921409323811531
  ,  0.11696796864271164,  0.10172372311353683,  0.14292418956756592
  , -0.01660301350057125, -0.060354989022016525,  0.06375682353973389
  ,  0.10488389432430267,  0.09652309864759445,  0.07212379574775696
  ,  0.07435738295316696,  0.04396248608827591, 0.056692544370889664
  ,  0.11445596814155579,   0.0386093445122242, 0.042828019708395004
  , -0.0037637234199792147, -0.07250653207302094, -0.02416682243347168
  , -0.06568807363510132, -0.029331255704164505, -0.008161067962646484
  ,  0.02036290057003498, 0.018528657034039497, -6.381132698152214e-05
  ,  0.10404416918754578,  0.08290985226631165, -0.010178808122873306
  ,  0.19107332825660706,   0.1073276698589325,  0.10969294607639313
  ,  0.19101770222187042, 0.025787485763430595,  0.08469142764806747
  ,   0.0718206986784935,   0.1393364667892456,  0.15124543011188507
  ,  0.11905943602323532,  0.11975228041410446,  0.05313177406787872
  , -0.008508316241204739, 0.033177636563777924,  0.09572553634643555
  , -0.015061900019645691, -0.04399792104959488,  0.07158887386322021
  , -0.011641979217529297, 0.037497468292713165, -0.01511384453624487
  ,  0.08996107429265976,  -0.0519770048558712, -0.03934212774038315
  , -0.11663246899843216, -0.06627862900495529, 0.013581720180809498
  , -0.04268975928425789, -0.033771220594644547,  0.05226573348045349
  ,  0.07298815250396729,  0.32258138060569763,  0.17130731046199799
  ,  0.12887710332870483,  0.08504903316497803,  0.04630860686302185
  , -0.030882302671670914, -0.03292008489370346, -0.04914068803191185
  ,  0.08507294952869415,   0.0982012152671814, 0.0008489551255479455
  , 0.007355834823101759,  0.08427178114652634,  0.06026103347539902
  ,   0.0365576446056366, -0.07398940622806549, -0.022311892360448837
  , -0.08402649313211441, 0.026039311662316322, 0.013049989938735962
  , -0.07871781289577484, -0.06058467924594879, -0.047225408256053925
  , -0.07454477250576019, -0.10066679120063782, -0.09944556653499603
  ,  -0.0915430411696434, -0.10358963161706924, -0.08490371704101562
  , -0.07365972548723221, -0.06116549298167229, -0.06982535123825073
  ,  0.07380182296037674, -0.09102202951908112, -0.004748611710965633
  ,   0.0559927262365818, -0.021901752799749374,  0.07927319407463074
  , -0.026643553748726845,  0.15317760407924652, -0.04567274823784828
  , -0.07191222906112671, -0.09555906057357788, -0.04156917706131935
  , -0.026000645011663437, -0.07636158913373947,  -0.1057574599981308
